svm_type c_svc
kernel_type polynomial
degree 4
gamma 0.019607843137254902
coef0 0
nr_class 2
total_sv 306
rho 2.9218233389614072
label 1 2
nr_sv 167 139
SV
0.073700765387504627 1:2.806329 2:-0.372059 3:7.96425 4:2.684151 5:-0.277651 6:8.021 7:2.617895 8:-0.069503 9:8.125 10:2.535636 11:0.104218 12:8.1085 13:2.539633 14:0.307098 15:8.085 16:2.613305 17:0.48503 18:7.8 19:2.736099 20:0.670377 21:8.01975 22:2.677998 23:0.902365 24:8.025 25:2.787908 26:1.143931 27:7.939 28:2.83115 29:1.149983 30:7.929749 31:2.941059 32:0.903816 33:7.907 34:3.009269 35:0.678453 36:7.854 37:2.985897 38:0.484595 39:7.793 40:3.059568 41:0.29165 42:8.073999 43:3.063565 44:0.105585 45:7.66 46:2.981307 47:-0.071504 48:7.793667 49:2.915051 50:-0.270607 51:7.8175 
0.47887423422173225 1:-3.317414 2:-0.305984 3:8.8395 4:-3.424067 5:-0.231307 6:8.8155 7:-3.503019 8:0.017551 9:8.801666 10:-3.462789 11:0.232938 12:8.687 13:-3.405057 14:0.415642 15:8.789 16:-3.416956 17:0.566797 18:8.85 19:-3.466887 20:0.734485 21:9.021 22:-3.263178 23:0.861907 24:8.9205 25:-3.260209 26:1.09041 27:8.956 28:-3.141507 29:1.092479 30:8.973 31:-3.138538 32:0.878169 33:8.917 34:-2.934829 35:0.702716 36:9.008499 37:-2.98476 38:0.555146 39:8.839334 40:-2.996659 41:0.434608 42:8.842 43:-3.172039 44:0.215943 45:8.654 46:-3.131809 47:0.023288 48:8.906 49:-3.210762 50:-0.240205 51:8.841 
0.29269625928461845 1:2.743521 2:-0.375206 3:7.578667 4:2.543859 5:-0.241168 6:7.363 7:2.232098 8:0.03492 9:7.801 10:2.325905 11:0.396585 12:7.774 13:2.616768 14:0.614412 15:7.663 16:2.585391 17:0.762926 18:7.626667 19:2.594955 20:0.898101 21:7.857 22:2.564177 23:0.984488 24:7.62 25:2.483102 26:1.099839 27:7.633 28:2.959028 29:1.100599 30:7.982 31:2.874393 32:0.982157 33:7.886 34:2.837857 35:0.884977 36:7.80575 37:2.84742 38:0.77662 39:7.812 40:2.827779 41:0.615632 42:7.392334 43:2.531331 44:0.398925 45:7.288 46:2.625138 47:0.041154 48:7.61125 49:2.943183 50:-0.241037 51:7.359 
0.1418523121825791 1:-5.01927 2:0.124971 3:10.482 4:-5.294715 5:0.186834 6:10.672 7:-4.880029 8:0.197524 9:10.712999 10:-4.686137 11:0.280963 12:10.478 13:-4.910846 14:0.355385 15:10.373 16:-4.846921 17:0.494595 18:10.4585 19:-5.259239 20:0.686415 21:10.415 22:-4.835059 23:0.845476 24:10.464 25:-4.9484 26:0.950393 27:10.334 28:-4.758277 29:0.948997 30:10.532 31:-4.536601 32:0.832154 33:10.542 34:-4.112422 35:0.704583 36:10.397 37:-4.524739 38:0.523624 39:10.653 40:-4.460814 41:0.365441 42:10.6665 43:-4.685524 44:0.245047 45:10.612 46:-4.490405 47:0.204318 48:10.549 49:-4.743824 50:0.186519 51:10.654 
0.2066207898426756 1:4.156291 2:-0.214316 3:9.929 4:3.839557 5:-0.160339 6:10.021 7:3.889737 8:-0.10372 9:9.958 10:3.799887 11:0.026187 12:10.015 13:3.77078 14:0.166368 15:10.037001 16:3.86225 17:0.407062 18:9.983 19:4.218588 20:0.520696 21:9.733334 22:4.171484 23:0.650685 24:9.7355 25:4.08213 26:0.771009 27:9.884 28:4.620852 29:0.770319 30:9.835999 31:4.531497 32:0.641928 33:9.74 34:4.484394 35:0.522099 36:9.6698 37:4.128055 38:0.403095 39:9.665 40:4.219526 41:0.158656 42:9.753666 43:4.190419 44:0.016847 45:10.005 46:4.100568 47:-0.104023 48:9.987 49:4.150748 50:-0.160443 51:10.0275 
1 1:-1.075319 2:-0.390085 3:8.52 4:-1.097872 5:-0.318338 6:8.509999 7:-1.216815 8:-0.120307 9:8.509 10:-1.215463 11:0.05352 12:8.4445 13:-1.208378 14:0.258042 15:8.45 16:-1.21181 17:0.384971 18:8.474 19:-1.075698 20:0.56172 21:8.523 22:-1.064645 23:0.691797 24:8.562 25:-1.178523 26:0.911834 27:8.533 28:-0.779456 29:0.917711 30:8.588 31:-0.893334 32:0.706578 33:8.548 34:-0.882281 35:0.548096 36:8.558 37:-0.746169 38:0.383949 39:8.4515 40:-0.749601 41:0.245539 42:8.5625 43:-0.742515 44:0.077024 45:8.436501 46:-0.741163 47:-0.120477 48:8.521 49:-0.860107 50:-0.318492 51:8.514 
0.50479560788214572 1:3.232212 2:-0.219212 3:8.3545 4:3.210041 5:-0.087691 6:8.419 7:3.083977 8:-0.040877 9:8.461 10:2.866818 11:0.074454 12:8.441334 13:2.864299 14:0.24075 15:8.3955 16:2.987996 17:0.476166 18:8.413 19:3.005866 20:0.618922 21:8.332001 22:3.138558 23:0.760756 24:8.272 25:2.948662 26:0.851326 27:8.108 28:3.556229 29:0.853951 30:8.133 31:3.366333 32:0.739002 33:8.1175 34:3.043477 35:0.619224 36:8.034 37:3.061346 38:0.488607 39:8.1 40:3.185043 41:0.218359 42:8.436 43:3.768225 44:0.069174 45:8.436501 46:3.551066 47:-0.04453 48:8.167666 49:3.594483 50:-0.100711 51:8.203 
0.97304248367551816 1:4.082308 2:-0.600008 3:7.749 4:3.983229 5:-0.435753 6:7.651 7:3.865104 8:-0.31742 9:7.896 10:3.859065 11:-0.135654 12:7.868 13:3.834976 14:0.020524 15:7.849 16:3.774842 17:0.122519 18:7.831 19:3.984317 20:0.325812 21:7.812 22:3.991726 23:0.47039 24:7.798 25:4.009224 26:0.693096 27:7.692 28:4.155392 29:0.67913 30:7.696 31:4.17289 32:0.462367 33:7.665 34:4.1803 35:0.307985 36:7.611 37:4.389775 38:0.122363 39:7.821 40:4.32964 41:0.033796 42:7.55 43:4.305552 44:-0.135429 45:7.582 46:4.299513 47:-0.317701 48:7.903 49:4.181388 50:-0.435838 51:7.6525 
0.065667010776002246 1:-1.90053 2:-0.526111 3:11.491 4:-1.723823 5:-0.463426 6:11.528 7:-1.743614 8:-0.374804 9:11.443 10:-1.828846 11:-0.268461 12:11.45 13:-1.677786 14:-0.097801 15:11.433 16:-1.70411 17:0.106402 18:11.653999 19:-1.642294 20:0.311236 21:11.607 22:-1.842561 23:0.494537 24:11.598499 25:-1.775437 26:0.673112 27:11.514 28:-1.726105 29:0.671884 30:11.493 31:-1.658982 32:0.505434 33:11.601 34:-1.437868 35:0.34236 36:11.563499 37:-1.376052 38:0.095014 39:11.588 40:-1.402376 41:-0.077817 42:11.627 43:-1.251316 44:-0.268133 45:11.436 46:-1.336548 47:-0.353255 48:11.435 49:-1.356339 50:-0.480427 51:11.422 
0.87900229020151432 1:-0.444911 2:-0.25149 3:8.9495 4:-0.440014 5:-0.125143 6:8.851 7:-0.370111 8:0.014984 9:8.89175 10:-0.540805 11:0.106086 12:8.898 13:-0.632617 14:0.36802 15:8.824 16:-0.399516 17:0.512559 18:9.056 19:-0.558524 20:0.733277 21:8.871 22:-0.8899 23:0.850785 24:8.891 25:-0.676825 26:1.020179 27:8.925 28:-0.177496 29:1.021551 30:8.937 31:-0.424467 32:0.833203 33:8.88 34:-0.093091 35:0.747086 36:8.839 37:-0.252099 38:0.51188 39:9.044 40:-0.018998 41:0.34616 42:8.8955 43:-0.11081 44:0.106562 45:8.938 46:-0.281503 47:0.01772 48:8.886666 49:-0.2116 50:-0.110115 51:8.969 
0.18263804329835959 1:4.598823 2:-0.578942 3:6.821 4:4.511511 5:-0.517118 6:6.843 7:4.466674 8:-0.427324 9:6.833 10:4.489746 11:-0.339548 12:6.8585 13:4.458778 14:-0.256252 15:6.85025 16:4.490207 17:-0.17384 18:6.869 19:4.481713 20:-0.122113 21:6.8365 22:4.519126 23:-0.046006 24:6.874 25:4.572528 26:0.005109 27:6.782 28:4.625117 29:-0.007528 30:6.7925 31:4.678519 32:-0.042473 33:6.82175 34:4.715932 35:-0.103226 36:6.85 37:4.707438 38:-0.165847 39:6.8035 40:4.738867 41:-0.276295 42:6.873 43:4.7079 44:-0.317197 45:6.79 46:4.730971 47:-0.436522 48:6.778333 49:4.686134 50:-0.498616 51:6.851334 
0.80275916015438198 1:1.339864 2:-0.532457 3:8.268 4:1.020405 5:-0.362014 6:8.242 7:0.941118 8:-0.139762 9:8.25475 10:1.178208 11:0.045303 12:8.38 13:1.030309 14:0.300608 15:8.322 16:1.183885 17:0.513386 18:8.256001 19:1.309347 20:0.681224 21:8.1495 22:1.20631 23:0.904727 24:8.046 25:1.254259 26:1.036335 27:8.321 28:1.450701 29:1.035077 30:8.3735 31:1.49865 32:0.903129 33:8.167 34:1.395612 35:0.680359 36:8.3245 37:1.27015 38:0.503725 39:8.182334 40:1.423725 41:0.313339 42:8.052 43:1.275826 44:0.04589 45:8.027667 46:1.317681 47:-0.147325 48:8.248 49:1.238394 50:-0.362805 51:8.26 
0.34256555841826791 1:-2.047651 2:-0.469827 3:9.49 4:-2.156958 5:-0.362453 6:9.454 7:-2.31376 8:-0.115652 9:9.42 10:-2.331661 11:0.059043 12:9.316 13:-2.256712 14:0.260866 15:9.402 16:-2.269434 17:0.464739 18:9.455 19:-2.271488 20:0.643829 21:9.5005 22:-2.205225 23:0.82241 24:9.5205 25:-2.178402 26:1.007773 27:9.598 28:-1.88951 29:1.006513 30:9.586 31:-1.919858 32:0.825736 33:9.559 34:-1.945295 35:0.641403 36:9.5965 37:-1.7803 38:0.468327 39:9.528 40:-1.83859 41:0.270057 42:9.4175 43:-1.763642 44:0.050522 45:9.3435 46:-1.781542 47:-0.098002 48:9.409 49:-1.938344 50:-0.363258 51:9.475 
0.2467437865797554 1:-3.495803 2:-0.284953 3:10.488 4:-3.62107 5:-0.246 6:10.492 7:-3.577398 8:-0.188103 9:10.531 10:-3.293374 11:-0.090068 12:10.529 13:-3.262692 14:0.106313 15:10.566999 16:-3.356445 17:0.224847 18:10.591 19:-3.200182 20:0.432593 21:10.220334 22:-3.214751 23:0.583081 24:10.302 25:-3.462304 26:0.73294 27:10.3875 28:-3.238631 29:0.729647 30:10.479 31:-3.204108 32:0.593948 33:10.494 34:-3.19739 35:0.417258 36:10.472 37:-3.035544 38:0.224804 39:10.589 40:-3.129297 41:0.126044 42:10.572 43:-3.098615 44:-0.090692 45:10.602 46:-3.326864 47:-0.188853 48:10.573 49:-3.370536 50:-0.246047 51:10.493999 
0.027338672859744284 1:-3.593025 2:-0.278917 3:8.5155 4:-3.697378 5:-0.149575 6:8.374 7:-3.460445 8:0.070834 9:8.639 10:-3.606079 11:0.286693 12:8.368 13:-3.716805 14:0.499956 15:8.418 16:-3.398574 17:0.771849 18:8.566 19:-3.795017 20:0.944488 21:8.541 22:-3.770679 23:1.062395 24:8.5945 25:-3.708857 26:1.151438 27:8.5904 28:-3.218368 29:1.148437 30:8.64 31:-3.28019 32:1.067154 33:8.633 34:-3.297057 35:0.942237 36:8.593 37:-3.197058 38:0.761198 39:8.626 40:-3.239355 41:0.497803 42:8.653 43:-3.106106 44:0.287281 45:8.619249 46:-3.25174 47:0.076358 48:8.657333 49:-3.488673 50:-0.149736 51:8.383 
0.052610018430755738 1:0.225546 2:-0.192973 3:9.784 4:0.169734 5:-0.046979 6:9.724 7:0.079311 8:0.043689 9:9.76 10:-0.189371 11:0.188416 12:9.728001 13:-0.039207 14:0.299192 15:9.797501 16:0.015631 17:0.435793 18:9.7935 19:-0.048047 20:0.551103 21:9.737 22:0.096932 23:0.648381 24:9.701 25:0.212379 26:0.783584 27:9.698 28:0.469607 29:0.786533 30:9.7345 31:0.35416 32:0.652469 33:9.628 34:0.499138 35:0.584639 36:9.692 37:0.435461 38:0.461941 39:9.768 40:0.490299 41:0.316345 42:9.764 43:0.640462 44:0.197078 45:9.709 46:0.37178 47:0.061626 48:9.723499 49:0.281358 50:-0.065187 51:9.74 
0.19268888160404116 1:2.209727 2:-0.379623 3:7.5265 4:1.776429 5:-0.289446 6:7.429667 7:1.98591 8:-0.091257 9:7.433 10:1.881991 11:0.147607 12:7.621 13:2.12316 14:0.417043 15:7.619 16:2.322329 17:0.681258 18:7.6395 19:2.407948 20:0.850271 21:7.689 22:2.308602 23:0.974785 24:7.451 25:2.29087 26:1.11328 27:7.438 28:2.69816 29:1.103694 30:7.76 31:2.680427 32:0.967286 33:7.709 34:2.581081 35:0.838567 36:7.713 37:2.495462 38:0.683365 39:7.584 40:2.296294 41:0.423416 42:7.481 43:2.537463 44:0.162516 45:7.655 46:2.433544 47:-0.077473 48:7.438 49:2.643025 50:-0.286811 51:7.481 
0.19272509921710951 1:2.627105 2:-0.445053 3:7.1165 4:2.770312 5:-0.313616 6:6.992 7:3.144499 8:-0.070682 9:6.786 10:3.174206 11:0.20011 12:7.21225 13:2.982079 14:0.36663 15:6.698 16:2.654298 17:0.551131 18:7.065166 19:2.691156 20:0.859855 21:6.956 22:2.746337 23:0.994077 24:6.899 25:2.66913 26:1.09569 27:6.9325 28:2.989218 29:1.093043 30:7.183667 31:2.934051 32:0.99451 33:6.902 34:2.989231 35:0.856137 36:7.141 37:3.139481 38:0.545228 39:6.748 40:3.495773 41:0.368437 42:6.731 43:3.303646 44:0.206098 45:6.749 46:3.333353 47:-0.071473 48:6.862 49:3.196088 50:-0.310001 51:6.91125 
0.94088672073008073 1:-3.557632 2:-0.291574 3:8.577001 4:-3.615653 5:-0.194883 6:8.537667 7:-3.737692 8:0.022419 9:8.574 10:-3.69824 11:0.219584 12:8.4835 13:-4.029709 14:0.435269 15:8.691 16:-3.768708 17:0.61383 18:8.661334 19:-3.701663 20:0.77676 21:8.620501 22:-3.729075 23:0.950191 24:8.6655 25:-3.676537 26:1.118337 27:8.656 28:-3.322309 29:1.118905 30:8.787 31:-3.343867 32:0.963729 33:8.715 34:-3.381424 35:0.770199 36:8.728 37:-3.346556 38:0.617539 39:8.638 40:-3.085555 41:0.434446 42:8.6745 43:-3.417024 44:0.225939 45:8.426 46:-3.377572 47:0.022359 48:8.551001 49:-3.499611 50:-0.160169 51:8.523 
1 1:1.289826 2:-0.46656 3:9.424 4:1.250295 5:-0.318574 6:9.4575 7:1.184326 8:-0.185873 9:9.424 10:1.117894 11:0.051131 12:9.457001 13:1.116594 14:0.226915 15:9.445999 16:1.240751 17:0.411806 18:9.452 19:1.224294 20:0.500152 21:9.459 22:1.287837 23:0.674803 24:9.439 25:1.303917 26:0.829323 27:9.398 28:1.399677 29:0.821444 30:9.374667 31:1.415757 32:0.648723 33:9.443 34:1.4793 35:0.49994 36:9.455 37:1.462843 38:0.410369 39:9.419 40:1.587001 41:0.219219 42:9.4935 43:1.5857 44:0.042158 45:9.418 46:1.519268 47:-0.150787 48:9.424 49:1.453299 50:-0.309787 51:9.458 
0.24656690939539488 1:-1.381472 2:-0.472105 3:9.536 4:-1.397691 5:-0.435641 6:9.515 7:-1.782639 8:-0.368778 9:9.619 10:-1.792774 11:-0.338631 12:9.610333 13:-1.400145 14:-0.223726 15:9.542 16:-1.398531 17:-0.117015 18:9.531 19:-1.35238 20:0.060729 21:9.582 22:-1.339864 23:0.159471 24:9.620501 25:-1.30471 26:0.258117 27:9.626 28:-1.100595 29:0.275921 30:9.622 31:-1.065441 32:0.167612 33:9.574 34:-1.070115 35:0.043044 36:9.616 37:-0.957962 38:-0.117506 39:9.571 40:-1.018721 41:-0.226 42:9.639 43:-0.97017 44:-0.314553 45:9.6035 46:-0.980305 47:-0.368625 48:9.615 49:-1.365253 50:-0.437106 51:9.547 
0.59982675349313319 1:-1.691555 2:-0.055829 3:5.36 4:-2.089832 5:0.033305 6:5.255 7:-1.872627 8:0.110625 9:5.45 10:-2.019893 11:0.263409 12:5.359 13:-2.024873 14:0.447377 15:4.965 16:-1.970141 17:0.658522 18:5.097 19:-1.957556 20:0.785682 21:5.0005 22:-1.803549 23:0.916138 24:5.105 25:-1.784871 26:1.049453 27:5.153 28:-1.598239 29:1.046425 30:5.283 31:-1.57956 32:0.914012 33:5.328 34:-1.425554 35:0.786218 36:5.319 37:-1.412968 38:0.646381 39:5.309 40:-1.358237 41:0.451944 42:5.4675 43:-1.363217 44:0.268718 45:5.467 46:-1.510482 47:0.124094 48:5.374 49:-1.293278 50:0.033185 51:5.236 
0.77948484611432811 1:-0.86584 2:-0.155843 3:9.74 4:-1.006866 5:0.007372 6:9.785999 7:-1.176226 8:0.116267 9:9.752 10:-1.247534 11:0.252124 12:9.7405 13:-1.371575 14:0.405305 15:9.718 16:-1.392089 17:0.547395 18:9.6715 19:-1.193686 20:0.714893 21:9.746 22:-1.139718 23:0.787866 24:9.751 25:-1.371109 26:0.918212 27:9.786 28:-0.90339 29:0.915115 30:9.753 31:-1.13478 32:0.787866 33:9.751 34:-1.080812 35:0.707888 36:9.7745 37:-0.882409 38:0.537137 39:9.813 40:-0.902924 41:0.425792 42:9.773 43:-1.026965 44:0.28769 45:9.717 46:-0.741587 47:0.116589 48:9.779 49:-0.724813 50:0.007342 51:9.746 
0.0047781500021892341 1:-3.740579 2:-0.078477 3:6.392 4:-3.534918 5:-0.037247 6:6.463 7:-3.343209 8:0.11636 9:6.6465 10:-3.708133 11:0.398153 12:6.92075 13:-3.505119 14:0.643336 15:6.5325 16:-3.570381 17:0.835651 18:6.2 19:-3.620454 20:1.089712 21:6.3695 22:-3.626731 23:1.19242 24:6.444 25:-3.744292 26:1.295782 27:6.481 28:-3.369166 29:1.30355 30:6.20225 31:-3.432961 32:1.192153 33:6.2235 34:-3.40899 35:1.098131 36:6.24875 37:-3.271686 38:0.825013 39:6.479 40:-2.990478 41:0.64521 42:6.5515 43:-2.787465 44:0.415979 45:6.896 46:-3.152388 47:0.116159 48:6.635 49:-3.344097 50:-0.031357 51:6.4905 
0.028485854792612803 1:4.398479 2:-0.137008 3:6.8182 4:4.226044 5:-0.084971 6:6.921 7:4.225864 8:-0.047171 9:7.048 10:4.253745 11:0.051567 12:7.0945 13:4.219823 14:0.196491 15:7.082 16:4.241357 17:0.325413 18:7.163 19:4.258052 20:0.404778 21:7.036 22:4.369754 23:0.52023 24:7.032667 25:4.427852 26:0.637381 27:6.793 28:4.507421 29:0.645503 30:6.812 31:4.565518 32:0.527496 33:6.76225 34:4.542051 35:0.39807 36:6.7555 37:4.546908 38:0.331486 39:6.744 40:4.508266 41:0.18856 42:7.032 43:4.542188 44:0.074051 45:6.737 46:4.571093 47:-0.047425 48:7.086 49:4.570913 50:-0.083351 51:6.789 
0.036113496130278061 1:0.386193 2:-0.409992 3:10.694 4:0.305007 5:-0.348699 6:10.646 7:0.265031 8:-0.229577 9:10.636 10:0.255906 11:-0.130993 12:10.6695 13:0.246062 14:0.04778 15:10.674 16:0.22566 17:0.226121 18:10.651 19:0.325511 20:0.345601 21:10.667 22:0.32725 23:0.487188 24:10.724 25:0.468493 26:0.586893 27:10.722 28:0.586379 29:0.586017 30:10.706 31:0.445136 32:0.48787 33:10.739 34:0.446876 35:0.328157 36:10.746 37:0.546727 38:0.225887 39:10.64 40:0.526324 41:0.048318 42:10.794 43:0.51648 44:-0.105223 45:10.742333 46:0.507355 47:-0.231735 48:10.736 49:0.46738 50:-0.348863 51:10.651 
1 1:-1.731978 2:-0.014691 3:4.947 4:-1.962457 5:0.099008 6:4.8775 7:-1.949228 8:0.167632 9:5.0295 10:-2.073674 11:0.365222 12:4.979 13:-1.930921 14:0.565122 15:4.788 16:-2.072162 17:0.722963 18:4.713 19:-1.975469 20:0.860117 21:4.7534 22:-1.882522 23:0.969094 24:4.939 25:-1.889275 26:1.0556 27:4.83 28:-1.574681 29:1.054616 30:4.8255 31:-1.581434 32:0.965341 33:4.967 34:-1.488486 35:0.864995 36:5.028666 37:-1.391793 38:0.732447 39:5.018375 40:-1.533034 41:0.573466 42:5.1 43:-1.390282 44:0.379982 45:4.93 46:-1.514727 47:0.166673 48:5.0286 49:-1.501498 50:0.085644 51:4.892 
0.33100282084921728 1:-4.087395 2:0.105895 3:8.882 4:-4.1168 5:0.171605 6:8.860001 7:-4.594808 8:0.291462 9:8.996 10:-4.089618 11:0.437929 12:8.743999 13:-4.096301 14:0.522216 15:8.724501 16:-4.117742 17:0.686831 18:8.701 19:-4.145262 20:0.831639 21:8.747666 22:-4.199153 23:0.879369 24:8.7635 25:-4.311015 26:0.970143 27:8.773 28:-3.863775 29:0.971801 30:8.788 31:-3.975637 32:0.887525 33:8.7635 34:-4.029529 35:0.839208 36:8.944 37:-4.057049 38:0.704401 39:8.718 40:-4.078489 41:0.546274 42:9.056 43:-4.085173 44:0.404986 45:8.7355 46:-3.579983 47:0.290976 48:8.981 49:-4.057991 50:0.18797 51:8.854 
1 1:2.805069 2:-0.409101 3:8.111 4:2.700194 5:-0.285682 6:8.253 7:2.502002 8:-0.085503 9:8.209 10:2.508799 11:0.144993 12:8.282 13:2.690035 14:0.354459 15:8.253333 16:2.658032 17:0.475516 18:8.134 19:2.803667 20:0.640179 21:8.11 22:2.807642 23:0.848049 24:8.297501 25:2.689807 26:1.034697 27:8.205667 28:3.1543 29:1.044923 30:8.206 31:3.036466 32:0.849553 33:8.1635 34:2.900321 35:0.642071 36:8.231 37:2.754687 38:0.475925 39:8.141 40:2.722684 41:0.368601 42:8.004333 43:2.90392 44:0.140196 45:8.008 46:3.108137 47:-0.085784 48:8.236 49:2.909945 50:-0.286752 51:8.067 
0.091532503510454263 1:2.420771 2:-0.102429 3:11.974 4:2.369111 5:0.009039 6:11.999 7:2.201764 8:0.098376 9:11.998 10:2.217512 11:0.209628 12:11.974 13:2.198685 14:0.254654 15:11.995 16:2.284591 17:0.410134 18:11.971 19:2.340421 20:0.498728 21:11.958 22:2.350008 23:0.608498 24:11.927999 25:2.020823 26:0.700764 27:11.987 28:2.820718 29:0.701056 30:11.992001 31:2.491533 32:0.611763 33:11.992 34:2.501121 35:0.475392 36:11.931 37:2.556951 38:0.410579 39:11.984 40:2.642856 41:0.25408 42:11.968 43:2.62403 44:0.209803 45:11.984 46:2.639777 47:0.098302 48:11.989 49:2.472431 50:0.042386 51:11.95375 
1 1:-1.680262 2:-0.113129 3:4.825 4:-1.552006 5:0.012313 6:4.709 7:-1.628795 8:0.173091 9:4.557 10:-1.709737 11:0.352235 12:4.57 13:-1.653388 14:0.566404 15:4.384 16:-1.639007 17:0.70445 18:4.431 19:-1.482994 20:0.895576 21:4.889 22:-1.899055 23:1.025882 24:4.52075 25:-1.790379 26:1.205812 27:4.63 28:-1.615978 29:1.205252 30:4.678 31:-1.507301 32:1.022492 33:4.639 34:-1.318081 35:0.89466 36:4.884 37:-1.162068 38:0.702119 39:4.8415 40:-1.147688 41:0.568781 42:4.819 43:-1.091338 44:0.366218 45:4.93 46:-1.172281 47:0.185512 48:4.884 49:-1.249069 50:0.003611 51:4.794 
0.30287023418707304 1:0.565972 2:-0.197096 3:9.993 4:0.450603 5:-0.103283 6:9.916 7:0.439082 8:0.08142 9:9.93 10:0.41488 11:0.228975 12:9.916 13:0.276821 14:0.379532 15:9.992 16:0.269297 17:0.52659 18:9.959 19:0.366974 20:0.702499 21:10 22:0.496292 23:0.883257 24:9.90475 25:0.471801 26:0.972888 27:9.973 28:0.611161 29:0.980254 30:9.953501 31:0.635652 32:0.910387 33:9.899 34:0.76497 35:0.690306 36:9.914 37:0.862647 38:0.527383 39:9.974 40:0.855122 41:0.375544 42:9.887 43:0.717063 44:0.231377 45:10.02 46:0.692862 47:0.08151 48:9.941 49:0.68134 50:-0.103345 51:9.922 
0.038571458927557201 1:-0.669289 2:-0.10196 3:9.789 4:-0.871081 5:-0.019927 6:9.768499 7:-0.675305 8:0.099371 9:9.877 10:-0.70441 11:0.222248 12:10.029 13:-0.786552 14:0.34789 15:9.8855 16:-0.785558 17:0.494473 18:9.872999 19:-0.862375 20:0.616175 21:9.909 22:-1.144616 23:0.731793 24:9.8515 25:-0.597023 26:0.88322 27:9.802 28:-0.176639 29:0.884481 30:9.816 31:-0.193961 32:0.761804 33:9.766 34:-0.476202 35:0.61836 36:9.7975 37:-0.553019 38:0.490696 39:9.7975 40:-0.552025 41:0.319714 42:9.868 43:-0.634167 44:0.200587 45:9.882 46:-0.663272 47:0.080788 48:9.853 49:-0.467496 50:-0.019923 51:9.7705 
0.4403753311107732 1:0.170135 2:-0.192244 3:9.747 4:0.197594 5:-0.047134 6:9.756001 7:0.109271 8:0.0798 9:9.7325 10:0.024587 11:0.197369 12:9.723 13:0.676971 14:0.278531 15:9.713 16:0.012511 17:0.466311 18:9.732667 19:0.006468 20:0.606723 21:9.757 22:0.050342 23:0.699825 24:9.789 25:-0.059406 26:0.837138 27:9.691 28:0.278993 29:0.841198 30:9.738 31:0.169245 32:0.711225 33:9.696 34:0.213118 35:0.606101 36:9.747 37:0.207076 38:0.409226 39:9.812 40:0.871536 41:0.277011 42:9.66 43:0.580685 44:0.206313 45:9.718 46:0.496001 47:0.079681 48:9.718 49:0.407678 50:-0.047221 51:9.774 
1 1:0.714135 2:-0.432905 3:7.601 4:0.582621 5:-0.238274 6:7.713 7:0.486895 8:-0.066193 9:7.738 10:0.451929 11:0.105985 12:7.689 13:0.423715 14:0.29255 15:7.702 16:0.395279 17:0.447631 18:7.657 19:0.504089 20:0.610071 21:7.609 22:0.539905 23:0.761456 24:7.6955 25:0.261204 26:0.87181 27:7.627 28:1.167066 29:0.866833 30:7.709 31:0.888364 32:0.750908 33:7.6975 34:0.924181 35:0.612372 36:7.579 37:1.03299 38:0.468037 39:7.759 40:1.004555 41:0.294867 42:7.763 43:0.97634 44:0.107087 45:7.769 46:0.941374 47:-0.066039 48:7.72 49:0.845648 50:-0.22168 51:7.636 
0.013349698720931244 1:-2.142305 2:-0.031099 3:10.472 4:-2.208341 5:0.065432 6:10.324 7:-2.385488 8:0.143449 9:10.407 10:-2.376305 11:0.240383 12:10.41 13:-2.406364 14:0.375056 15:10.383 16:-2.430275 17:0.524682 18:10.285 19:-2.371361 20:0.667453 21:10.321667 22:-2.311535 23:0.791488 24:10.269 25:-2.250763 26:0.857142 27:10.254 28:-1.97017 29:0.884347 30:10.2375 31:-1.888038 32:0.790717 33:10.259 34:-1.828212 35:0.682329 36:10.353 37:-1.769298 38:0.545202 39:10.311 40:-1.793209 41:0.374731 42:10.374 43:-1.823267 44:0.25764 45:10.325 46:-1.814085 47:0.141602 48:10.273 49:-1.991232 50:0.07485 51:10.297001 
0.14255475250938349 1:-4.280107 2:0.148389 3:8.476 4:-4.37634 5:0.210541 6:8.4375 7:-4.439576 8:0.28729 9:8.6195 10:-4.327599 11:0.37041 12:8.323999 13:-4.364466 14:0.553193 15:8.315333 16:-4.344501 17:0.706475 18:8.2675 19:-4.329824 20:0.848157 21:8.2985 22:-4.24729 23:0.90775 24:8.349334 25:-4.179761 26:0.995219 27:8.432 28:-4.00807 29:0.995691 30:8.436 31:-3.940541 32:0.909562 33:8.366 34:-3.858006 35:0.850683 36:8.557 37:-4.215712 38:0.719109 39:8.508 40:-4.195747 41:0.524949 42:8.3175 43:-4.232615 44:0.393605 45:8.323 46:-4.120637 47:0.289636 48:8.690001 49:-4.183873 50:0.217237 51:8.494666 
0.75065997386335814 1:2.983431 2:-0.348604 3:6.9115 4:2.710864 5:-0.253978 6:6.7895 7:2.892751 8:-0.160362 9:7.025333 10:2.813539 11:0.067126 12:6.672 13:2.89432 14:0.315518 15:6.945222 16:2.95749 17:0.5274 18:6.92625 19:2.986652 20:0.671422 21:6.949 22:3.040782 23:0.875438 24:6.977 25:3.035742 26:1.048995 27:7.0085 28:3.171062 29:1.036796 30:6.927 31:3.166023 32:0.880659 33:6.916 34:3.220152 35:0.693212 36:6.973 37:3.249315 38:0.540461 39:6.689 40:3.336387 41:0.315914 42:6.68 43:3.417169 44:0.054936 45:6.7 46:3.337957 47:-0.158076 48:6.742 49:3.255997 50:-0.236562 51:6.834 
1 1:0.768741 2:-0.681307 3:4.4855 4:0.733925 5:-0.456598 6:4.452 7:0.408863 8:-0.339758 9:4.496 10:0.172994 11:-0.098319 12:4.555 13:1.236739 14:0.206426 15:4.365 16:0.951201 17:0.372347 18:4.662 19:1.005349 20:0.625826 21:4.4585 22:0.468572 23:0.744937 24:4.509667 25:0.642997 26:1.044242 27:4.698 28:0.904568 29:1.062147 30:4.623667 31:1.653155 32:0.750092 33:4.507 34:1.116378 35:0.62223 36:4.4625 37:1.170526 38:0.372486 39:4.407 40:1.460293 41:0.209878 42:4.438 43:0.89275 44:-0.073682 45:4.605 46:1.128619 47:-0.334337 48:4.536 49:0.803557 50:-0.465239 51:4.416 
0.42570623551424158 1:2.498395 2:-0.124135 3:11.918 4:2.357875 5:-0.013293 6:11.995 7:2.307908 8:0.09813 9:11.968 10:2.23152 11:0.231986 12:11.9775 13:2.339985 14:0.298837 15:11.976 16:2.289974 17:0.432924 18:11.985 19:2.324841 20:0.589636 21:11.996 22:2.067277 23:0.679016 24:11.997 25:2.229342 26:0.742283 27:11.937 28:2.390618 29:0.742158 30:11.935 31:2.552683 32:0.677148 33:11.964 34:2.57931 35:0.611355 36:11.984 37:2.614176 38:0.431262 39:11.939 40:2.564165 41:0.276301 42:11.9655 43:2.672631 44:0.231899 45:11.973 46:2.596242 47:0.098056 48:11.959 49:2.55375 50:-0.013264 51:11.969 
1 1:-1.084406 2:-0.393381 3:8.592 4:-1.11127 5:-0.280112 6:8.552 7:-1.240268 8:-0.090336 9:8.673 10:-1.161689 11:0.188634 12:8.51225 13:-1.157987 14:0.380174 15:8.5435 16:-1.132499 17:0.550273 18:8.592 19:-1.080934 20:0.670017 21:8.693 22:-1.104814 23:0.848738 24:8.645333 25:-0.994203 26:0.97227 27:8.694667 28:-0.943341 29:0.993946 30:8.695499 31:-0.83273 32:0.843046 33:8.642 34:-0.85661 35:0.677252 36:8.682 37:-0.805045 38:0.551682 39:8.614 40:-0.779557 41:0.376821 42:8.649 43:-0.775855 44:0.152766 45:8.726 46:-0.697276 47:-0.105597 48:8.601 49:-0.826274 50:-0.280865 51:8.575 
0.40493215521015019 1:-2.77227 2:-0.489296 3:9.192 4:-2.77981 5:-0.224681 6:9.217 7:-2.866067 8:-0.021312 9:9.072667 10:-2.897155 11:0.167386 12:9.078501 13:-2.917848 14:0.369609 15:9.134 16:-2.841539 17:0.540758 18:9.25 19:-2.952254 20:0.792359 21:9.2725 22:-2.787946 23:0.897675 24:9.202 25:-2.986481 26:1.019805 27:9.38 28:-2.611518 29:1.020679 30:9.23 31:-2.600083 32:0.899431 33:9.22 34:-2.435774 35:0.796625 36:9.222 37:-2.546489 38:0.540407 39:9.244 40:-2.454633 41:0.352792 42:9.288 43:-2.475326 44:0.192583 45:9.344334 46:-2.506414 47:-0.010028 48:9.049 49:-2.592671 50:-0.21845 51:9.316999 
1 1:-1.724141 2:-0.023919 3:4.951 4:-1.888492 5:0.066549 6:4.828 7:-2.042099 8:0.111266 9:4.8185 10:-1.915986 11:0.216336 12:4.762 13:-2.185468 14:0.374734 15:4.692 16:-2.144945 17:0.552095 18:4.605 19:-2.163343 20:0.682194 21:4.6445 22:-2.043123 23:0.859897 24:4.647 25:-1.924435 26:0.991906 27:4.783 28:-1.729874 29:1.000214 30:4.738 31:-1.611186 32:0.855725 33:4.6715 34:-1.490966 35:0.682658 36:4.6418 37:-1.509364 38:0.547274 39:4.949 40:-1.468841 41:0.368105 42:4.9678 43:-1.738323 44:0.207428 45:4.761 46:-1.612209 47:0.115573 48:5.005 49:-1.559789 50:0.05169 51:4.839 
1 1:4.627469 2:-0.237912 3:6.873 4:4.541786 5:-0.188502 6:6.938 7:4.480824 8:-0.097473 9:6.894 10:4.493435 11:-0.020502 12:6.9035 13:4.531212 14:0.03094 15:6.912 16:4.458888 17:0.056412 18:6.88 19:4.480415 20:0.120509 21:6.8835 22:4.492168 23:0.209854 24:6.872 25:4.521537 26:0.312443 27:6.877667 28:4.733401 29:0.321769 30:6.804 31:4.76277 32:0.227334 33:6.82075 34:4.774523 35:0.131725 36:6.801 37:4.796051 38:0.073873 39:6.916334 40:4.723726 41:0.01385 42:6.942 43:4.761503 44:-0.020352 45:6.853 46:4.774114 47:-0.10331 48:6.8555 49:4.713152 50:-0.192219 51:6.917 
1 1:-1.480403 2:-0.109293 3:7.73 4:-1.801654 5:-0.037428 6:7.747 7:-1.684151 8:0.12854 9:7.754 10:-1.755132 11:0.218732 12:7.8835 13:-1.687919 14:0.369912 15:7.822 16:-1.761647 17:0.496348 18:7.75 19:-1.648952 20:0.595394 21:7.916 22:-1.744086 23:0.790205 24:7.7315 25:-1.891846 26:0.923731 27:7.587 28:-1.511787 29:0.942725 30:7.743 31:-1.21672 32:0.79293 33:7.734667 34:-1.311855 35:0.595695 36:7.92 37:-1.19916 38:0.489507 39:7.872 40:-1.272888 41:0.351464 42:7.843667 43:-1.205675 44:0.238773 45:7.819 46:-1.276656 47:0.107611 48:7.807 49:-1.159153 50:-0.037647 51:7.7925 
0.39857154004495604 1:-1.615481 2:-0.087059 3:4.874 4:-1.861026 5:0.065708 6:4.767 7:-2.152413 8:0.158197 9:4.702667 10:-2.015088 11:0.440612 12:4.4488 13:-2.1255 14:0.564932 15:4.536 16:-2.195384 17:0.740303 18:4.602667 19:-2.037443 20:0.832407 21:4.6145 22:-1.921199 23:0.915483 24:4.688 25:-1.825871 26:1.091872 27:4.64025 28:-1.572277 29:1.068618 30:4.807667 31:-1.476948 32:0.94137 33:4.867 34:-1.720898 35:0.821789 36:4.901333 37:-1.562958 38:0.736791 39:4.549201 40:-1.632841 41:0.563458 42:5.011 43:-1.215874 44:0.407709 45:5.046 46:-1.078549 47:0.168257 48:4.658 49:-1.369936 50:0.05929 51:4.973 
0.10065149885807068 1:2.608652 2:-0.264984 3:9.753 4:2.790051 5:-0.137868 6:9.751 7:2.726064 8:-0.100002 9:9.601 10:2.645917 11:0.070457 12:9.693501 13:2.697065 14:0.186809 15:9.645 16:2.650146 17:0.372923 18:9.818 19:2.240242 20:0.541571 21:9.894 22:2.729261 23:0.678718 24:9.619 25:2.537643 26:0.791421 27:9.795 28:2.779157 29:0.815633 30:9.65 31:3.069575 32:0.668512 33:9.601 34:3.558594 35:0.541188 36:9.887 37:3.14869 38:0.367644 39:9.679 40:3.101771 41:0.196358 42:9.6735 43:3.152919 44:0.061426 45:9.692 46:3.072772 47:-0.100106 48:9.611 49:3.008785 50:-0.13463 51:9.522 
0.081377508060245116 1:-0.104054 2:-0.047733 3:9.88 4:-0.177901 5:0.044099 6:9.8515 7:-0.075669 8:0.171314 9:9.7855 10:-0.274616 11:0.285119 12:9.732333 13:-0.123468 14:0.378279 15:9.959 16:-0.122662 17:0.467899 18:9.894 19:-0.085369 20:0.612568 21:9.851 22:-0.102043 23:0.710712 24:9.689 25:0.024686 26:0.788755 27:9.762 28:0.315039 29:0.786089 30:9.729 31:0.340444 32:0.704043 33:9.763333 34:0.180516 35:0.614032 36:9.729 37:0.217809 38:0.485137 39:9.87 40:0.218614 41:0.379318 42:9.747499 43:0.369762 44:0.297314 45:9.736 46:0.170816 47:0.162211 48:9.785999 49:-0.030208 50:0.06239 51:9.844 
0.10123788068844342 1:-4.873935 2:0.278729 3:8.603 4:-4.987349 5:0.326317 6:8.591 7:-4.994071 8:0.355925 9:8.534 10:-5.024547 11:0.43782 12:8.504749 13:-5.022047 14:0.552324 15:8.5005 16:-5.050841 17:0.715813 18:8.469 19:-5.017025 20:0.844221 21:8.492 22:-4.989141 23:0.969885 24:8.485001 25:-4.782947 26:1.040918 27:8.593333 28:-4.538964 29:1.050479 30:8.762 31:-4.758729 32:0.968594 33:8.759 34:-4.730844 35:0.833672 36:8.885 37:-4.697028 38:0.730628 39:8.458 40:-4.725822 41:0.558969 42:8.8565 43:-4.723322 44:0.457563 45:8.504 46:-4.753798 47:0.354632 48:8.503 49:-4.76052 50:0.326887 51:8.606 
0.15318019802367835 1:2.252695 2:-0.159187 3:9.949 4:1.991299 5:-0.103231 6:9.911 7:2.138389 8:-0.065924 9:9.85 10:2.001877 11:0.08119 12:9.902 13:2.09087 14:0.25817 15:9.974 16:2.10974 17:0.467616 18:9.888 19:1.530358 20:0.611888 21:9.695 22:2.332764 23:0.728117 24:9.843 25:2.379828 26:0.851175 27:9.8535 28:2.44584 29:0.849145 30:9.83 31:2.492903 32:0.73454 33:9.766001 34:2.975033 35:0.606972 36:9.761 37:2.39565 38:0.462508 39:9.78 40:2.41452 41:0.26116 42:9.7395 43:2.503514 44:0.081125 45:9.894 46:2.367002 47:-0.065502 48:9.787 49:2.514091 50:-0.102929 51:9.882 
0.49851432120764172 1:0.189173 2:-0.648098 3:5.842 4:0.079693 5:-0.449638 6:5.807 7:-0.214621 8:-0.219046 9:5.8555 10:-0.094195 11:-0.011904 12:5.84 13:0.344002 14:0.224653 15:5.773 16:0.224569 17:0.455747 18:5.913 19:-0.039441 20:0.630583 21:5.8 22:0.144952 23:0.814205 24:5.8785 25:0.13873 26:1.057578 27:6.018 28:0.53166 29:1.059336 30:6.028 31:0.525437 32:0.79864 33:5.88475 34:0.709831 35:0.631018 36:5.804 37:0.44582 38:0.456364 39:5.921 40:0.910736 41:0.225176 42:5.7865 43:0.47254 44:0.004442 45:5.897 46:0.592967 47:-0.21631 48:5.7825 49:0.298653 50:-0.442834 51:5.86 
0.09066633052684718 1:-1.389498 2:-0.091102 3:8.7465 4:-1.939668 5:-0.041979 6:8.689 7:-1.406861 8:0.039011 9:8.715 10:-1.542144 11:0.231034 12:8.616 13:-1.680129 14:0.3981 15:8.763 16:-1.611697 17:0.529988 18:8.786 19:-1.537149 20:0.738887 21:8.742 22:-1.44283 23:0.96376 24:8.571 25:-1.940493 26:1.005602 27:8.6565 28:-1.85698 29:1.004425 30:8.51 31:-1.359317 32:0.963176 33:8.71 34:-1.264997 35:0.754297 36:8.732 37:-1.190449 38:0.554333 39:8.783 40:-1.122017 41:0.387321 42:8.89 43:-1.260002 44:0.187057 45:8.811 46:-1.395285 47:0.022966 48:8.783 49:-0.839328 50:-0.041959 51:8.685 
0.58991365638765469 1:4.307998 2:-0.007398 3:6.676 4:4.153817 5:0.029933 6:6.687 7:4.246595 8:0.108865 9:6.729572 10:4.209605 11:0.228792 12:6.678 13:4.212532 14:0.339882 15:6.5825 16:4.242698 17:0.431187 18:6.668 19:4.216256 20:0.514761 21:6.678667 22:4.289199 23:0.581204 24:6.6565 25:4.21733 26:0.643613 27:6.611666 28:4.420869 29:0.644863 30:6.548 31:4.349 32:0.583196 33:6.655666 34:4.421944 35:0.523826 36:6.558666 37:4.424427 38:0.436574 39:6.562334 40:4.433908 41:0.319058 42:6.591 43:4.436834 44:0.232228 45:6.599 46:4.369401 47:0.133435 48:6.72775 49:4.462179 50:0.029667 51:6.6275 
0.64569901693568188 1:-0.649203 2:0.019933 3:7.623 4:-0.721073 5:0.133596 6:7.631 7:-0.353187 8:0.248857 9:7.681 10:-0.310336 11:0.340586 12:7.497 13:-0.345891 14:0.540114 15:7.555 16:-0.317493 17:0.644515 18:7.5425 19:-0.310427 20:0.799299 21:7.6125 22:-0.296215 23:0.954386 24:7.495 25:-0.311915 26:1.09132 27:7.606667 28:-0.021836 29:1.093876 30:7.641 31:-0.037536 32:0.954488 33:7.607 34:-0.023325 35:0.798091 36:7.601 37:-0.016258 38:0.657548 39:7.612 40:0.012139 41:0.557955 42:7.6065 43:-0.023415 44:0.339552 45:7.6305 46:0.019436 47:0.249019 48:7.686 49:-0.470919 50:0.11914 51:7.615 
0.058650413058538506 1:2.640001 2:-0.525808 3:6.958 4:2.509538 5:-0.339336 6:7.122 7:2.417202 8:-0.193552 9:7.124001 10:2.438962 11:-0.012103 12:7.002 13:2.379963 14:0.296618 15:7.112 16:2.415353 17:0.462795 18:7.022 19:2.504618 20:0.569791 21:7.052 22:2.779163 23:0.761461 24:7.06425 25:2.686216 26:0.94552 27:6.94325 28:2.953969 29:0.971059 30:6.918 31:3.043718 32:0.750394 33:6.902 34:2.692237 35:0.579405 36:7.0095 37:3.058301 38:0.466935 39:6.706 40:3.093691 41:0.278214 42:7.1495 43:3.034692 44:0.005287 45:7.018 46:3.056452 47:-0.219831 48:7.116 49:2.964116 50:-0.341588 51:6.731 
1 1:4.359651 2:0.017073 3:6.5295 4:4.311619 5:0.072105 6:6.55975 7:4.302854 8:0.116106 9:6.632 10:4.302777 11:0.194873 12:6.582 13:4.301653 14:0.249211 15:6.561 16:4.285084 17:0.320377 18:6.518 19:4.308585 20:0.402876 21:6.57725 22:4.292804 23:0.46254 24:6.55525 25:4.299442 26:0.522503 27:6.4966 28:4.419859 29:0.522851 30:6.5465 31:4.426497 32:0.493128 33:6.556334 34:4.410717 35:0.406802 36:6.542 37:4.434217 38:0.346687 39:6.556667 40:4.417648 41:0.257251 42:6.558333 43:4.416524 44:0.196154 45:6.556667 46:4.416447 47:0.132973 48:6.5505 49:4.407682 50:0.096199 51:6.5375 
0.042123200895892145 1:3.847038 2:-0.230796 3:7.95 4:3.825806 5:-0.099188 6:8.079 7:3.64416 8:-0.039423 9:8.16 10:3.443032 11:0.034454 12:7.697 13:3.479668 14:0.203791 15:8.167 16:3.497594 17:0.279412 18:8.1555 19:3.558415 20:0.445452 21:8.138 22:3.714125 23:0.58888 24:7.702333 25:3.766092 26:0.707783 27:7.696 28:4.239403 29:0.707507 30:7.693 31:4.29137 32:0.608525 33:7.709 34:4.13566 35:0.44217 36:7.686 37:4.196481 38:0.277165 39:7.673 40:4.214407 41:0.194459 42:7.793 43:4.251043 44:0.020554 45:7.8605 46:4.049916 47:-0.04669 48:8.103001 49:3.868269 50:-0.098906 51:8.056 
1 1:3.019509 2:-0.441364 3:8.592 4:2.963716 5:-0.222778 6:8.591667 7:2.665107 8:-0.017946 9:8.798 10:2.674498 11:0.22031 12:8.829 13:2.751139 14:0.438978 15:8.605 16:2.812216 17:0.690304 18:8.745 19:2.730616 20:0.864203 21:8.693 22:2.640267 23:0.963839 24:8.716 25:2.573888 26:1.117389 27:8.7115 28:3.195232 29:1.116399 30:8.641 31:3.128854 32:0.964061 33:8.718 34:3.103957 35:0.860698 36:8.7395 37:3.140584 38:0.672508 39:8.587 40:3.04194 41:0.461155 42:8.620334 43:3.118582 44:0.22787 45:8.498 46:3.127973 47:-0.017405 48:8.538 49:3.075302 50:-0.223092 51:8.502501 
0.018457833734669551 1:1.693257 2:-0.617592 3:7.357 4:2.248869 5:-0.4268 6:7.034 7:2.116663 8:-0.289199 9:7.194 10:1.727346 11:-0.061223 12:7.157 13:1.866816 14:0.225734 15:7.392 16:2.465415 17:0.438835 18:6.852 19:2.616023 20:0.631734 21:7.011 22:2.5257 23:0.757244 24:6.965 25:2.505968 26:1.005083 27:7.0116 28:2.597737 29:1.009728 30:7.3395 31:2.617469 32:0.763153 33:7.284375 34:2.707792 35:0.630653 36:6.999 37:2.8584 38:0.46258 39:6.921 40:2.2598 41:0.233589 42:6.818 43:2.399269 44:-0.063216 45:7.39 46:2.788586 47:-0.290561 48:6.908 49:2.65638 50:-0.431169 51:7.106 
0.62231826364175624 1:-2.868658 2:0.223883 3:7.185333 4:-2.996137 5:0.356996 6:7.263 7:-3.133407 8:0.580326 9:6.9425 10:-3.451687 11:0.644532 12:6.938 13:-3.053162 14:0.764121 15:7.545 16:-3.349182 17:0.98291 18:6.8215 19:-2.94101 20:1.096023 21:6.894 22:-3.326768 23:1.301806 24:6.763 25:-3.162935 26:1.455261 27:6.9922 28:-2.981432 29:1.455141 30:7.145 31:-2.832488 32:1.309396 33:7.029 34:-2.796306 35:1.106605 36:6.88 37:-2.388134 38:0.981974 39:6.815 40:-2.684154 41:0.746265 42:7.506667 43:-2.28563 44:0.644624 45:6.939 46:-2.603909 47:0.579325 48:7.17 49:-2.741179 50:0.369853 51:7.25 
0.082949745002677419 1:1.851182 2:-0.265962 3:9.789 4:1.937332 5:-0.17276 6:9.672 7:1.906082 8:-0.073593 9:9.653 10:1.220771 11:0.061566 12:9.714 13:1.343486 14:0.200481 15:9.727666 16:1.356104 17:0.407683 18:9.775 19:1.49448 20:0.58669 21:9.726 22:1.546604 23:0.757716 24:9.599 25:1.799033 26:0.8415 27:9.536 28:1.965112 29:0.835799 30:9.6755 31:1.712684 32:0.755032 33:9.565 34:1.764808 35:0.587612 36:9.59325 37:1.362527 38:0.419474 39:9.628 40:1.375145 41:0.202661 42:9.546 43:1.49786 44:0.061781 45:9.748 46:2.166316 47:-0.073554 48:9.646999 49:2.135066 50:-0.198011 51:9.5875 
0.19310148316490172 1:-3.812227 2:0.074909 3:9.136 4:-4.014451 5:0.168583 6:9.143499 7:-3.954789 8:0.233248 9:9.3475 10:-3.816849 11:0.361236 12:9.066 13:-3.890769 14:0.493073 15:9.008 16:-3.827264 17:0.643316 18:9.077332 19:-3.783216 20:0.819245 21:9.092 22:-3.605149 23:0.886545 24:9.002 25:-3.547377 26:1.002875 27:9.069 28:-3.314925 29:1.003317 30:9.073 31:-3.257154 32:0.911365 33:9.254 34:-3.721914 35:0.818344 36:9.082 37:-3.677865 38:0.63955 39:9.3095 40:-3.61436 41:0.477204 42:9.025 43:-3.688281 44:0.370082 45:9.288 46:-3.550341 47:0.233161 48:9.344 49:-3.610003 50:0.171667 51:9.156333 
0.47740568813986151 1:1.880616 2:-0.492889 3:9.259501 4:1.402432 5:-0.327878 6:9.472 7:1.513008 8:-0.196219 9:9.5005 10:1.438992 11:-0.063447 12:9.48 13:1.418121 14:0.311385 15:9.3425 16:1.616843 17:0.522337 18:9.382999 19:1.274433 20:0.702277 21:9.454 22:1.613083 23:0.828479 24:9.290501 25:1.244005 26:1.005358 27:9.575 28:2.150147 29:0.978622 30:9.575 31:1.78107 32:0.83222 33:9.236 34:2.11972 35:0.701193 36:9.4395 37:1.77731 38:0.496454 39:9.2265 40:1.655098 41:0.312568 42:9.378 43:1.634226 44:-0.018796 45:9.217251 46:1.560211 47:-0.214628 48:9.154 49:1.670786 50:-0.325074 51:9.391 
0.03608812799956216 1:4.478549 2:-0.197207 3:6.793 4:4.461429 5:-0.154945 6:6.977667 7:4.303535 8:-0.072723 9:6.982 10:4.345 11:0.018377 12:7.028 13:4.311482 14:0.109604 15:7.0055 16:4.272687 17:0.225271 18:6.953 19:4.349404 20:0.329714 21:6.972 22:4.369453 23:0.396813 24:6.935 25:4.382752 26:0.481418 27:6.914 28:4.506594 29:0.483886 30:6.7685 31:4.519893 32:0.404896 33:6.926 34:4.539942 35:0.312604 36:6.743 37:4.53575 38:0.226523 39:6.733667 40:4.542555 41:0.135963 42:6.760001 43:4.509099 44:0.018467 45:7.0625 46:4.550564 47:-0.076795 48:6.768166 49:4.49567 50:-0.150382 51:6.967 
0.33568112321541704 1:-3.074613 2:-0.534952 3:8.554 4:-3.076843 5:-0.358196 6:8.516 7:-3.341699 8:-0.135083 9:8.4425 10:-3.342091 11:0.14782 12:8.443501 13:-3.27837 14:0.305665 15:8.462 16:-3.259614 17:0.490577 18:8.481667 19:-3.064731 20:0.596794 21:8.571 22:-3.08182 23:0.796807 24:8.664 25:-3.126341 26:1.037411 27:8.653 28:-2.796325 29:1.02449 30:8.68 31:-2.840847 32:0.796232 33:8.571 34:-3.044969 35:0.60125 36:8.635 37:-2.889611 38:0.509961 39:8.454 40:-2.870855 41:0.289845 42:8.46 43:-2.807135 44:0.18383 45:8.659 46:-2.807527 47:-0.119261 48:8.435 49:-3.072382 50:-0.344876 51:8.579 
0.072960635580001057 1:4.327138 2:-0.231041 3:9.854 4:4.250683 5:-0.158243 6:9.89 7:4.105258 8:-0.103533 9:9.94 10:4.047584 11:-0.01101 12:9.935 13:3.933206 14:0.118914 15:9.974 16:4.010265 17:0.284223 18:9.9115 19:4.009581 20:0.449163 21:9.887 22:4.096289 23:0.557583 24:9.8515 25:4.223379 26:0.672149 27:9.784 28:4.573463 29:0.673665 30:9.675 31:4.557987 32:0.559196 33:9.88 34:4.644695 35:0.434989 36:9.575 37:4.644011 38:0.312848 39:9.9415 40:4.72107 41:0.119761 42:10.045 43:4.606692 44:0.007297 45:9.686 46:4.549018 47:-0.103512 48:9.938 49:4.403593 50:-0.158339 51:9.896 
0.59303757360036857 1:-0.480104 2:-0.291297 3:10.034 4:-0.980254 5:-0.087023 6:10.173 7:-0.979967 8:0.082588 9:10.0725 10:-1.007856 11:0.260636 12:10.0695 13:-0.9967 14:0.433057 15:10.083333 16:-0.980544 17:0.562376 18:10.046333 19:-0.89942 20:0.706167 21:10.007999 22:-0.844537 23:0.832386 24:10.07 25:-0.817415 26:0.885799 27:10.038 28:-0.405703 29:0.886505 30:10.046 31:-0.818066 32:0.830403 33:10.046 34:-0.872949 35:0.707757 36:10.0305 37:-0.791825 38:0.587205 39:10.0445 40:-0.775669 41:0.403074 42:10.116 43:-0.764512 44:0.250653 45:10.045 46:-0.792402 47:0.073372 48:10.095 49:-0.792115 50:-0.104923 51:10.0735 
0.17324229257845941 1:3.702892 2:-0.126083 3:7.88 4:3.350953 5:-0.073913 6:7.793 7:3.214558 8:-0.037027 9:7.664 10:3.525012 11:0.070701 12:8.016 13:3.466495 14:0.254362 15:8.083 16:3.588703 17:0.459167 18:8.024667 19:3.657228 20:0.630628 21:7.989 22:3.696376 23:0.745942 24:7.95 25:3.882665 26:0.833892 27:7.67 28:3.895696 29:0.832468 30:7.723 31:3.709408 32:0.762941 33:7.973 34:3.748556 35:0.631062 36:7.9945 37:3.81708 38:0.439563 39:7.519 40:3.939289 41:0.275695 42:8.047 43:3.880771 44:0.043299 45:8.007999 46:4.191226 47:-0.022779 48:7.6705 49:4.054831 50:-0.073787 51:7.7795 
1 1:-0.687696 2:-0.036606 3:7.577 4:-0.726687 5:0.110975 6:7.5415 7:-0.908771 8:0.274636 9:7.603 10:-0.754479 11:0.405598 12:7.538 13:-0.789168 14:0.575523 15:7.467 16:-0.809069 17:0.768841 18:7.5225 19:-0.703106 20:0.872997 21:7.515 22:-0.613021 23:0.972602 24:7.528 25:-0.587726 26:1.061736 27:7.564 28:-0.258615 29:1.09105 30:7.572 31:-0.233321 32:0.98465 33:7.513 34:-0.441842 35:0.869048 36:7.481 37:-0.335879 38:0.766306 39:7.43 40:-0.35578 41:0.570047 42:7.579 43:-0.39047 44:0.405589 45:7.538 46:-0.236178 47:0.274709 48:7.605 49:-0.418261 50:0.090157 51:7.562 
1 1:0.384174 2:-0.610842 3:7.527 4:0.286665 5:-0.570394 6:7.548 7:0.3027 8:-0.468028 9:7.597 10:0.280098 11:-0.440927 12:7.576666 13:0.29069 14:-0.407428 15:7.654 16:0.280976 17:-0.304897 18:7.5845 19:0.280961 20:-0.220171 21:7.584 22:0.259252 23:-0.163398 24:7.57 25:0.26069 26:-0.079285 27:7.612 28:0.507657 29:-0.100847 30:7.6355 31:0.509096 32:-0.150292 33:7.62 34:0.487386 35:-0.2211 36:7.616 37:0.487372 38:-0.32011 39:7.6105 40:0.477658 41:-0.410523 42:7.5795 43:0.48825 44:-0.447996 45:7.617 46:0.465648 47:-0.469725 48:7.511 49:0.481683 50:-0.571225 51:7.559 
0.14238676369068501 1:-2.622794 2:-0.505427 3:7.222 4:-2.933053 5:-0.2521 6:7.484 7:-3.153173 8:-0.060705 9:7.0965 10:-3.143681 11:0.163719 12:7.09 13:-3.173289 14:0.509946 15:6.952 16:-2.893972 17:0.701285 18:7.328667 19:-2.913746 20:0.863356 21:7.432 22:-2.911752 23:1.003321 24:7.444 25:-2.925677 26:1.11355 27:7.5335 28:-2.404929 29:1.115201 30:7.27 31:-2.418855 32:1.0057 33:7.36 34:-2.52286 35:0.878607 36:7.444 37:-2.542634 38:0.70098 39:7.3975 40:-2.965994 41:0.503654 42:7.045 43:-2.101907 44:0.163442 45:7.078 46:-2.092414 47:-0.053206 48:6.9785 49:-2.312535 50:-0.252049 51:7.4825 
1 1:-0.248129 2:-0.212917 3:9.081 4:-0.483785 5:-0.094284 6:9.052 7:-0.418351 8:-0.043558 9:9.016 10:-0.382919 11:0.173367 12:8.951 13:-0.263559 14:0.285703 15:9.079 16:-0.391312 17:0.515049 18:9.1 19:-0.263513 20:0.734331 21:8.985 22:-0.1456 23:0.900986 24:9.063 25:-0.463234 26:1.009862 27:8.981 28:-0.179283 29:1.015035 30:9.027 31:-0.111938 32:0.897606 33:9.029 34:0.005975 35:0.71138 36:9.012 37:0.133774 38:0.516577 39:9.127 40:0.006021 41:0.277342 42:9.082 43:-0.113339 44:0.160049 45:9.142 46:-0.077908 47:-0.043433 48:8.99 49:-0.012473 50:-0.094284 51:9.052 
1 1:0.408447 2:-0.403963 3:7.3325 4:0.22949 5:-0.266191 6:7.2975 7:0.743987 8:-0.19248 9:7.336 10:0.689543 11:-0.034611 12:7.164 13:0.13161 14:0.23188 15:7.157 16:0.132827 17:0.476075 18:7.2235 19:0.278476 20:0.611537 21:7.1565 22:0.287679 23:0.717767 24:7.22 25:0.236259 26:0.839657 27:7.114 28:0.390298 29:0.841074 30:7.126 31:0.338879 32:0.712796 33:7.17 34:0.348082 35:0.611073 36:7.151 37:0.49373 38:0.47558 39:7.216 40:0.494948 41:0.223901 42:7.332 43:1.052882 44:-0.035244 45:7.295 46:0.998438 47:-0.191412 48:7.295 49:0.587404 50:-0.26154 51:7.17 
0.090934342851063166 1:-2.72394 2:-0.113782 3:10.924 4:-3.173143 5:-0.032242 6:10.857 7:-3.297106 8:0.088004 9:10.733 10:-3.062421 11:0.223596 12:11.015 13:-3.037978 14:0.347351 15:10.721 16:-2.468505 17:0.564116 18:11.058 19:-2.502484 20:0.720752 21:10.936 22:-2.567214 23:0.864439 24:10.951 25:-3.028831 26:0.997665 27:10.848 28:-2.681152 29:1.000102 30:10.8745 31:-2.117898 32:0.84336 33:10.942 34:-2.182627 35:0.72006 36:10.9255 37:-2.216606 38:0.568299 39:11.14 40:-2.409901 41:0.376147 42:10.979 43:-2.385458 44:0.223454 45:11.008 46:-2.150773 47:0.078156 48:10.752501 49:-2.274736 50:-0.032254 51:10.861 
1 1:1.099983 2:-0.429437 3:9.379499 4:1.009616 5:-0.375991 6:9.353 7:0.793369 8:-0.215074 9:9.173 10:0.852069 11:-0.132163 12:9.3475 13:0.738815 14:0.093944 15:9.3375 16:0.825239 17:0.215675 18:9.34 19:0.97761 20:0.347582 21:9.38075 22:0.928618 23:0.568654 24:9.427 25:1.069096 26:0.702423 27:9.339 28:1.13087 29:0.721272 30:9.358 31:1.271349 32:0.560329 33:9.289 34:1.222357 35:0.37311 36:9.364 37:1.374727 38:0.224668 39:9.35225 40:1.461151 41:0.076574 42:9.339 43:1.347898 44:-0.109605 45:9.402666 46:1.406598 47:-0.274981 48:9.472 49:1.19035 50:-0.375308 51:9.336 
0.20337530249933264 1:-1.124285 2:-0.047225 3:9.775 4:-1.270591 5:0.025565 6:9.777 7:-1.209756 8:0.115993 9:9.729 10:-1.5447 11:0.225304 12:9.757 13:-1.361312 14:0.343982 15:9.7745 16:-1.301854 17:0.469631 18:9.739 19:-1.279466 20:0.612641 21:9.707001 22:-1.27123 23:0.735818 24:9.783 25:-1.304065 26:0.839298 27:9.716 28:-0.944505 29:0.88322 30:9.802 31:-0.97734 32:0.741377 33:9.7365 34:-0.969105 35:0.641203 36:9.729 37:-0.946716 38:0.493757 39:9.8585 40:-0.887259 41:0.315988 42:9.753 43:-0.70387 44:0.225419 45:9.762 46:-1.038814 47:0.107091 48:9.7425 49:-0.97798 50:0.043738 51:9.771 
0.25167664192116002 1:-0.138742 2:-0.095731 3:11.191 4:-0.034427 5:-0.033317 6:11.219 7:-0.253108 8:0.070794 9:11.17 10:-0.430986 11:0.279199 12:11.189 13:-0.431757 14:0.550953 15:11.209 16:0.465572 17:0.714869 18:11.162 19:-0.220872 20:0.795051 21:11.121 22:-0.13832 23:0.922238 24:11.157 25:-0.02277 26:1.03653 27:11.047 28:0.224684 29:1.020243 30:11.0935 31:0.340235 32:0.911249 33:11.1495 34:-0.036656 35:0.795122 36:11.122 37:0.649789 38:0.711346 39:11.107 40:-0.168908 41:0.529141 42:11.189 43:-0.169678 44:0.30094 45:11.223 46:0.0082 47:0.070775 48:11.167 49:0.226881 50:-0.033267 51:11.202 
0.91030753480481463 1:3.067798 2:-0.401806 3:8.776 4:2.94677 5:-0.235206 6:8.657 7:2.845627 8:-0.090112 9:8.6515 10:2.761861 11:0.156333 12:8.624 13:2.819061 14:0.254185 15:8.864 16:2.785385 17:0.515328 18:8.815 19:3.051865 20:0.646967 21:8.745999 22:2.848333 23:0.852508 24:8.909 25:2.884049 26:0.983247 27:8.8915 28:3.035874 29:0.976004 30:8.826 31:3.07159 32:0.853553 33:8.834 34:3.083731 35:0.645188 36:8.6855 37:3.350211 38:0.51638 39:8.833 40:3.316536 41:0.263051 42:8.614 43:3.373736 44:0.151208 45:8.637 46:3.289969 47:-0.089003 48:8.545 49:3.188826 50:-0.259462 51:8.66 
0.0077774251098867144 1:1.876039 2:-0.498558 3:9.366 4:1.715073 5:-0.403525 6:9.386 7:1.65229 8:-0.222413 9:9.486 10:1.625114 11:0.007104 12:9.431 13:2.540754 14:0.160696 15:9.179 16:2.571047 17:0.366396 18:9.1955 19:2.007752 20:0.585145 21:9.41 22:2.00454 23:0.761184 24:9.313499 25:2.000128 26:0.880601 27:9.292999 28:2.367712 29:0.884017 30:9.516001 31:2.36398 32:0.767667 33:9.501 34:2.4243 35:0.580135 36:9.191999 37:2.696791 38:0.367771 39:9.23 40:2.727084 41:0.161589 42:9.23 43:1.962644 44:0.016052 45:9.532 46:2.099788 47:-0.223634 48:9.174 49:2.037005 50:-0.394664 51:9.383 
0.16082610353255408 1:0.339309 2:-0.721949 3:4.9345 4:0.394673 5:-0.423195 6:4.879 7:0.075897 8:-0.257839 9:5.0195 10:-0.081872 11:0.088865 12:5.076 13:1.04224 14:0.260933 15:4.767 16:0.810342 17:0.531139 18:4.9275 19:0.13601 20:0.729882 21:4.907 22:0.695674 23:0.924794 24:5.0485 25:0.777894 26:1.091112 27:4.828 28:0.806847 29:1.091678 30:4.8305 31:0.889067 32:0.923733 33:4.8695 34:1.703525 35:0.722756 36:5.016 37:1.029193 38:0.529154 39:4.895 40:1.234999 41:0.27275 42:4.819 43:0.110887 44:0.071575 45:5.0558 46:0.824177 47:-0.252476 48:4.8275 49:0.505402 50:-0.406552 51:4.934333 
0.11640527213584778 1:3.894944 2:-0.218687 3:8.049 4:3.770835 5:-0.080572 6:8.226 7:3.883466 8:-0.037998 9:7.865 10:3.432345 11:0.114813 12:8.3295 13:2.768267 14:0.230754 15:7.794 16:3.566017 17:0.454155 18:8.297 19:3.696967 20:0.627886 21:8.348 22:3.615131 23:0.71434 24:8.095 25:3.886234 26:0.813341 27:8.031 28:4.108778 29:0.813027 30:7.883 31:3.971719 32:0.705318 33:8.165 34:3.889883 35:0.639975 36:7.87525 37:3.634999 38:0.454412 39:7.773 40:4.294785 41:0.230743 42:7.7935 43:3.630708 44:0.115937 45:8.411 46:4.131684 47:-0.038713 48:8.013 49:4.019053 50:-0.077913 51:8.2145 
0.063637968649561533 1:3.77623 2:-0.220759 3:10.688499 4:3.60841 5:-0.112001 6:10.753 7:3.320444 8:-0.052313 9:10.828 10:3.182841 11:-0.012014 12:10.841 13:3.31563 14:0.208782 15:10.7795 16:3.322983 17:0.426582 18:10.706 19:3.446429 20:0.583422 21:10.843 22:3.509709 23:0.674751 24:10.851 25:3.653403 26:0.853556 27:10.564 28:3.990355 29:0.849758 30:10.517 31:3.536178 32:0.67413 33:10.841 34:3.599458 35:0.583933 36:10.4895 37:3.722904 38:0.427937 39:10.74 40:3.730257 41:0.193174 42:10.477 43:3.863046 44:-0.012052 45:10.875 46:3.725443 47:-0.052675 48:10.903 49:4.013409 50:-0.129231 51:10.526 
1 1:1.35326 2:-0.461426 3:9.499001 4:1.221548 5:-0.361647 6:9.433 7:1.241408 8:-0.195324 9:9.457 10:1.119904 11:-0.045771 12:9.474 13:1.129811 14:0.183671 15:9.483 16:1.246921 17:0.343124 18:9.499 19:1.336114 20:0.555227 21:9.497499 22:1.225855 23:0.821676 24:9.512 25:1.223938 26:1.038542 27:9.471251 28:1.482583 29:1.065522 30:9.476 31:1.480666 32:0.826325 33:9.46375 34:1.370406 35:0.581591 36:9.495 37:1.459599 38:0.355185 39:9.351 40:1.576709 41:0.166132 42:9.4895 43:1.586617 44:-0.045829 45:9.486 46:1.465113 47:-0.196285 48:9.5035 49:1.484973 50:-0.361724 51:9.435 
0.96796189074697692 1:2.678527 2:-0.35035 3:7.450333 4:2.533962 5:-0.236877 6:7.232 7:2.451088 8:-0.042436 9:7.366 10:2.336834 11:0.257072 12:7.30475 13:2.501182 14:0.492344 15:7.332333 16:2.446579 17:0.735093 18:7.608 19:2.407046 20:0.89395 21:7.574 22:2.344611 23:1.024212 24:7.599 25:2.36111 26:1.125052 27:7.516666 28:2.910515 29:1.125575 30:7.7615 31:2.927014 32:1.029648 33:7.639333 34:2.864579 35:0.886259 36:7.5685 37:2.825046 38:0.736898 39:7.4825 40:2.855873 41:0.489832 42:7.32875 43:3.02022 44:0.265353 45:7.346 46:2.905966 47:-0.035268 48:7.3 49:2.823092 50:-0.237859 51:7.262 
0.41096184833219696 1:4.394426 2:-0.293009 3:10.093 4:4.232059 5:-0.218223 6:10.11 7:4.275617 8:-0.161627 9:10.1015 10:4.163273 11:-0.065502 12:9.787 13:4.129786 14:0.070318 15:9.6745 16:4.244617 17:0.196396 18:10.14 19:4.279921 20:0.422655 21:10.134 22:4.300699 23:0.512693 24:10.05 25:4.56484 26:0.615055 27:9.891 28:4.786226 29:0.615648 30:9.802667 31:4.738143 32:0.516438 33:9.767 34:4.758921 35:0.441999 36:10.145 37:4.794225 38:0.168108 39:10.1415 40:4.909056 41:0.073122 42:9.648666 43:4.875569 44:-0.065415 45:9.774 46:4.763225 47:-0.174475 48:9.768 49:4.698132 50:-0.220013 51:9.853201 
1 1:3.0664 2:-0.417952 3:8.772 4:3.030567 5:-0.283682 6:8.661 7:2.892256 8:-0.042798 9:8.8585 10:2.892557 11:0.188692 12:8.888 13:2.936021 14:0.350876 15:8.806 16:2.837299 17:0.565068 18:8.823 19:2.816361 20:0.760948 21:8.809 22:2.835023 23:0.971295 24:8.833 25:2.810272 26:1.158413 27:8.7765 28:3.100227 29:1.155182 30:8.752001 31:3.075477 32:0.940678 33:8.742001 34:3.154133 35:0.767551 36:8.698 37:3.156671 38:0.581821 39:8.705 40:3.196779 41:0.350444 42:8.5945 43:3.240243 44:0.181304 45:8.54 46:3.240544 47:-0.041467 48:8.583 49:3.102233 50:-0.268425 51:8.689 
0.39356230395501962 1:1.094665 2:-0.465817 3:9.409 4:1.064899 5:-0.350841 6:9.37875 7:0.946162 8:-0.196823 9:9.5295 10:0.775939 11:0.059424 12:9.376 13:0.891307 14:0.164452 15:9.3935 16:0.920675 17:0.357996 18:9.425 19:1.048518 20:0.457661 21:9.311 22:1.128815 23:0.602086 24:9.401 25:1.173341 26:0.794724 27:9.2 28:1.305044 29:0.79291 30:9.179 31:1.34957 32:0.601189 33:9.387 34:1.429867 35:0.466055 36:9.3055 37:1.471841 38:0.371038 39:9.312 40:1.501209 41:0.164014 42:9.3685 43:1.616577 44:0.059414 45:9.3745 46:1.446354 47:-0.161329 48:9.5285 49:1.327617 50:-0.357277 51:9.319 
0.1158437543582663 1:3.935473 2:-0.593971 3:7.86 4:3.796724 5:-0.420895 6:7.907 7:3.671045 8:-0.226256 9:8.052 10:3.559485 11:-0.094339 12:7.684 13:3.588359 14:0.006134 15:8.143 16:3.70757 17:0.220096 18:8.022667 19:3.751083 20:0.404921 21:7.842 22:3.827088 23:0.637807 24:7.98575 25:3.762143 26:0.878359 27:7.943 28:3.98204 29:0.881077 30:8.104 31:3.972824 32:0.638955 33:7.908 34:4.04883 35:0.399135 36:7.824 37:4.092342 38:0.229666 39:8.009 40:4.211553 41:0.016609 42:7.7275 43:4.240427 44:-0.08042 45:7.721 46:4.128867 47:-0.25282 48:8.022666 49:4.003188 50:-0.44703 51:7.849 
0.31486598941312394 1:-1.966878 2:-0.196652 3:7.238 4:-2.140705 5:-0.060701 6:7.096 7:-2.212853 8:0.058355 9:7.117 10:-1.43231 11:0.309825 12:7.2665 13:-1.502001 14:0.455928 15:7.332 16:-1.325656 17:0.608471 18:7.199 19:-1.380412 20:0.776512 21:7.022 22:-1.47045 23:0.910195 24:7.254 25:-1.996061 26:1.06115 27:7.179 28:-1.540854 29:1.058069 30:7.2035 31:-1.156052 32:0.909361 33:7.194 34:-1.24609 35:0.783015 36:7.3275 37:-1.300846 38:0.593251 39:7.177 40:-1.124501 41:0.456239 42:7.337 43:-1.194192 44:0.253083 45:7.387 46:-1.720902 47:0.070295 48:6.987 49:-1.79305 50:-0.061976 51:7.245 
0.53869504846550742 1:-0.167713 2:-0.426712 3:9.32 4:-0.253348 5:-0.372735 6:9.272 7:-0.496545 8:-0.251453 9:9.255 10:-0.314297 11:-0.018929 12:9.28375 13:-0.347577 14:0.13607 15:9.2475 16:-0.268896 17:0.332757 18:9.212 19:-0.218253 20:0.42027 21:9.251 22:-0.150615 23:0.554586 24:9.337999 25:-0.142318 26:0.700599 27:9.4315 28:-0.104867 29:0.677943 30:9.401333 31:-0.096571 32:0.528293 33:9.334 34:-0.028932 35:0.419452 36:9.233 37:0.021711 38:0.265081 39:9.244 40:0.100392 41:0.145988 42:9.331 43:0.067111 44:-0.021836 45:9.293667 46:0.24936 47:-0.235617 48:9.31 49:0.006163 50:-0.3737 51:9.296 
0.018304664065549398 1:3.29885 2:-0.201982 3:11.308 4:2.997935 5:-0.118396 6:11.367 7:2.606039 8:-0.095316 9:11.1425 10:2.959938 11:0.07215 12:11.384 13:2.846216 14:0.167081 15:11.354 16:2.918739 17:0.28419 18:11.389 19:2.960588 20:0.464293 21:11.386499 22:3.023233 23:0.618695 24:11.303 25:3.171225 26:0.707646 27:11.38 28:3.471967 29:0.695583 30:11.186 31:3.17228 32:0.61875 33:11.304 34:3.234926 35:0.4347 36:11.17075 37:3.276775 38:0.286392 39:11.0645 40:3.349297 41:0.17792 42:11.372 43:3.235576 44:0.070933 45:11.192 46:3.589474 47:-0.095483 48:11.162 49:3.197579 50:-0.118329 51:11.3605 
0.58614867598571452 1:-0.97119 2:-0.786985 3:7.215 4:-0.987679 5:-0.594719 6:7.164 7:-1.177928 8:-0.458655 9:7.122 10:-1.211295 11:-0.311151 12:7.084 13:-1.447544 14:-0.0345 15:7.141 16:-1.247172 17:0.386591 18:7.062666 19:-1.099782 20:0.582505 21:7.047 22:-0.900391 23:0.822097 24:7.134 25:-0.889312 26:1.078555 27:7.206 28:-0.567174 29:1.068626 30:7.0955 31:-0.556096 32:0.821535 33:7.072 34:-0.968194 35:0.582315 36:7.207 37:-1.083981 38:0.367303 39:7.2 40:-1.209992 41:-0.072911 42:7 43:-0.731086 44:-0.285501 45:7.102 46:-0.764453 47:-0.458816 48:7.1245 49:-0.954702 50:-0.606188 51:7.142 
0.96567465194570967 1:1.020901 2:-0.308701 3:8.918 4:0.772139 5:-0.222786 6:8.803 7:0.836555 8:-0.076167 9:8.904 10:0.847172 11:0.191431 12:9.017 13:0.94475 14:0.338282 15:8.906 16:0.880234 17:0.518399 18:9.011 19:1.021817 20:0.67136 21:8.926 22:1.301751 23:0.841312 24:8.792 25:1.099692 26:0.876431 27:8.816 28:1.773138 29:0.878022 30:8.832 31:1.571079 32:0.840594 33:8.7845 34:1.023649 35:0.675335 36:8.762 37:1.161569 38:0.499952 39:8.981 40:1.097052 41:0.331977 42:8.74 43:1.194631 44:0.185423 45:8.734 46:1.205248 47:-0.075466 48:8.822001 49:1.269664 50:-0.222634 51:8.797 
0.1937398825039911 1:4.18298 2:-0.613926 3:7.565 4:4.0109 5:-0.444638 6:7.807 7:4.020697 8:-0.228172 9:7.386 10:4.034821 11:-0.066569 12:7.782 13:3.838555 14:0.099279 15:7.724 16:3.96312 17:0.228387 18:7.714 19:3.956372 20:0.448566 21:7.673 22:3.999151 23:0.610025 24:7.728 25:3.948058 26:0.756258 27:7.703333 28:4.35494 29:0.748615 30:7.674 31:4.303848 32:0.598264 33:7.579 34:4.310452 35:0.435417 36:7.5685 37:4.303704 38:0.222555 39:7.517 40:4.527405 41:0.099295 42:7.72525 43:4.33114 44:-0.04958 45:7.408 46:4.345263 47:-0.224836 48:7.504 49:4.355061 50:-0.444638 51:7.807 
1 1:-1.849259 2:-0.024538 3:5.079 4:-2.05018 5:0.073835 6:5.018 7:-2.191878 8:0.196141 9:4.922667 10:-2.199491 11:0.376953 12:4.851667 13:-2.211928 14:0.494864 15:4.755167 16:-2.243691 17:0.631313 18:4.817 19:-2.254652 20:0.808841 21:4.86 22:-2.629521 23:0.905325 24:5.1245 25:-2.380143 26:1.005757 27:4.98975 28:-1.850554 29:1.016867 30:4.993001 31:-1.601176 32:0.899592 33:5.119 34:-1.976045 35:0.794367 36:4.827 37:-1.987006 38:0.657876 39:5.092 40:-2.022936 41:0.495324 42:4.93625 43:-1.566507 44:0.349615 45:5.159 46:-1.57412 47:0.189346 48:5.175 49:-1.715818 50:0.07217 51:5.235667 
0.60215794816419965 1:-2.852363 2:0.026017 3:9.95 4:-2.902503 5:0.081428 6:9.931 7:-3.020448 8:0.137619 9:9.984 10:-3.195793 11:0.246137 12:9.864 13:-3.538642 14:0.358765 15:9.932 16:-3.157296 17:0.459734 18:9.9165 19:-3.168348 20:0.640954 21:9.8645 22:-3.070041 23:0.811308 24:9.815 25:-3.058114 26:0.935089 27:9.772 28:-2.882501 29:0.937768 30:9.8 31:-2.870574 32:0.802895 33:9.937 34:-2.772268 35:0.651946 36:9.892 37:-2.783319 38:0.450617 39:9.919 40:-2.401973 41:0.358693 42:9.93 43:-2.744822 44:0.221156 45:9.9795 46:-2.920167 47:0.137377 48:9.966499 49:-2.802222 50:0.081403 51:9.928 
1 1:-1.762932 2:-0.156012 3:4.507 4:-1.960657 5:0.003303 6:4.385 7:-2.113317 8:0.127551 9:4.448 10:-2.290415 11:0.320136 12:4.724 13:-2.203692 14:0.549608 15:4.254 16:-2.31414 17:0.739775 18:4.61 19:-2.19945 20:0.914227 21:4.6265 22:-1.825434 23:1.117274 24:4.516 25:-1.823018 26:1.357865 27:4.5475 28:-1.628407 29:1.343615 30:4.54225 31:-1.625991 32:1.109437 33:4.5355 34:-1.326414 35:0.919844 36:4.688 37:-1.211724 38:0.734623 39:4.585 40:-1.322171 41:0.515276 42:4.5825 43:-1.235449 44:0.344829 45:4.642 46:-1.412547 47:0.131831 48:4.317 49:-1.565207 50:0.003331 51:4.422 
1 1:-1.895383 2:-0.024219 3:5.013 4:-1.995003 5:0.060828 6:5.102 7:-2.134212 8:0.137015 9:4.938 10:-1.863178 11:0.262334 12:5.238 13:-1.878324 14:0.426382 15:4.732 16:-2.231515 17:0.619706 18:4.76225 19:-2.207169 20:0.734999 21:4.820666 22:-2.1178 23:0.858573 24:4.880909 25:-2.349582 26:0.982828 27:5.009 28:-1.692921 29:0.977746 30:5.022833 31:-1.924703 32:0.853659 33:5.080571 34:-1.835334 35:0.753256 36:5.161 37:-1.810987 38:0.641121 39:5.1865 40:-1.497309 41:0.426195 42:5.156 43:-1.512454 44:0.261068 45:5.11775 46:-1.703944 47:0.143444 48:5.17 49:-1.795764 50:0.060828 51:5.102 
0.037249423003784012 1:1.187194 2:-0.39724 3:9.044 4:1.068838 5:-0.228834 6:9.042 7:1.093873 8:-0.094888 9:9.11 10:0.469411 11:0.040377 12:9.02 13:0.842135 14:0.160101 15:9.145 16:1.017325 17:0.376778 18:9.034 19:0.999837 20:0.553935 21:9.183 22:0.98307 23:0.645492 24:9.029 25:1.055635 26:0.820811 27:8.985667 28:1.318752 29:0.821194 30:9.0205 31:1.391318 32:0.687282 33:8.917 34:1.374551 35:0.528338 36:8.896 37:1.357062 38:0.37486 39:8.988 40:1.532252 41:0.169559 42:9.044 43:1.904976 44:0.040497 45:9.047001 46:1.280514 47:-0.093898 48:9.015 49:1.30555 50:-0.223849 51:8.845 
1 1:-0.595792 2:-0.022237 3:7.488 4:-0.662181 5:0.040275 6:7.449 7:-0.711366 8:0.145486 9:7.5115 10:-0.752577 11:0.327589 12:7.519 13:-0.823397 14:0.477871 15:7.4615 16:-0.785892 17:0.600818 18:7.436 19:-0.825733 20:0.779087 21:7.42 22:-0.665114 23:0.910948 24:7.482 25:-0.462645 26:0.979628 27:7.37 28:-0.170364 29:0.9993 30:7.518 31:-0.461803 32:0.889398 33:7.4765 34:-0.301184 35:0.767131 36:7.438 37:-0.341026 38:0.6051 39:7.489 40:-0.303521 41:0.498079 42:7.452 43:-0.374341 44:0.324888 45:7.457 46:-0.415551 47:0.145515 48:7.513 49:-0.464737 50:0.04318 51:7.553 
0.7913918587094052 1:4.602868 2:-0.376121 3:6.827 4:4.549817 5:-0.326042 6:6.843 7:4.491076 8:-0.311885 9:6.812 10:4.485807 11:-0.200052 12:6.891 13:4.488725 14:-0.184698 15:6.798 16:4.472121 17:-0.102509 18:6.8025 19:4.494144 20:-0.039388 21:6.836 22:4.488008 23:0.005135 24:6.817 25:4.491453 26:0.047676 27:6.851667 28:4.5968 29:0.055903 30:6.818 31:4.600245 32:0.017793 33:6.804667 34:4.594109 35:-0.013949 36:6.842 37:4.616132 38:-0.102759 39:6.819 40:4.599528 41:-0.166536 42:6.8315 43:4.602446 44:-0.223897 45:6.835833 46:4.597177 47:-0.298897 48:6.805 49:4.655918 50:-0.343415 51:6.850667 
1 1:0.531482 2:-0.315364 3:6.888 4:0.520757 5:-0.132385 6:7.0445 7:0.239662 8:-0.046836 9:6.998 10:-0.005083 11:0.128915 12:6.992 13:0.212359 14:0.290237 15:6.959 16:0.290055 17:0.438895 18:6.954 19:0.255277 20:0.672232 21:6.891 22:0.407529 23:0.757352 24:6.966 25:0.412717 26:0.872127 27:6.849 28:0.650247 29:0.868412 30:6.921 31:0.655435 32:0.74727 33:6.993 34:0.807687 35:0.668208 36:6.983 37:0.77291 38:0.445048 39:6.949 40:0.850606 41:0.289444 42:6.94 43:1.068047 44:0.102904 45:6.99325 46:0.823302 47:-0.05312 48:6.969 49:0.542207 50:-0.132054 51:7.027 
0.14647909204708975 1:3.039332 2:-0.40294 3:8.6255 4:3.009304 5:-0.231592 6:8.524 7:2.857941 8:0.080087 9:8.771999 10:2.701333 11:0.303652 12:8.863 13:2.818004 14:0.561225 15:8.763 16:2.748835 17:0.764082 18:8.750999 19:2.787988 20:0.882917 21:8.718 22:2.646111 23:1.011643 24:8.7085 25:2.679798 26:1.122213 27:8.686 28:3.100959 29:1.120588 30:8.843333 31:3.134646 32:1.003885 33:8.7115 34:3.116651 35:0.887561 36:8.684 37:3.077497 38:0.764639 39:8.665 40:3.134914 41:0.569761 42:8.645 43:3.37733 44:0.302658 45:8.834 46:3.220722 47:0.077883 48:8.5305 49:3.069359 50:-0.223247 51:8.507999 
0.8899859765952558 1:3.677762 2:-0.571562 3:8.167 4:3.534212 5:-0.36118 6:8.223 7:3.396346 8:-0.140509 9:8.2985 10:3.370776 11:0.100017 12:8.389 13:3.427485 14:0.280014 15:8.323999 16:3.623895 17:0.447915 18:8.183 19:3.512753 20:0.679779 21:8.317499 22:3.466645 23:0.871485 24:8.3 25:3.423907 26:0.992572 27:8.279 28:3.970546 29:0.991373 30:8.269 31:3.927809 32:0.860441 33:8.23125 34:3.8817 35:0.671436 36:8.31 37:3.851624 38:0.441022 39:8.1965 40:3.880274 41:0.27686 42:8.081 43:3.896534 44:0.084522 45:8.401 46:3.870965 47:-0.144645 48:8.098 49:3.733098 50:-0.351212 51:8.110667 
0.9382847409243722 1:2.891228 2:-0.402149 3:7.973 4:2.549057 5:-0.22048 6:8.115 7:2.417674 8:0.141911 9:8.106 10:2.533666 11:0.316706 12:8.1385 13:2.634704 14:0.52472 15:8.193 16:2.617311 17:0.644247 18:7.9735 19:2.633373 20:0.880018 21:7.958 22:2.675561 23:0.997651 24:7.951 25:2.679403 26:1.1381 27:8.217 28:3.065238 29:1.130067 30:8.159 31:3.06908 32:0.999583 33:8.21 34:3.024191 35:0.861256 36:8.1305 37:2.92098 38:0.644207 39:7.973 40:2.903587 41:0.523599 42:8.1755 43:3.004625 44:0.318967 45:7.8225 46:3.120617 47:0.137867 48:7.875 49:2.989234 50:-0.215644 51:7.937 
0.26335398188546411 1:-0.470237 2:-0.165355 3:8.7985 4:-0.795248 5:0.022911 6:8.762 7:-1.139988 8:0.153589 9:8.773 10:-1.026932 11:0.264089 12:8.648 13:-1.130112 14:0.47605 15:8.697 16:-1.154405 17:0.641816 18:8.676333 19:-1.003248 20:0.763536 21:8.6525 22:-1.093558 23:0.941309 24:8.658 25:-1.137918 26:1.071357 27:8.667 28:-0.821519 29:1.074695 30:8.694 31:-0.865879 32:1.004964 33:8.651 34:-0.956189 35:0.761551 36:8.722 37:-0.89915 38:0.624902 39:8.741 40:-0.923443 41:0.460442 42:8.708 43:-1.026622 44:0.268273 45:8.785 46:-0.913567 47:0.163984 48:8.747 49:-0.145226 50:0.022885 51:8.752 
0.66586363379123914 1:-0.234178 2:-0.195774 3:9.926 4:-0.749019 5:-0.084491 6:9.877 7:-0.772731 8:0.044517 9:9.945 10:-0.858197 11:0.246062 12:9.861 13:-0.863419 14:0.469176 15:9.921 16:-0.875174 17:0.630522 18:9.845 19:-0.791665 20:0.794613 21:9.834499 22:-0.658959 23:0.912144 24:9.851666 25:-0.585967 26:0.991383 27:9.789 28:-0.543983 29:0.977733 30:9.835 31:-0.616975 32:0.913046 33:9.8285 34:-0.48427 35:0.792472 36:9.808 37:-0.400761 38:0.64879 39:9.937667 40:-0.412515 41:0.493894 42:9.8615 43:-0.417737 44:0.209306 45:9.859 46:-0.503203 47:0.044325 48:9.902 49:-0.526915 50:-0.102689 51:9.859 
1 1:3.040466 2:-0.401439 3:8.768 4:2.802772 5:-0.26189 6:8.740999 7:2.857893 8:-0.025483 9:8.581 10:2.771275 11:0.132175 12:8.9825 13:2.581563 14:0.268517 15:8.793 16:2.773062 17:0.545721 18:8.776 19:2.96771 20:0.796973 21:8.724667 22:2.960515 23:0.98653 24:8.7735 25:2.765846 26:1.117691 27:8.651 28:2.977744 29:1.110327 30:8.849 31:3.062409 32:1.003719 33:8.781 34:3.055214 35:0.771258 36:8.74 37:3.249862 38:0.552643 39:8.629 40:3.261726 41:0.271677 42:8.8965 43:3.072014 44:0.123283 45:8.944 46:3.158632 47:-0.025474 48:8.578 49:3.103511 50:-0.258419 51:8.625 
1 1:2.907881 2:-0.390418 3:6.855 4:2.69274 5:-0.258877 6:7.097 7:2.596353 8:-0.13907 9:7.051 10:2.677598 11:0.011527 12:6.851 13:2.602173 14:0.20684 15:7.213 16:2.618647 17:0.400512 18:6.851 19:2.75992 20:0.568175 21:7.032 22:2.640096 23:0.833818 24:6.8485 25:2.657261 26:1.001677 27:6.834 28:2.917053 29:1.005406 30:6.801834 31:2.934217 32:0.824849 33:6.827 34:2.814394 35:0.569064 36:7.043 37:2.955666 38:0.371385 39:6.851429 40:2.972141 41:0.195752 42:6.826334 43:2.960126 44:0.017854 45:6.828 46:3.041371 47:-0.140956 48:6.8245 49:3.123023 50:-0.258824 51:6.919 
0.45602920599589536 1:2.962635 2:-0.441708 3:8.298 4:2.723166 5:-0.225465 6:8.592751 7:2.454279 8:-0.040017 9:8.283 10:2.619063 11:0.13527 12:8.646 13:2.720127 14:0.291489 15:8.508 16:2.855487 17:0.498842 18:8.533 19:2.882064 20:0.704511 21:8.523 22:2.837831 23:0.882878 24:8.408501 25:2.719929 26:1.06466 27:8.361 28:3.110527 29:1.041685 30:8.364 31:2.992625 32:0.895698 33:8.382 34:2.948392 35:0.686989 36:8.5025 37:2.97497 38:0.497907 39:8.517 40:3.110329 41:0.311476 42:8.477333 43:3.211394 44:0.133937 45:8.233666 46:3.376177 47:-0.040037 48:8.287 49:3.10729 50:-0.241915 51:8.333 
1 1:0.423997 2:-0.672118 3:4.425 4:0.21544 5:-0.458583 6:4.554 7:-0.376141 8:-0.301667 9:4.3105 10:0.09676 11:-0.090077 12:4.567 13:0.028172 14:0.103912 15:4.5 16:0.037071 17:0.326142 18:4.562 19:0.172049 20:0.513634 21:4.4215 22:0.278457 23:0.708287 24:4.386667 25:-0.169196 26:0.989114 27:4.564667 28:0.890076 29:0.97274 30:4.528 31:0.442423 32:0.703778 33:4.401 34:0.548831 35:0.533549 36:4.5205 37:0.683808 38:0.324855 39:4.544 40:0.692708 41:0.103889 42:4.499 43:0.62412 44:-0.095125 45:4.407 46:1.097021 47:-0.293745 48:4.312 49:0.50544 50:-0.455344 51:4.564 
0.063446070676951516 1:3.063494 2:-0.429549 3:8.362 4:2.839861 5:-0.217211 6:8.377334 7:2.721198 8:0.021656 9:8.282 10:2.509145 11:0.182599 12:8.601 13:2.688787 14:0.340058 15:8.5345 16:2.811983 17:0.491242 18:8.403 19:2.873308 20:0.674485 21:8.445 22:2.852809 23:0.863371 24:8.525 25:2.844355 26:1.039094 27:8.406 28:3.188417 29:1.027525 30:8.439501 31:3.179963 32:0.861346 33:8.505 34:3.159464 35:0.681615 36:8.246 37:3.13495 38:0.49476 39:8.202 40:3.282395 41:0.339959 42:8.532 43:3.462037 44:0.182578 45:8.6 46:3.249984 47:0.021499 48:8.222 49:3.131321 50:-0.219794 51:8.3765 
1 1:-1.881478 2:-0.05261 3:5.051 4:-2.063314 5:0.087622 6:5.005 7:-2.123024 8:0.176673 9:4.891 10:-2.20088 11:0.344882 12:4.849401 13:-1.971258 14:0.552465 15:5.17 16:-1.770778 17:0.673646 18:5.14 19:-1.722912 20:0.820158 21:4.8202 22:-1.652066 23:0.928732 24:5.07 25:-1.917938 26:1.012022 27:4.88 28:-1.669728 29:0.997852 30:4.96775 31:-1.556259 32:0.929282 33:5.073 34:-1.485413 35:0.822903 36:5.077 37:-1.437547 38:0.675617 39:5.0475 40:-1.791699 41:0.540216 42:5.145 43:-1.562077 44:0.338034 45:5.129 46:-1.639933 47:0.182742 48:5.059 49:-1.699643 50:0.087797 51:5.015 
0.26907833102656359 1:4.431901 2:-0.032113 3:6.647 4:4.362685 5:0.017359 6:6.641429 7:4.308206 8:0.073067 9:6.6475 10:4.178907 11:0.16469 12:6.6 13:4.182264 14:0.294124 15:6.564 16:4.196039 17:0.377118 18:6.663 19:4.244425 20:0.466807 21:6.61575 22:4.279888 23:0.542746 24:6.566 25:4.167233 26:0.577384 27:6.543 28:4.434466 29:0.577737 30:6.547 31:4.321811 32:0.543738 33:6.578 34:4.357274 35:0.476344 36:6.663 37:4.40566 38:0.375927 39:6.5345 40:4.419435 41:0.283456 42:6.5622 43:4.422791 44:0.176145 45:6.569 46:4.555596 47:0.072341 48:6.5815 49:4.501117 50:0.004977 51:6.6065 
0.55139115648171999 1:-0.140826 2:-0.407035 3:9.267 4:-0.339811 5:-0.303335 6:9.261 7:-0.324042 8:-0.183723 9:9.315 10:-0.315538 11:-0.140457 12:9.320499 13:-0.346521 14:0.058432 15:9.2195 16:-0.255124 17:0.224298 18:9.337 19:-0.253184 20:0.369205 21:9.266 22:-0.150292 23:0.492696 24:9.318 25:-0.0814 26:0.654029 27:9.393 28:0.111783 29:0.647625 30:9.427 31:-0.13136 32:0.492749 33:9.319 34:-0.028468 35:0.369205 36:9.266 37:-0.026528 38:0.213897 39:9.263 40:0.064868 41:0.075365 42:9.1915 43:0.033886 44:-0.105653 45:9.311001 46:0.04239 47:-0.189031 48:9.291666 49:0.058159 50:-0.304285 51:9.29 
0.49582349068721004 1:-0.230309 2:-0.138023 3:9.762 4:-0.232479 5:-0.019766 6:9.6945 7:-0.881815 8:0.069906 9:9.617001 10:-0.412872 11:0.222694 12:9.644 13:-0.377489 14:0.363313 15:9.565 16:-0.322705 17:0.493614 18:9.676 19:-0.32252 20:0.710003 21:9.558001 22:-0.233187 23:0.798707 24:9.555 25:-0.61576 26:0.893816 27:9.526 28:-0.610003 29:0.894379 30:9.532 31:-0.227431 32:0.814788 33:9.64 34:-0.138098 35:0.674152 36:9.682 37:-0.137913 38:0.475258 39:9.669 40:-0.083129 41:0.37329 42:9.592501 43:-0.047746 44:0.205421 45:9.676 46:0.421197 47:0.070203 48:9.658501 49:-0.228138 50:-0.019721 51:9.67 
0.85534133631628295 1:2.799889 2:-0.446677 3:6.936 4:2.708687 5:-0.28337 6:7.049 7:2.81528 8:-0.158028 9:7.116667 10:2.693538 11:0.170457 12:6.5855 13:2.810231 14:0.385515 15:7.043 16:2.866333 17:0.585429 18:7.0035 19:2.917312 20:0.737854 21:6.986 22:2.82929 23:0.886712 24:6.913 25:2.785227 26:1.032899 27:7.077 28:3.240188 29:1.033045 30:7.078 31:3.196124 32:0.886144 33:7.010334 34:3.177451 35:0.747804 36:6.998 37:3.228431 38:0.586107 39:6.785 40:3.219783 41:0.366849 42:6.702 43:3.336475 44:0.176708 45:6.59 46:3.214734 47:-0.157279 48:6.708 49:2.89109 50:-0.283978 51:7.064 
0.73652234869645472 1:-0.636854 2:-0.063969 3:7.478 4:-0.703987 5:0.047689 6:7.5245 7:-1.038462 8:0.146813 9:7.58 10:-1.17399 11:0.269832 12:7.47 13:-0.736291 14:0.406452 15:7.4255 16:-0.805433 17:0.512542 18:7.361 19:-0.789484 20:0.651026 21:7.5365 22:-0.715702 23:0.855924 24:7.4275 25:-0.947094 26:0.971118 27:7.3575 28:-0.326614 29:0.97719 30:7.4035 31:-0.558005 32:0.855519 33:7.424 34:-0.484224 35:0.666776 36:7.556 37:-0.468274 38:0.526398 39:7.56 40:-0.537417 41:0.408504 42:7.463 43:-0.099717 44:0.277184 45:7.481 46:-0.235246 47:0.160817 48:7.575 49:-0.569721 50:0.07567 51:7.521166 
0.093729349087204067 1:-0.730075 2:-0.044049 3:11.2945 4:-0.860041 5:0.008543 6:11.341 7:-0.940606 8:0.104263 9:11.42 10:-1.122408 11:0.17878 12:11.427 13:-0.269873 14:0.264144 15:11.439 16:-0.184772 17:0.537559 18:11.367 19:-0.185764 20:0.632209 21:11.17 22:-0.931501 23:0.913609 24:11.439 25:-1.104331 26:1.063647 27:11.336 28:-0.712988 29:1.065711 30:11.358 31:-0.885818 32:0.89408 33:11.3265 34:-0.140081 35:0.618477 36:11.299 37:-0.141072 38:0.538127 39:11.379 40:-0.055971 41:0.283042 42:11.343 43:-0.280178 44:0.16879 45:11.4705 46:-0.461981 47:0.13576 48:11.387 49:-0.542545 50:0.008542 51:11.339 
1 1:3.108235 2:-0.330235 3:6.931 4:3.056101 5:-0.274506 6:6.8285 7:2.922648 8:-0.142617 9:6.905 10:2.845355 11:0.054794 12:6.682667 13:2.926094 14:0.317885 15:6.903 16:2.985437 17:0.520596 18:6.879 19:3.074534 20:0.678139 21:6.696 22:3.067078 23:0.858855 24:6.896 25:3.062787 26:1.008008 27:6.97325 28:3.169536 29:1.014655 30:6.952 31:3.165245 32:0.85061 33:6.90725 34:3.157789 35:0.684364 36:6.884 37:3.246886 38:0.515172 39:6.684 40:3.354047 41:0.312926 42:6.617 43:3.434787 44:0.049171 45:6.7655 46:3.357493 47:-0.133251 48:6.756 49:3.160368 50:-0.274727 51:6.834 
0.13423031800718832 1:1.219191 2:-0.197442 3:9.5595 4:1.104096 5:-0.081539 6:9.532 7:1.061031 8:-0.019702 9:9.662251 10:1.035114 11:0.077951 12:9.507 13:0.995739 14:0.222625 15:9.641 16:0.981848 17:0.369937 18:9.5065 19:1.038489 20:0.539839 21:9.538 22:1.094949 23:0.704764 24:9.4875 25:0.907446 26:0.86284 27:9.382 28:1.601381 29:0.864036 30:9.395 31:1.413878 32:0.703907 33:9.476 34:1.470338 35:0.528713 36:9.445001 37:1.526979 38:0.373847 39:9.3825 40:1.513088 41:0.221424 42:9.589001 43:1.473713 44:0.078222 45:9.54 46:1.447796 47:-0.04608 48:9.538 49:1.334285 50:-0.072833 51:9.5535 
0.47199307954714553 1:-1.126586 2:-0.102023 3:9.795 4:-1.038009 5:-0.020027 6:9.8215 7:-0.814653 8:0.116601 9:9.78 10:-0.742283 11:0.243566 12:9.761 13:-0.801714 14:0.406515 15:9.747 16:-0.736937 17:0.528108 18:9.815001 19:-1.238504 20:0.669187 21:9.741 22:-1.145095 23:0.755108 24:9.797 25:-1.201978 26:0.88192 27:9.6875 28:-0.800477 29:0.867444 30:9.83 31:-0.85736 32:0.763606 33:9.789 34:-0.763951 35:0.666294 36:9.832 37:-0.707115 38:0.555064 39:9.807 40:-0.642337 41:0.399428 42:9.79575 43:-0.701769 44:0.227694 45:9.8605 46:-0.629399 47:0.134214 48:9.737 49:-0.798482 50:-0.019995 51:9.8055 
0.86993295775448853 1:1.425391 2:-0.533358 3:9.468 4:1.207376 5:-0.40671 6:9.46 7:1.214749 8:-0.221698 9:9.4555 10:1.184579 11:-0.019363 12:9.4965 13:1.191866 14:0.192515 15:9.484 16:1.25821 17:0.372996 18:9.585 19:1.375602 20:0.486217 21:9.531 22:1.435697 23:0.675685 24:9.576 25:1.487043 26:0.888243 27:9.561501 28:1.667908 29:0.887437 30:9.55275 31:1.719254 32:0.676533 33:9.588 34:1.779349 35:0.487212 36:9.5505 37:1.592572 38:0.369765 39:9.502001 40:1.658916 41:0.219415 42:9.502 43:1.666204 44:-0.019348 45:9.495501 46:1.636033 47:-0.196708 48:9.524 49:1.643407 50:-0.405634 51:9.434999 
0.72130474728636096 1:3.947323 2:-0.091024 3:7.414 4:4.00679 5:-0.048911 6:7.308 7:4.036574 8:-0.034799 9:7.203 10:3.962637 11:0.04769 12:7.524666 13:3.963825 14:0.194519 15:7.606 16:3.950687 17:0.379801 18:7.445 19:3.91938 20:0.529503 21:7.12825 22:4.028049 23:0.648823 24:7.511 25:3.775972 26:0.770467 27:7.4035 28:4.123012 29:0.780401 30:7.178 31:4.191092 32:0.668345 33:7.123 34:4.299761 35:0.537705 36:7.149 37:4.268454 38:0.387266 39:7.075 40:4.255316 41:0.178763 42:7.164 43:4.256504 44:0.058757 45:7.166 46:4.182567 47:-0.034761 48:7.195 49:4.212351 50:-0.048844 51:7.298 
0.10554676215623825 1:1.836915 2:-0.421427 3:7.917 4:1.801512 5:-0.22949 6:7.905 7:1.62934 8:0.005962 9:7.915 10:1.27047 11:0.255528 12:8.12025 13:1.489558 14:0.474522 15:8.117 16:1.459882 17:0.709222 18:8.037 19:1.41029 20:0.831621 21:8.2115 22:1.44501 23:0.940653 24:7.928 25:1.402021 26:1.059072 27:7.91225 28:1.997782 29:1.06224 30:8.342 31:1.954794 32:0.941766 33:8.239 34:1.989513 35:0.831621 36:8.2115 37:1.939922 38:0.705231 39:8.164 40:1.897626 41:0.489166 42:7.986 43:2.40336 44:0.254353 45:8.083 46:2.044491 47:0.020709 48:7.92 49:1.872319 50:-0.250748 51:7.8795 
1 1:2.448214 2:-0.49073 3:9.553 4:2.216784 5:-0.310999 6:9.495 7:2.247642 8:-0.16828 9:9.760333 10:2.272237 11:0.024859 12:9.507 13:2.300906 14:0.254658 15:9.497 16:2.291695 17:0.492464 18:9.480499 19:2.175711 20:0.704844 21:9.609 22:2.197068 23:0.877923 24:9.546 25:2.242603 26:1.007648 27:9.5125 28:2.562834 29:1.000237 30:9.7865 31:2.532107 32:0.8834 33:9.70375 34:2.521065 35:0.706164 36:9.627 37:2.604734 38:0.483309 39:9.474 40:2.595522 41:0.281416 42:9.505 43:2.624192 44:0.007166 45:9.5125 46:2.648787 47:-0.168652 48:9.442 49:2.679645 50:-0.312866 51:9.552 
0.80128442370707553 1:0.659619 2:-0.229362 3:6.626 4:0.548685 5:-0.09374 6:6.63 7:0.382695 8:0.067981 9:6.757 10:0.379353 11:0.179604 12:6.698 13:0.321031 14:0.346183 15:6.786 16:0.405133 17:0.498517 18:6.711 19:0.634369 20:0.620965 21:6.752 22:0.47204 23:0.739942 24:6.654 25:0.429917 26:0.842076 27:6.613 28:1.060372 29:0.842903 30:6.6195 31:1.018249 32:0.737625 33:6.596333 34:0.85592 35:0.619164 36:6.534 37:1.085157 38:0.4865 39:6.5905 40:1.169258 41:0.345902 42:6.7805 43:1.110936 44:0.192187 45:6.702 46:1.107594 47:0.079022 48:6.628 49:0.941604 50:-0.094066 51:6.653 
0.098129036210100759 1:4.394318 2:-0.037401 3:6.707 4:4.357942 5:-0.007461 6:6.7325 7:4.172232 8:0.030766 9:6.873 10:4.129566 11:0.137606 12:6.883833 13:4.126532 14:0.29558 15:6.882333 16:4.107362 17:0.401703 18:6.5915 19:4.131501 20:0.521437 21:6.848 22:4.245192 23:0.609584 24:6.859667 25:4.202652 26:0.694878 27:6.618 28:4.447261 29:0.690678 30:6.578 31:4.454309 32:0.613746 33:6.606667 34:4.416916 35:0.49916 36:6.863 37:4.441056 38:0.409602 39:6.587 40:4.421886 41:0.286539 42:6.576777 43:4.573739 44:0.144895 45:6.825 46:4.616405 47:0.043503 48:6.8645 49:4.430695 50:-0.007375 51:6.6545 
1 1:0.516573 2:-0.24352 3:7.035 4:0.505344 5:-0.172132 6:7.0615 7:0.293893 8:-0.061608 9:7.202 10:0.856405 11:0.081452 12:7.207 13:0.827373 14:0.216572 15:7.092 16:0.883319 17:0.412087 18:7.049 19:0.862775 20:0.589531 21:7.132 22:0.881727 23:0.714902 24:7.059 25:0.613699 26:0.883002 27:6.9752 28:0.886765 29:0.859484 30:6.953 31:1.114949 32:0.702514 33:7.001 34:1.1339 35:0.588539 36:7.12 37:1.113356 38:0.382668 39:6.991 40:1.169302 41:0.190196 42:7.093 43:1.14027 44:0.085364 45:7.16 46:1.038738 47:-0.061565 48:7.197 49:0.827287 50:-0.163184 51:7.149 
0.92336045233691322 1:-2.169232 2:-0.483024 3:9.403 4:-2.404063 5:-0.219482 6:9.361 7:-2.505105 8:-0.010358 9:9.347 10:-2.46512 11:0.339331 12:9.394 13:-2.29858 14:0.553093 15:9.461 16:-2.489524 17:0.713555 18:9.487 19:-2.431468 20:0.841588 21:9.537 22:-2.504318 23:0.924404 24:9.476 25:-2.583839 26:1.036548 27:9.534 28:-1.904343 29:1.035679 30:9.526 31:-1.983864 32:0.943883 33:9.4945 34:-2.056714 35:0.841147 36:9.532 37:-2.021631 38:0.705133 39:9.4925 40:-2.039884 41:0.535085 42:9.454 43:-1.873344 44:0.338536 45:9.372 46:-1.833359 47:-0.019111 48:9.374001 49:-1.934401 50:-0.227881 51:9.348 
0.5428710064940977 1:-3.155285 2:-0.52002 3:7.238 4:-3.40677 5:-0.37972 6:7.217667 7:-3.395466 8:-0.162103 9:7.51 10:-3.432851 11:0.103467 12:7.032 13:-3.327807 14:0.277201 15:7.674 16:-3.150715 17:0.472171 18:7.3725 19:-3.221288 20:0.619012 21:7.40525 22:-3.208856 23:0.859399 24:7.437666 25:-3.212782 26:1.02278 27:7.485 28:-3.075181 29:1.027699 30:7.521 31:-3.079107 32:0.859954 33:7.4625 34:-3.066675 35:0.639926 36:7.408 37:-3.137248 38:0.484676 39:7.354 40:-2.960155 41:0.299396 42:7.514 43:-2.855112 44:0.075524 45:7.507333 46:-2.892497 47:-0.161153 48:7.466 49:-2.903801 50:-0.369601 51:7.195 
0.24764512480887541 1:4.421414 2:-0.031992 3:6.622 4:4.306112 5:-0.013348 6:6.55 7:4.194851 8:0.053689 9:6.548 10:4.196199 11:0.127696 12:6.593 13:4.22096 14:0.201792 15:6.608 16:4.216426 17:0.300472 18:6.614 19:4.211951 20:0.39927 21:6.619 22:4.301021 23:0.471054 24:6.589 25:4.276277 26:0.527746 27:6.60775 28:4.35883 29:0.530064 30:6.63675 31:4.334086 32:0.473556 33:6.624 34:4.423156 35:0.396837 36:6.578667 37:4.418681 38:0.310798 39:6.572 40:4.414147 41:0.224619 42:6.556167 43:4.416447 44:0.132971 45:6.5505 46:4.417795 47:0.047625 48:6.5525 49:4.536716 50:-0.019621 51:6.607 
1 1:0.568841 2:-0.220172 3:6.722 4:0.563594 5:-0.131358 6:6.66 7:0.289139 8:0.02561 9:6.640333 10:0.33954 11:0.221724 12:6.6525 13:0.320075 14:0.33848 15:6.635 16:0.704724 17:0.479156 18:6.702333 19:0.38407 20:0.603767 21:6.565 22:0.553745 23:0.731671 24:6.6165 25:0.657429 26:0.84093 27:6.604 28:0.759896 29:0.85067 30:6.632 31:0.86358 32:0.737105 33:6.5015 34:1.033255 35:0.597238 36:6.494 37:0.712601 38:0.479652 39:6.539 40:1.081496 41:0.353369 42:6.683 43:1.06203 44:0.169371 45:6.623 46:1.112431 47:0.023651 48:6.6725 49:0.837976 50:-0.131515 51:6.668 
0.21301380728951638 1:3.984127 2:-0.085855 3:6.993 4:4.04992 5:0.031008 6:6.927 7:4.05344 8:0.117682 9:6.722 10:4.064697 11:0.27333 12:7.196 13:4.036802 14:0.390769 15:7.139 16:4.010253 17:0.539585 18:7.174 19:4.014912 20:0.690962 21:7.083 22:4.103145 23:0.796798 24:7.028 25:3.972732 26:0.848976 27:6.973 28:4.343053 29:0.849514 30:6.821 31:4.21264 32:0.787077 33:6.739333 34:4.300873 35:0.690397 36:6.694 37:4.305532 38:0.529746 39:6.711 40:4.278984 41:0.390476 42:6.679333 43:4.251089 44:0.26752 45:6.714 46:4.262345 47:0.117507 48:6.712 49:4.265866 50:0.043731 51:6.9 
0.27062564746921047 1:-0.019899 2:-0.461065 3:9.313 4:-0.063198 5:-0.347651 6:9.2935 7:-0.149356 8:-0.199876 9:9.26 10:-0.166886 11:-0.070704 12:9.274 13:-0.194065 14:0.059151 15:9.333 16:-0.149986 17:0.232038 18:9.299 19:-0.115211 20:0.378931 21:9.292999 22:-0.461318 23:0.52535 24:9.282 25:-0.046391 26:0.64588 27:9.4015 28:0.215933 29:0.669656 30:9.367 31:0.421521 32:0.52501 33:9.276 34:0.075414 35:0.379277 36:9.3015 37:0.110188 38:0.257246 39:9.376667 40:0.154268 41:0.059354 42:9.365 43:0.127089 44:-0.044684 45:9.249 46:0.109559 47:-0.200998 48:9.312 49:0.023401 50:-0.347183 51:9.281 
0.44358281886719203 1:-0.6532 2:-0.14105 3:7.5055 4:-0.697857 5:-0.036046 6:7.461 7:-1.290274 8:0.111119 9:7.5515 10:-0.889066 11:0.270446 12:7.487 13:-0.880137 14:0.554932 15:7.4705 16:-0.872292 17:0.741924 18:7.463 19:-0.853721 20:0.890528 21:7.545 22:-1.074072 23:0.943054 24:7.406 25:-0.664225 26:1.034913 27:7.472 28:-0.642174 29:1.028927 30:7.479 31:-0.232327 32:0.945641 33:7.481 34:-0.452678 35:0.890665 36:7.429 37:-0.434107 38:0.767009 39:7.5045 40:-0.426262 41:0.559018 42:7.5255 43:-0.417333 44:0.311549 45:7.47 46:-0.016125 47:0.132178 48:7.55 49:-0.608542 50:-0.036104 51:7.473 
0.24215695439072396 1:2.400232 2:-0.191732 3:11.983 4:2.358858 5:-0.057975 6:12 7:2.357286 8:0.009034 9:11.992 10:2.290926 11:0.131855 12:11.996 13:2.174243 14:0.276729 15:11.984 16:2.218724 17:0.410819 18:11.991 19:2.218727 20:0.541749 21:11.925 22:2.196259 23:0.655096 24:11.968 25:2.355433 26:0.763799 27:11.926 28:2.509704 29:0.764247 30:11.933 31:2.668877 32:0.650553 33:11.885 34:2.689537 35:0.566407 36:11.977 37:2.689539 38:0.408643 39:11.9275 40:2.734021 41:0.274304 42:11.879 43:2.617338 44:0.143057 45:11.999 46:2.683698 47:0.009003 48:11.951 49:2.554989 50:-0.07945 51:11.871 
1 1:3.019995 2:-0.399323 3:8.548 4:2.835816 5:-0.249492 6:8.594 7:2.759159 8:-0.107205 9:8.732 10:2.648804 11:0.01172 12:8.531667 13:2.684587 14:0.254415 15:8.684 16:2.814379 17:0.486863 18:8.602 19:2.767979 20:0.711612 21:8.707 22:2.749047 23:0.913485 24:8.7 25:2.746008 26:1.080628 27:8.742 28:3.077229 29:1.076673 30:8.71 31:3.045673 32:0.902775 33:8.598 34:3.095695 35:0.709306 36:8.581 37:3.049295 38:0.48624 39:8.591 40:3.179087 41:0.265891 42:8.707 43:3.21487 44:0.014337 45:8.514999 46:3.104515 47:-0.111914 48:8.474 49:3.204174 50:-0.24894 51:8.575 
0.030964182389488084 1:-3.231779 2:-0.171979 3:7.335 4:-3.58319 5:-0.092227 6:7.512 7:-3.68991 8:0.069667 9:7.63 10:-3.369215 11:0.285484 12:7.33625 13:-3.300821 14:0.439806 15:7.291 16:-2.94889 17:0.573883 18:7.63 19:-3.220141 20:0.703271 21:7.397333 22:-3.233974 23:0.900976 24:7.515 25:-3.086123 26:1.067323 27:7.706 28:-2.975372 29:1.067878 30:7.71 31:-2.827521 32:0.890619 33:7.506333 34:-2.841354 35:0.728181 36:7.417334 37:-2.810806 38:0.571852 39:7.603 40:-3.162737 41:0.43797 42:7.613 43:-3.094343 44:0.305293 45:7.32 46:-2.773649 47:0.043591 48:7.624333 49:-2.880368 50:-0.092166 51:7.507 
0.52991016054800089 1:2.56822 2:-0.591523 3:8.803499 4:2.542985 5:-0.341155 6:8.8985 7:2.391718 8:-0.224734 9:8.88 10:2.818305 11:-0.073687 12:8.614 13:2.763175 14:0.133925 15:8.559999 16:2.798089 17:0.341787 18:8.783 19:2.757175 20:0.549079 21:8.83 22:2.863502 23:0.650387 24:8.719001 25:2.670543 26:0.876638 27:8.656 28:2.883732 29:0.877651 30:8.666 31:3.076691 32:0.656693 33:8.731 34:3.183017 35:0.545379 36:8.7705 37:3.223931 38:0.324342 39:8.539 40:3.258846 41:0.117811 42:8.547 43:3.203715 44:-0.072767 45:8.5065 46:2.744722 47:-0.240911 48:8.867 49:2.593454 50:-0.34083 51:8.89 
1 1:0.89897 2:-0.516875 3:9.382 4:0.837433 5:-0.373137 6:9.282 7:0.737079 8:-0.253409 9:9.327 10:0.557563 11:0.024151 12:9.236 13:0.642018 14:0.13738 15:9.3365 16:0.797797 17:0.310795 18:9.324751 19:0.829127 20:0.478718 21:9.384 22:0.8354 23:0.623145 24:9.455 25:0.904557 26:0.817145 27:9.26 28:0.960687 29:0.792529 30:9.2745 31:1.029844 32:0.609362 33:9.37825 34:1.036351 35:0.495578 36:9.372499 37:1.067681 38:0.316774 39:9.246 40:1.22346 41:0.146347 42:9.354 43:1.307915 44:0.024294 45:9.291 46:1.128399 47:-0.233871 48:9.241 49:1.028045 50:-0.399099 51:9.283 
0.97671716371864181 1:-2.024111 2:0.027108 3:10.367 4:-2.132166 5:0.123003 6:10.317 7:-2.206583 8:0.162806 9:10.406 10:-2.241249 11:0.288965 12:10.415 13:-2.255964 14:0.402194 15:10.335501 16:-2.261237 17:0.49683 18:10.302999 19:-2.392128 20:0.697061 21:10.286 22:-2.255592 23:0.820721 24:10.276 25:-2.182293 26:0.927372 27:10.292 28:-1.891491 29:0.92602 30:10.277 31:-1.842889 32:0.795958 33:10.327 34:-1.656095 35:0.711177 36:10.305667 37:-1.786986 38:0.508141 39:10.338 40:-1.792258 41:0.403483 42:10.3685 43:-1.806973 44:0.296568 45:10.342 46:-1.84164 47:0.180672 48:10.32 49:-1.916057 50:0.122872 51:10.306 
0.03810193284128819 1:-5.418918 2:0.304875 3:9.41 4:-5.538669 5:0.351653 6:9.258 7:-5.53086 8:0.438962 9:9.103001 10:-5.592748 11:0.534519 12:9.444 13:-5.539312 14:0.6667 15:9.089 16:-5.687079 17:0.774772 18:9.373 19:-5.507502 20:0.910978 21:9.0785 22:-5.488937 23:0.999806 24:9.118 25:-5.490864 26:1.035522 27:9.260333 28:-5.166428 29:1.037991 30:9.282333 31:-5.168355 32:1.001009 33:9.129 34:-5.14979 35:0.913786 36:9.106501 37:-4.970212 38:0.792389 39:9.375 40:-5.11798 41:0.649424 42:9.084 43:-5.064544 44:0.549761 45:9.404 46:-5.126431 47:0.427993 48:9.421 49:-5.299167 50:0.351558 51:9.2555 
0.30570673465028803 1:3.208673 2:-0.317736 3:9.179 4:3.063633 5:-0.214652 6:9.155 7:2.992199 8:-0.188889 9:9.1455 10:2.842185 11:-0.068729 12:9.014 13:2.844348 14:0.205861 15:8.915 16:2.794749 17:0.387931 18:8.904 19:2.718964 20:0.55864 21:9.261 22:2.839403 23:0.63697 24:9.148 25:3.088321 26:0.703468 27:9.127 28:3.330225 29:0.705488 30:9.044 31:3.472803 32:0.637179 33:9.151 34:3.593242 35:0.554901 36:9.199 37:3.517457 38:0.401672 39:9.026501 40:3.467858 41:0.199118 42:8.98525 43:3.465695 44:-0.059954 45:8.958 46:3.315681 47:-0.189071 48:9.153999 49:3.244247 50:-0.222682 51:9.134501 
0.41522968656632558 1:1.183949 2:-0.431337 3:9.421 4:1.016111 5:-0.306905 6:9.37 7:1.064869 8:-0.219892 9:9.3785 10:0.725603 11:-0.045568 12:9.432 13:0.890315 14:0.164268 15:9.382999 16:0.973998 17:0.349423 18:9.4305 19:0.998378 20:0.493516 21:9.3335 22:1.117333 23:0.64185 24:9.343 25:1.122445 26:0.872235 27:9.296 28:1.328061 29:0.886239 30:9.261499 31:1.333173 32:0.651592 33:9.358 34:1.452128 35:0.493701 36:9.337 37:1.476507 38:0.344533 39:9.538 40:1.560191 41:0.145284 42:9.286 43:1.724903 44:-0.028201 45:9.496 46:1.385636 47:-0.222225 48:9.478 49:1.351788 50:-0.306774 51:9.366 
0.018104866621689371 1:2.384348 2:-1.995187 3:4.3341 4:2.33178 5:-1.304971 6:4.3635 7:2.34253 8:-0.497362 9:4.388572 10:2.221228 11:0.23646 12:4.472 13:2.140537 14:0.977232 15:4.4525 16:3.077354 17:1.095717 18:6.583666 19:2.802689 20:1.165383 21:9.152 22:2.231621 23:1.235928 24:7.774 25:2.556422 26:1.283775 27:5.9245 28:2.838206 29:1.283551 30:4.237 31:3.726575 32:1.236061 33:7.511 34:3.155507 35:1.165378 36:5.775 37:3.586477 38:1.09746 39:7.8185 40:2.649659 41:0.97637 42:4.4 43:2.568968 44:0.224435 45:4.3996 46:2.447666 47:-0.502149 48:4.373 49:2.436917 50:-1.311304 51:4.3112 
1 1:2.659446 2:-0.451685 3:9.48 4:2.403386 5:-0.326943 6:9.445 7:2.552483 8:-0.223749 9:9.543 10:2.622333 11:0.016007 12:9.50575 13:2.665057 14:0.192841 15:9.5 16:2.713941 17:0.369102 18:9.485001 19:2.665478 20:0.528937 21:9.5015 22:2.66951 23:0.710998 24:9.453 25:2.659908 26:0.936377 27:9.419 28:3.000133 29:0.941836 30:9.386 31:2.990531 32:0.706898 33:9.3985 34:2.994563 35:0.52818 36:9.332 37:2.9461 38:0.373708 39:9.379 40:3.017493 41:0.192711 42:9.4935 43:3.075378 44:0.015696 45:9.32 46:3.041767 47:-0.217981 48:9.297 49:2.915507 50:-0.344708 51:9.45 
0.53691643776139053 1:-0.376282 2:-0.416993 3:7.569 4:-0.459975 5:-0.197082 6:7.511 7:-0.205071 8:0.005779 9:7.671 10:-0.487786 11:0.216332 12:7.544 13:-0.436917 14:0.469233 15:7.6605 16:-0.429518 17:0.664129 18:7.526 19:-0.878837 20:0.79648 21:7.519 22:-0.751976 23:0.928707 24:7.513 25:-0.612043 26:1.054999 27:7.516 28:-0.529351 29:1.0417 30:7.521 31:-0.389418 32:0.929202 33:7.517 34:-0.262557 35:0.789797 36:7.522 37:0.186763 38:0.647441 39:7.495 40:0.194162 41:0.460068 42:7.511 43:0.245031 44:0.216992 45:7.567 46:-0.037684 47:0.005753 48:7.637 49:-0.292589 50:-0.178099 51:7.596 
0.0033702940570514818 1:-1.144919 2:-0.074677 3:9.7955 4:-1.267851 5:0.00735 6:9.757 7:-0.887824 8:0.098416 9:9.782 10:-0.89692 11:0.171831 12:9.815 13:-0.867997 14:0.278531 15:9.713 16:-0.897851 17:0.390921 18:9.811 19:-1.284211 20:0.569579 21:9.743 22:-1.151318 23:0.70772 24:9.772249 25:-1.044664 26:0.85712 27:9.713 28:-0.796584 29:0.82656 30:9.708 31:-0.707331 32:0.701326 33:9.81 34:-0.267125 35:0.580133 36:9.768 37:-0.653485 38:0.391518 39:9.826 40:-0.683339 41:0.278989 42:9.729 43:-0.654416 44:0.172268 45:9.84 46:-0.663511 47:0.10668 48:9.7045 49:-1.021987 50:-0.019902 51:9.761 
0.7617282517010322 1:2.795168 2:-0.427921 3:8.039 4:2.663768 5:-0.227484 6:8.0955 7:2.380202 8:-0.054606 9:8.159 10:2.65585 11:0.196682 12:8.1875 13:2.59336 14:0.40626 15:8.1115 16:2.63623 17:0.613536 18:8.0575 19:2.716806 20:0.870749 21:8.009 22:2.65729 23:0.997583 24:7.911333 25:2.582682 26:1.088768 27:7.914 28:2.987361 29:1.086629 30:8.175 31:2.912754 32:0.988742 33:7.88 34:2.97227 35:0.866953 36:8.113 37:3.052846 38:0.609659 39:7.8155 40:2.779304 41:0.397449 42:8.086 43:2.841793 44:0.194385 45:7.79025 46:2.745554 47:-0.054606 48:8.159 49:2.926569 50:-0.224711 51:8.085999 
0.39087549548614225 1:-3.434501 2:-0.356373 3:8.865 4:-3.500629 5:-0.172599 6:8.751 7:-3.532946 8:-0.009822 9:8.863 10:-3.435014 11:0.195079 12:8.80275 13:-3.437067 14:0.367352 15:8.808001 16:-3.889702 17:0.489652 18:8.945499 19:-3.464566 20:0.668287 21:8.9965 22:-3.642348 23:0.877287 24:8.993 25:-3.705313 26:1.096254 27:9.004 28:-3.16369 29:1.086267 30:9.0605 31:-3.226654 32:0.859015 33:8.977 34:-3.404436 35:0.657238 36:8.96 37:-2.9793 38:0.465607 39:8.9635 40:-3.431935 41:0.372732 42:8.937 43:-3.433988 44:0.208031 45:9.009 46:-3.336057 47:0.006633 48:8.805 49:-3.368373 50:-0.161991 51:8.764667 
0.78175134248765432 1:-0.365723 2:-0.397767 3:9.056 4:-0.557309 5:-0.175104 6:8.878 7:-0.536796 8:-0.043288 9:8.96 10:-0.637291 11:0.202559 12:8.772 13:-0.687652 14:0.358806 15:9.005 16:-0.592042 17:0.585249 18:8.88 19:-0.56467 20:0.710981 21:8.902 22:-0.521756 23:0.777964 24:8.816 25:-0.504613 26:0.913361 27:8.936501 28:-0.226832 29:0.918948 30:8.91 31:-0.209689 32:0.784318 33:8.888 34:-0.166775 35:0.701606 36:8.958667 37:-0.139403 38:0.581305 39:8.989333 40:-0.043793 41:0.353626 42:8.875 43:-0.094154 44:0.189796 45:8.94 46:-0.194649 47:-0.043283 48:8.959 49:-0.174136 50:-0.178713 51:9.061 
1 1:0.528808 2:-0.214761 3:7.9045 4:0.52887 5:-0.126491 6:7.9055 7:0.453247 8:-0.067707 9:7.915 10:0.415928 11:0.050424 12:7.956 13:0.364643 14:0.271412 15:7.922 16:0.385795 17:0.440303 18:7.9095 19:0.338147 20:0.607995 21:7.98475 22:0.503111 23:0.791631 24:7.963 25:0.391521 26:0.88046 27:7.962 28:0.880234 29:0.880681 30:7.964 31:0.768643 32:0.789792 33:7.9445 34:0.933608 35:0.608742 36:7.898 37:0.885959 38:0.460237 39:8 40:0.907112 41:0.25673 42:7.924 43:0.855827 44:0.072383 45:7.92825 46:0.818508 47:-0.05304 48:7.925 49:0.742884 50:-0.126515 51:7.907 
1 1:-0.590105 2:-0.07118 3:7.5045 4:-0.806219 5:0.005647 6:7.496 7:-1.006868 8:0.139069 9:7.543 10:-0.637604 11:0.28362 12:7.6545 13:-0.876733 14:0.340768 15:7.501 16:-0.862393 17:0.6477 18:7.498 19:-0.792139 20:0.821575 21:7.4295 22:-0.639383 23:0.967585 24:7.453333 25:-0.580624 26:1.059069 27:7.545 28:-0.219449 29:1.055279 30:7.518 31:-0.16069 32:0.955548 33:7.396 34:-0.38807 35:0.801448 36:7.5 37:-0.317816 38:0.644391 39:7.541 40:-0.303476 41:0.367986 42:7.631 43:-0.542606 44:0.266798 45:7.386 46:-0.173341 47:0.136789 48:7.546333 49:-0.37399 50:0.005615 51:7.4535 
0.35062566866270611 1:-3.179319 2:-0.398866 3:9.081 4:-3.424625 5:-0.219787 6:9.01625 7:-3.288048 8:0.080992 9:8.8715 10:-3.252797 11:0.308448 12:9.003 13:-3.235292 14:0.495263 15:9.048 16:-3.309906 17:0.736398 18:9.114 19:-3.514675 20:0.879445 21:9.1905 22:-3.401183 23:0.973279 24:9.108 25:-3.465606 26:1.098915 27:9.166 28:-2.893032 29:1.097699 30:9.2275 31:-2.957455 32:0.980972 33:9.18 34:-2.843962 35:0.880545 36:9.202 37:-3.048731 38:0.733812 39:9.082 40:-3.123346 41:0.477574 42:9.032 43:-3.105841 44:0.311189 45:9.083 46:-3.07059 47:0.074762 48:9.118 49:-2.934013 50:-0.212331 51:9.056 
1 1:0.314919 2:-0.619608 3:4.235 4:0.405217 5:-0.4849 6:4.229 7:1.014926 8:-0.295439 9:4.2215 10:0.790681 11:0.003251 12:4.315 13:0.301761 14:0.234545 15:4.144 16:0.607682 17:0.433521 18:4.150899 19:0.760608 20:0.609053 21:4.339 22:0.559073 23:0.716746 24:4.259 25:0.517854 26:0.995049 27:4.458 28:0.874448 29:0.976366 30:4.4485 31:0.833229 32:0.716746 33:4.259 34:1.034764 35:0.610032 36:4.2447 37:1.18769 38:0.429176 39:4.124 40:1.493611 41:0.233725 42:4.1295 43:1.004692 44:0.01483 45:4.4154 46:1.208469 47:-0.307369 48:4.2235 49:0.684646 50:-0.482579 51:4.35 
0.29033674944919163 1:-2.978078 2:-0.290807 3:7.234 4:-3.176791 5:-0.07704 6:7.3965 7:-3.405403 8:0.153068 9:7.21 10:-3.373537 11:0.371832 12:6.9105 13:-3.398403 14:0.520055 15:7.181 16:-3.13104 17:0.775097 18:7.382 19:-3.163317 20:0.940246 21:7.2255 22:-3.354276 23:1.065704 24:7.460333 25:-3.370994 26:1.15606 27:7.446 28:-2.894195 29:1.155388 30:7.3016 31:-2.95122 32:1.070555 33:7.335001 34:-2.857394 35:0.943181 36:7.407 37:-2.825117 38:0.745689 39:7.363 40:-2.557754 41:0.484899 42:6.964 43:-2.582619 44:0.367916 45:7.346 46:-2.550754 47:0.172714 48:7.19 49:-2.779366 50:-0.09025 51:7.351 
0.22606886933494499 1:-0.850245 2:-0.495719 3:8.998 4:-1.109298 5:-0.397811 6:9.057 7:-1.076941 8:-0.196962 9:9.125 10:-1.447273 11:0.01508 12:8.9525 13:-1.357208 14:0.250269 15:9.02 16:-1.24989 17:0.494551 18:9.035 19:-1.668718 20:0.614316 21:9.065 22:-1.379384 23:0.744602 24:9.008 25:-1.313611 26:0.884533 27:8.8975 28:-1.127541 29:0.856863 30:8.86825 31:-1.061768 32:0.738423 33:9.281667 34:-0.772434 35:0.614655 36:9.07 37:-1.191262 38:0.477151 39:9.024 40:-1.083944 41:0.223504 42:8.957 43:-0.993879 44:0.006777 45:8.997 46:-0.623548 47:-0.179877 48:9.12 49:-0.591192 50:-0.398119 51:9.064 
0.81077154687330766 1:-3.633077 2:0.110211 3:9.244 4:-3.774406 5:0.195188 6:9.194 7:-3.817623 8:0.257689 9:9.28775 10:-4.16379 11:0.35773 12:9.418 13:-3.637782 14:0.567485 15:9.126 16:-3.666423 17:0.705626 18:9.155 19:-3.653328 20:0.825822 21:9.165 22:-3.680052 23:0.911126 24:9.165 25:-3.522483 26:1.004219 27:9.158251 28:-3.147673 29:0.997963 30:9.339 31:-3.586102 32:0.911425 33:9.168 34:-3.612826 35:0.827558 36:9.378 37:-3.59973 38:0.704905 39:9.372 40:-3.628371 41:0.549532 42:9.11 43:-3.102364 44:0.375062 45:9.413 46:-3.448531 47:0.258157 48:9.304501 49:-3.491747 50:0.196547 51:9.258 
1 1:-1.09339 2:-0.101486 3:9.7435 4:-1.184696 5:0.04362 6:9.7445 7:-1.182462 8:0.170316 9:9.7285 10:-1.294035 11:0.250562 12:9.6805 13:-1.298312 14:0.377953 15:9.7125 16:-1.292631 17:0.511309 18:9.67 19:-1.257196 20:0.619634 21:9.675 22:-1.478583 23:0.729382 24:9.819 25:-1.166473 26:0.852707 27:9.663 28:-1.020306 29:0.851913 30:9.654 31:-0.708197 32:0.729606 33:9.822001 34:-0.929584 35:0.636458 36:9.657 37:-0.894149 38:0.525848 39:9.773001 40:-0.888468 41:0.378987 42:9.739 43:-0.892745 44:0.24182 45:9.691 46:-1.004318 47:0.134221 48:9.7375 49:-1.002083 50:0.025467 51:9.7395 
0.25872871503741607 1:-0.893179 2:-0.13914 3:9.841 4:-1.194176 5:-0.028955 6:9.75 7:-1.225889 8:0.079641 9:9.713 10:-1.223121 11:0.254848 12:9.729333 13:-1.32218 14:0.316345 15:9.764 16:-1.256293 17:0.429256 18:9.6465 19:-1.165965 20:0.624758 21:9.755 22:-1.208761 23:0.731155 24:9.721 25:-1.077126 26:0.827095 27:9.679 28:-0.870569 29:0.826243 30:9.704333 31:-0.738933 32:0.732885 33:9.744 34:-0.666554 35:0.624373 36:9.749 37:-0.576225 38:0.434291 39:9.7595 40:-0.642112 41:0.317268 42:9.7925 43:-0.74117 44:0.252977 45:9.7735 46:-0.738402 47:0.079837 48:9.737 49:-0.935159 50:-0.046887 51:9.705 
1 1:-0.071907 2:-0.408419 3:9.2985 4:-0.18467 5:-0.303875 6:9.2775 7:-0.28104 8:-0.184522 9:9.355499 10:-0.272136 11:-0.010332 12:9.323 13:-0.254113 14:0.093566 15:9.3 16:-0.253293 17:0.30034 18:9.27 19:-0.150647 20:0.406927 21:9.34 22:0.049089 23:0.584399 24:9.398 25:-0.116637 26:0.742639 27:9.408 28:0.101831 29:0.753083 30:9.320499 31:0.137849 32:0.558588 33:9.405251 34:0.337585 35:0.381176 36:9.348 37:0.109479 38:0.302283 39:9.33 40:0.110299 41:0.110962 42:9.307 43:0.128322 44:-0.027544 45:9.275 46:0.137226 47:-0.202099 48:9.363 49:0.040856 50:-0.287207 51:9.297 
1 1:-1.447891 2:-0.116154 3:4.954 4:-1.930268 5:0.015912 6:4.736 7:-1.640985 8:0.102187 9:5.034 10:-1.715067 11:0.239814 12:5.071 13:-1.73511 14:0.461156 15:4.512 16:-1.790324 17:0.631525 18:4.9595 19:-1.618521 20:0.803054 21:4.843333 22:-1.486286 23:0.938964 24:4.878 25:-1.82109 26:1.10568 27:4.59 28:-1.744299 29:1.103533 30:4.653 31:-1.409496 32:0.940311 33:4.885 34:-1.277261 35:0.791065 36:4.8398 37:-1.105458 38:0.634491 39:4.911 40:-1.160672 41:0.470032 42:4.912 43:-1.180715 44:0.244816 45:5.077 46:-1.254797 47:0.114488 48:4.958 49:-0.965514 50:-0.011237 51:4.783 
0.2585867441420725 1:-0.238897 2:-0.133745 3:10.126 4:-0.273841 5:-0.067075 6:10.022 7:-0.238401 8:0.064044 9:10.105 10:-0.350272 11:0.269996 12:10.069 13:-0.293036 14:0.437381 15:10.039 16:-0.218917 17:0.645316 18:10.076 19:-0.238307 20:0.773298 21:10.033 22:-0.853687 23:0.863485 24:9.996 25:-0.799758 26:0.970056 27:10.039749 28:0.399901 29:0.969741 30:10.0365 31:0.45383 32:0.862708 33:9.987 34:-0.16155 35:0.771988 36:10.016 37:-0.18094 38:0.67038 39:10.030001 40:-0.182775 41:0.416191 42:9.979 43:-0.125539 44:0.28785 45:10.038 46:-0.23741 47:0.073394 48:10.0975 49:-0.203952 50:-0.076656 51:10.055 
0.15649551839605488 1:-4.227112 2:0.151593 3:8.659 4:-4.215878 5:0.231128 6:8.6195 7:-4.182748 8:0.284495 9:8.5355 10:-4.211709 11:0.380992 12:8.562 13:-4.195968 14:0.514545 15:8.53 16:-4.38542 17:0.677493 18:8.79 19:-4.427054 20:0.791852 21:8.788 22:-4.205045 23:0.885016 24:8.581 25:-4.007542 26:0.939658 27:8.5695 28:-3.940349 29:0.942428 30:8.594749 31:-3.742846 32:0.87991 33:8.851 34:-3.671188 35:0.792753 36:8.798 37:-3.712822 38:0.660379 39:8.78 40:-3.902274 41:0.523512 42:8.503667 43:-3.886533 44:0.379796 45:8.535 46:-3.915494 47:0.287315 48:8.868 49:-4.016639 50:0.233099 51:8.693 
1 1:2.343877 2:-0.423287 3:9.637 4:2.304852 5:-0.371577 6:9.692 7:2.280728 8:-0.344259 9:9.68475 10:2.250437 11:-0.316371 12:9.659 13:2.171368 14:-0.253713 15:9.6695 16:2.132083 17:-0.226375 18:9.655 19:2.166989 20:-0.190331 21:9.65 22:2.169235 23:-0.118599 24:9.66 25:2.178666 26:-0.101054 27:9.702 28:2.369913 29:-0.083113 30:9.716 31:2.379344 32:-0.136228 33:9.635 34:2.400307 35:-0.172313 36:9.647 37:2.55567 38:-0.226516 39:9.661 40:2.516385 41:-0.280613 42:9.666 43:2.437316 44:-0.316109 45:9.651 46:2.407025 47:-0.33487 48:9.674 49:2.382902 50:-0.371347 51:9.686001 
0.13556097874522857 1:-1.997728 2:-0.04485 3:5.7428 4:-2.04959 5:0.025658 6:5.732 7:-2.157166 8:0.140882 9:5.75325 10:-2.114412 11:0.268853 12:5.918 13:-2.220044 14:0.434706 15:5.64 16:-1.819431 17:0.579765 18:5.887 19:-2.295018 20:0.727255 21:5.629 22:-2.097591 23:0.853635 24:5.824 25:-2.075776 26:0.999696 27:5.629 28:-1.550377 29:0.997634 30:5.647 31:-1.528563 32:0.850168 33:5.825 34:-1.331136 35:0.726006 36:5.963 37:-1.806722 38:0.552188 39:5.885 40:-1.40611 41:0.437219 42:5.813 43:-1.511742 44:0.265491 45:5.844 46:-1.554495 47:0.135824 48:5.882 49:-1.662071 50:0.0209 51:5.89375 
-0.47054261170065192 1:-3.856043 2:0.173929 3:8.98 4:-3.893131 5:0.31824 6:9.043 7:-4.006506 8:0.350856 9:9.01625 10:-3.922873 11:0.437359 12:9.011666 13:-3.969361 14:0.525558 15:8.99 16:-4.004676 17:0.611665 18:8.944 19:-3.969143 20:0.74642 21:9.03 22:-3.963479 23:0.79654 24:9.026501 25:-3.994551 26:0.841596 27:9.151 28:-3.590555 29:0.826252 30:9.106999 31:-3.621627 32:0.794864 33:9.071334 34:-3.615963 35:0.72953 36:9.029 37:-3.58043 38:0.614452 39:9.067 40:-3.615858 41:0.521854 42:9.071 43:-3.614224 44:0.436201 45:9.04575 46:-3.70558 47:0.367006 48:9.069667 49:-3.818954 50:0.327664 51:9.071 
-0.30122939208917693 1:-3.07699 2:0.188704 3:6.8474 4:-3.164417 5:0.289113 6:6.8555 7:-3.249522 8:0.435944 9:6.90725 10:-3.417428 11:0.582617 12:6.818 13:-3.262091 14:0.639491 15:6.883749 16:-3.586026 17:0.72206 18:7.001 19:-3.540041 20:0.913808 21:6.6875 22:-3.517764 23:1.041239 24:6.627 25:-3.554137 26:1.193293 27:6.7545 28:-2.844711 29:1.192719 30:6.787 31:-2.881083 32:1.050713 33:6.609 34:-2.858806 35:0.890748 36:6.701334 37:-2.812822 38:0.721029 39:6.991 40:-3.136756 41:0.6414 42:6.881334 43:-2.981419 44:0.579925 45:6.762 46:-2.904458 47:0.435329 48:6.8975 49:-2.989563 50:0.302058 51:6.933 
-1 1:-0.619344 2:-0.281291 3:7.5195 4:-0.702305 5:-0.162027 6:7.5065 7:-0.733591 8:-0.015082 9:7.39825 10:-0.759622 11:0.220592 12:7.4505 13:-0.722158 14:0.403253 15:7.4945 16:-0.723993 17:0.576261 18:7.599 19:-0.799314 20:0.780023 21:7.563 22:-0.749942 23:0.943788 24:7.635 25:-0.723908 26:1.032569 27:7.661 28:-0.454681 29:1.033944 30:7.465 31:-0.359049 32:0.927595 33:7.504 34:-0.303546 35:0.771751 36:7.551 37:-0.378867 38:0.573206 39:7.621 40:-0.380702 41:0.376452 42:7.563334 43:-0.324567 44:0.23459 45:7.682 46:-0.294938 47:0.005768 48:7.657 49:-0.364217 50:-0.150134 51:7.612 
