svm_type c_svc
kernel_type polynomial
degree 4
gamma 0.019607843137254902
coef0 0
nr_class 2
total_sv 454
rho -0.077608790779728071
label 1 2
nr_sv 230 224
SV
1 1:-4.092775 2:0.262573 3:6.4395 4:-4.229711 5:0.310066 6:6.43 7:-4.190792 8:0.376652 9:6.392 10:-4.316396 11:0.487657 12:6.327 13:-4.311181 14:0.608305 15:6.357 16:-4.21127 17:0.670364 18:6.4035 19:-4.26814 20:0.707834 21:6.401 22:-4.179197 23:0.740923 24:6.412333 25:-4.193995 26:0.814959 27:6.495 28:-3.933511 29:0.817344 30:6.514 31:-3.948309 32:0.76497 33:6.5224 34:-3.971683 35:0.708905 36:6.3045 37:-4.028553 38:0.677061 39:6.4105 40:-3.928642 41:0.619359 42:6.349 43:-3.923428 44:0.448936 45:6.4475 46:-3.950749 47:0.377518 48:6.45775 49:-3.95584 50:0.318067 51:6.471 
0.120553651701065 1:3.945817 2:-0.049274 3:10.199 4:3.922318 5:-0.011345 6:10.237 7:3.84239 8:0.026572 9:10.162 10:3.901628 11:0.140362 12:10.183 13:3.904693 14:0.197384 15:10.191 16:3.797024 17:0.288797 18:10.071 19:3.791088 20:0.370577 21:10.259 22:3.86523 23:0.459022 24:10.104 25:3.707002 26:0.477216 27:10.091 28:4.184631 29:0.475939 30:10.063999 31:4.026403 32:0.458431 33:10.091 34:4.100546 35:0.363569 36:10.065 37:4.094609 38:0.288868 39:10.0735 40:3.986941 41:0.178764 42:10.211 43:3.990006 44:0.13959 45:10.127 46:4.049244 47:0.026598 48:10.172 49:3.969315 50:-0.011275 51:10.174 
0.065600450479853703 1:3.307693 2:0.113469 3:8.232 4:3.077782 5:0.193992 6:8.401 7:3.015516 8:0.219187 9:8.46825 10:2.761061 11:0.287464 12:8.3905 13:3.094386 14:0.349085 15:8.37 16:2.457982 17:0.467902 18:8.267 19:2.47939 20:0.53074 21:8.287 22:2.215203 23:0.781315 24:8.327 25:3.669479 26:0.928011 27:8.392 28:3.890106 29:0.932102 30:8.429 31:3.100668 32:0.770543 33:8.2945 34:2.836481 35:0.532103 36:8.557 37:2.857889 38:0.481801 39:8.2415 40:3.520999 41:0.353965 42:8.487 43:3.854324 44:0.289639 45:8.454 46:3.599869 47:0.218628 48:8.4465 49:3.537603 50:0.194477 51:8.422001 
0.0029604481796113012 1:-3.351275 2:0.5395 3:10.976 4:-2.657629 5:0.670507 6:11.115499 7:-4.129575 8:0.707087 9:11.371 10:-4.13244 11:0.741237 12:11.353667 13:-4.847965 14:0.858492 15:11.414 16:-2.957509 17:1.004594 18:11.035 19:-5.282633 20:1.2065 21:11.2905 22:-3.227504 23:1.303393 24:11.043 25:-3.176872 26:1.328625 27:11.082 28:-1.381738 29:1.326347 30:11.063 31:-1.331106 32:1.302802 33:11.038 34:-3.068774 35:1.213296 36:11.065001 37:-0.966181 38:1.003331 39:11.135 40:-3.05838 41:0.879894 42:11.416 43:-3.773905 44:0.737954 45:11.197 46:-3.77677 47:0.707232 48:11.2055 49:-2.296649 50:0.67108 51:11.125 
0.027409163585226819 1:2.180963 2:-1.997519 3:4.770667 4:2.132603 5:-1.247158 6:4.834 7:2.16696 8:-0.514198 9:4.838 10:2.065421 11:0.226272 12:4.8227 13:2.238871 14:0.749902 15:4.83 16:2.105272 17:0.785733 18:4.15225 19:2.261146 20:0.820507 21:5.161 22:2.060203 23:1.154378 24:4.5731 25:2.208766 26:1.34759 27:6.219 28:2.50006 29:1.345529 30:5.185 31:2.648623 32:1.158393 33:6.771 34:2.44768 35:0.820265 36:5.413 37:2.603554 38:0.785477 39:4.773 40:2.469955 41:0.749897 42:7.142 43:2.296505 44:0.254869 45:4.820143 46:2.194967 47:-0.496477 48:4.840833 49:2.229323 50:-1.273835 51:4.782125 
0.082178839811959059 1:5.107731 2:-0.884773 3:10.658 4:5.044946 5:-0.727756 6:10.683 7:4.158679 8:-0.548212 9:10.672 10:4.092764 11:-0.374315 12:10.813499 13:4.471054 14:-0.188264 15:10.54 16:4.110445 17:0.127904 18:10.728 19:4.109659 20:0.417219 21:10.471 22:4.268994 23:0.624005 24:10.674 25:4.366526 26:0.8819 27:10.669 28:4.758848 29:0.885767 30:10.5965 31:4.85638 32:0.606994 33:10.724501 34:5.015715 35:0.417378 36:10.475 37:5.014929 38:0.12751 39:10.695 40:4.65432 41:-0.186799 42:10.458 43:4.666077 44:-0.375494 45:10.563499 46:4.600162 47:-0.564831 48:10.611 49:5.170516 50:-0.708002 51:10.685 
0.20762801316839458 1:-3.937698 2:0.380624 3:11.748 4:-4.0339 5:0.426367 6:11.8035 7:-4.147692 8:0.445244 9:11.722 10:-4.424439 11:0.446688 12:11.76 13:-4.640697 14:0.555766 15:11.752 16:-4.695713 17:0.677699 18:11.780001 19:-4.670559 20:0.710109 21:11.772 22:-4.692504 23:0.752271 24:11.746 25:-4.433262 26:0.753616 27:11.767 28:-4.21886 29:0.75368 30:11.768 31:-3.959618 32:0.752399 33:11.748 34:-3.981562 35:0.710682 36:11.7815 37:-3.956409 38:0.677383 39:11.7745 40:-4.011424 41:0.555483 42:11.746 43:-4.227682 44:0.446764 45:11.762 46:-3.727705 47:0.439909 48:11.773666 49:-3.841496 50:0.4283 51:11.857 
1 1:-3.097866 2:-0.073702 3:7.076 4:-3.287296 5:0.057994 6:7.073 7:-3.332932 8:0.083636 9:7.015 10:-3.419182 11:0.109581 12:7.004 13:-3.233542 14:0.137206 15:7.084 16:-3.290684 17:0.217046 18:7.1075 19:-3.278863 20:0.253254 21:7.011333 22:-3.343437 23:0.308351 24:7.002749 25:-3.262342 26:0.349869 27:7.118 28:-2.979788 29:0.359293 30:7.043 31:-2.898693 32:0.317508 33:6.989 34:-2.963267 35:0.257153 36:7.119 37:-2.951446 38:0.216481 39:7.089 40:-2.962191 41:0.128712 42:6.981 43:-2.776551 44:0.122304 45:6.986 46:-2.862801 47:0.08354 48:7.007 49:-2.908437 50:0.058191 51:7.097 
0.26431667578202689 1:-5.127481 2:0.366602 3:8.79 4:-5.453387 5:0.385273 6:8.843 7:-5.190482 8:0.45875 9:8.676 10:-5.12265 11:0.507699 12:8.6845 13:-4.877113 14:0.585011 15:8.752749 16:-5.050023 17:0.648887 18:9.0765 19:-4.785111 20:0.729392 21:8.824 22:-4.730887 23:0.834172 24:8.774333 25:-4.63579 26:0.9428 27:8.874333 28:-4.435622 29:0.941452 30:8.861667 31:-4.340526 32:0.828435 33:9.1 34:-4.286629 35:0.743589 36:9.203 37:-4.372498 38:0.645465 39:9.107667 40:-4.545408 41:0.587819 42:8.919 43:-4.76526 44:0.510417 45:8.731 46:-4.697428 47:0.45778 48:8.865666 49:-4.801575 50:0.409086 51:8.823999 
0.012095817084019165 1:2.385695 2:-1.993863 3:4.911167 4:2.335379 5:-1.450739 6:4.9295 7:2.342021 8:-0.776981 9:4.993 10:2.24228 11:-0.126211 12:4.987 13:2.178772 14:0.591346 15:5.05 16:1.312255 17:1.117396 18:7.4655 19:2.910284 20:1.189778 21:6.181 22:2.215789 23:1.245574 24:7.744 25:2.346516 26:1.299873 27:5.7995 28:3.693517 29:1.299986 30:5.682 31:3.824244 32:1.247195 33:7.411 34:3.129749 35:1.189922 36:6.4305 37:3.459134 38:1.117321 39:7.465 40:2.592617 41:0.591325 42:5.01 43:2.52911 44:-0.116693 45:4.977 46:2.429369 47:-0.790693 48:4.9915 49:2.436011 50:-1.45443 51:4.911 
0.0069199846141220576 1:4.378623 2:-0.675225 3:10.797 4:4.041389 5:-0.581279 6:10.92 7:4.097091 8:-0.43039 9:10.96 10:5.193206 11:-0.296147 12:10.9 13:5.165261 14:-0.103671 15:10.9305 16:4.10965 17:0.048967 18:10.939 19:4.706102 20:0.307321 21:10.717 22:4.376546 23:0.612852 24:10.828 25:4.553658 26:0.875048 27:10.83 28:4.837777 29:0.87626 30:10.845 31:5.014888 32:0.610078 33:10.779 34:5.962016 35:0.307121 36:10.71 37:6.558468 38:0.076052 39:10.93 40:5.502857 41:-0.09839 42:10.724 43:5.474913 44:-0.311067 45:10.715 46:4.660154 47:-0.430864 48:10.718 49:4.715856 50:-0.55828 51:10.868 
0.084612715950938056 1:1.123856 2:-0.864514 3:11.729 4:1.096501 5:-0.791285 6:11.776501 7:1.067849 8:-0.706881 9:11.8315 10:1.00287 11:-0.673762 12:11.83 13:0.945563 14:-0.631475 15:11.863 16:1.001608 17:-0.567513 18:11.911 19:1.071196 20:-0.477295 21:11.873 22:1.111461 23:-0.376469 24:11.83 25:1.120209 26:-0.298785 27:11.806 28:1.303246 29:-0.297824 30:11.768 31:1.30452 32:-0.374858 33:11.7795 34:1.176516 35:-0.476933 36:11.864 37:1.246103 38:-0.564654 39:11.851 40:1.302148 41:-0.631209 42:11.858 43:1.244842 44:-0.674275 45:11.839 46:1.179863 47:-0.707361 48:11.778333 49:1.15121 50:-0.791859 51:11.785 
0.041441412564458387 1:-3.463622 2:-0.068882 3:7.032333 4:-3.488338 5:0.098295 6:6.824 7:-3.515952 8:0.2204 9:6.675 10:-3.548435 11:0.345696 12:6.462 13:-3.588412 14:0.397134 15:6.3865 16:-3.665489 17:0.528818 18:7.397 19:-3.486916 20:0.616057 21:6.083 22:-3.638312 23:0.740524 24:7.312 25:-3.636637 26:0.873081 27:7.063 28:-3.256988 29:0.875627 30:6.9785 31:-3.255312 32:0.740423 33:7.311 34:-3.406709 35:0.622563 36:6.506 37:-3.228136 38:0.526733 39:7.120667 40:-3.305213 41:0.405276 42:6.328 43:-3.265236 44:0.34623 45:7.134 46:-3.411292 47:0.205121 48:6.717 49:-3.438907 50:0.077786 51:6.882999 
0.5907770685257161 1:2.755914 2:-0.231151 3:7.2635 4:2.377496 5:-0.132642 6:7.426 7:1.905018 8:0.047632 9:7.5155 10:1.993431 11:0.201855 12:7.27525 13:2.263915 14:0.588794 15:7.04375 16:1.974415 17:0.682681 18:7.0655 19:2.208711 20:0.941182 21:7.0315 22:2.177212 23:1.125507 24:7.761 25:2.223238 26:1.247 27:7.0215 28:2.876086 29:1.247185 30:7.0595 31:2.830059 32:1.104698 33:7.29 34:2.79856 35:0.944154 36:7.005001 37:3.032856 38:0.68181 39:7.0565 40:2.743356 41:0.588484 42:7.04 43:3.01384 44:0.203084 45:7.082 46:3.102253 47:0.047667 48:7.521 49:2.629775 50:-0.131222 51:7.3465 
0.19841411033562228 1:1.541225 2:0.04163 3:11.740999 4:1.41164 5:0.161782 6:11.737 7:1.362843 8:0.230582 9:11.905 10:1.47279 11:0.318986 12:11.896 13:1.415726 14:0.404618 15:11.81 16:1.478146 17:0.490554 18:11.762 19:1.52823 20:0.572236 21:11.642 22:1.398343 23:0.702418 24:11.467501 25:1.352363 26:0.787734 27:11.624 28:1.791096 29:0.782245 30:11.543 31:1.745115 32:0.701863 33:11.4585 34:1.615229 35:0.57027 36:11.602 37:1.665313 38:0.490304 39:11.756 40:1.727733 41:0.404892 42:11.818 43:1.670669 44:0.336284 45:11.727 46:1.719608 47:0.230252 48:11.888 49:1.670811 50:0.161658 51:11.728 
0.068904731101896835 1:-3.578999 2:0.272512 3:10.921 4:-3.590469 5:0.311422 6:10.86 7:-3.630982 8:0.391058 9:10.826 10:-4.021545 11:0.408488 12:10.933 13:-3.810204 14:0.453435 15:10.872 16:-4.05445 17:0.540139 18:10.989 19:-3.257184 20:0.637276 21:10.901 22:-3.191274 23:0.681156 24:10.954 25:-3.154557 26:0.761258 27:10.933 28:-2.996192 29:0.764392 30:10.978 31:-2.959476 32:0.661489 33:10.966 34:-3.050845 35:0.620521 36:10.9635 37:-3.103547 38:0.539156 39:10.969 40:-3.347793 41:0.454519 42:10.898 43:-3.136452 44:0.415579 45:10.941 46:-3.527015 47:0.390986 48:10.824 49:-3.567528 50:0.312167 51:10.886 
0.038196932108269958 1:5.063989 2:-1.064663 3:11.532 4:4.944575 5:-0.931722 6:11.481 7:4.888889 8:-0.828023 9:11.525 10:4.714112 11:-0.464954 12:11.566 13:4.595674 14:-0.229363 15:11.629 16:4.298207 17:0.008662 18:11.498 19:4.546103 20:0.307697 21:11.475 22:4.27601 23:0.65066 24:11.496 25:4.395076 26:0.824076 27:11.527 28:5.137968 29:0.824576 30:11.534 31:5.257034 32:0.634186 33:11.586 34:4.986941 35:0.348281 36:11.405 37:5.234837 38:0.008656 39:11.491 40:5.532304 41:-0.243024 42:11.259 43:5.413866 44:-0.471521 45:11.377999 46:5.239089 47:-0.830571 48:11.2685 49:5.183403 50:-0.930262 51:11.463 
0.016233822994139779 1:5.565132 2:-1.00139 3:11.545 4:5.170617 5:-0.907871 6:11.725 7:5.382702 8:-0.736575 9:11.778 10:4.17904 11:-0.560175 12:11.757 13:3.72174 14:-0.336237 15:11.582 16:4.088809 17:-0.101137 18:11.823 19:3.920612 20:0.106955 21:11.7135 22:4.371102 23:0.531209 24:11.693 25:4.330674 26:0.793155 27:11.704 28:4.870387 29:0.792003 30:11.687 31:4.829959 32:0.533981 33:11.754 34:5.280449 35:0.096146 36:11.726 37:5.112252 38:-0.120938 39:11.611 40:5.479321 41:-0.31431 42:11.568501 43:5.022021 44:-0.561605 45:11.787 46:5.504322 47:-0.808529 48:11.553 49:5.959647 50:-0.904929 51:11.687 
1 1:1.83321 2:-0.402631 3:7.838 4:1.817743 5:-0.267959 6:7.741 7:1.807526 8:-0.110354 9:7.805 10:1.792706 11:0.013137 12:7.8005 13:1.762521 14:0.107983 15:7.834 16:1.7579 17:0.298001 18:7.8455 19:1.758751 20:0.436908 21:7.8485 22:1.740318 23:0.635803 24:7.869 25:1.726643 26:0.87283 27:7.893 28:1.939777 29:0.854005 30:7.855 31:1.926101 32:0.634996 33:7.859 34:1.907668 35:0.407433 36:7.8435 37:1.908519 38:0.312665 39:7.847 40:1.903898 41:0.107901 42:7.828 43:1.873713 44:0.010719 45:7.803667 46:1.858894 47:-0.125171 48:7.823 49:1.848676 50:-0.258701 51:7.751667 
0.14953651229965717 1:3.677803 2:-0.540212 3:11.337999 4:4.089614 5:-0.378694 6:10.94 7:4.134277 8:-0.314783 9:10.843 10:3.186298 11:-0.117521 12:11.283 13:3.553051 14:0.008228 15:10.922 16:3.640779 17:0.127152 18:10.665 19:3.483549 20:0.223798 21:11.0245 22:3.442185 23:0.342784 24:11.225 25:3.724012 26:0.508286 27:10.748 28:4.19613 29:0.49273 30:10.846 31:3.914303 32:0.34232 33:10.87825 34:4.592794 35:0.214603 36:11.08 37:4.750024 38:0.126282 39:10.592 40:4.837752 41:0.008231 42:10.927 43:5.204505 44:-0.117334 45:11.265 46:4.256526 47:-0.313912 48:10.813 49:4.301189 50:-0.379351 51:10.959 
0.51073022613349228 1:-3.921806 2:-0.031572 3:6.535 4:-3.703055 5:0.078837 6:6.6125 7:-3.587228 8:0.097039 9:6.6794 10:-3.59446 11:0.115843 12:6.617 13:-3.445248 14:0.163817 15:6.565 16:-3.965515 17:0.188316 18:6.567 19:-3.847961 20:0.252173 21:6.639 22:-3.662397 23:0.348424 24:6.7075 25:-3.524096 26:0.376891 27:6.659 28:-3.107079 29:0.376042 30:6.644 31:-3.35728 32:0.341693 33:6.698 34:-3.60944 35:0.274764 36:6.588 37:-2.762328 38:0.187842 39:6.5505 40:-3.282595 41:0.163417 42:6.549 43:-3.133383 44:0.115458 45:6.595 46:-3.198422 47:0.097336 48:6.615 49:-3.438154 50:0.079129 51:6.637 
0.038202117582213563 1:2.507324 2:-1.128033 3:11.306499 4:1.46207 5:-1.028288 6:11.138 7:1.652359 8:-0.967996 9:11.16 10:1.386126 11:-0.679337 12:11.196 13:1.343507 14:-0.408141 15:11.189 16:1.117705 17:-0.160108 18:11.324 19:1.141894 20:0.165792 21:11.26725 22:1.542802 23:0.404423 24:11.196 25:1.714979 26:0.590146 27:11.161 28:1.876547 29:0.589248 30:11.144 31:2.048725 32:0.40529 33:11.22 34:2.449633 35:0.173555 36:11.093 37:2.473822 38:-0.15974 39:11.298 40:2.24802 41:-0.433647 42:11.311 43:2.205401 44:-0.687649 45:11.333 46:1.939168 47:-0.965654 48:11.133 49:3.552579 50:-1.030504 51:11.162 
0.020392036440913284 1:-4.216602 2:0.266902 3:6.3995 4:-4.14542 5:0.337929 6:6.391 7:-4.768717 8:0.378481 9:6.9145 10:-4.081354 11:0.560088 12:6.347 13:-4.147141 14:0.638337 15:6.303 16:-3.639212 17:0.737807 18:6.4025 19:-3.744827 20:0.848464 21:7.077 22:-3.487126 23:0.914288 24:6.3865 25:-3.570404 26:1.029092 27:6.473 28:-3.081132 29:1.029818 30:6.686333 31:-3.164409 32:0.922712 33:6.799 34:-2.906708 35:0.848745 36:7.191 37:-3.012324 38:0.737783 39:7.3525 40:-3.75817 41:0.639046 42:6.31 43:-3.823958 44:0.590974 45:6.3615 46:-3.136595 47:0.378454 48:6.914 49:-3.759891 50:0.344115 51:6.508 
1 1:3.05855 2:-0.390575 3:5.299 4:2.965564 5:-0.342968 6:5.176 7:2.873458 8:-0.161194 9:4.785 10:3.025502 11:-0.036375 12:5.435 13:2.901151 14:0.100253 15:4.9385 16:2.992051 17:0.209784 18:5.523 19:2.932786 20:0.27058 21:5.304 22:2.925297 23:0.334314 24:5.22 25:2.957388 26:0.40024 27:4.842 28:3.159713 29:0.501786 30:4.779 31:3.191804 32:0.324685 33:5.26075 34:3.184315 35:0.270307 36:5.499334 37:3.12505 38:0.209176 39:5.507 40:3.21595 41:0.104282 42:4.912 43:3.091599 44:-0.051991 45:5.4805 46:3.243642 47:-0.166466 48:4.809 49:3.151537 50:-0.326314 51:5.067 
0.044727140083539729 1:3.02514 2:-1.697341 3:5.077 4:2.918308 5:-1.135267 6:5.0155 7:2.91906 8:-0.652514 9:5.00075 10:2.972444 11:-0.201804 12:5.02 13:2.979503 14:0.224536 15:5.046 16:2.9848 17:0.707595 18:5.05225 19:3.125087 20:1.157431 21:5.02825 22:3.229261 23:1.244737 24:7.083 25:3.016912 26:1.311854 27:6.793334 28:3.693838 29:1.311386 30:6.6835 31:3.481489 32:1.244441 33:6.1385 34:3.585664 35:1.155503 36:6.766333 37:3.06548 38:0.703784 39:4.995 40:3.070777 41:0.218378 42:5.012333 43:3.077836 44:-0.193075 45:5.001428 46:3.131219 47:-0.655758 48:4.99 49:3.131971 50:-1.12613 51:5.004571 
1 1:2.429901 2:-0.449331 3:4.265 4:2.462096 5:-0.369213 6:4.35 7:2.456548 8:-0.321139 9:4.3295 10:2.452265 11:-0.238301 12:4.3255 13:2.474797 14:-0.194886 15:4.152385 16:2.454527 17:-0.165985 18:4.3295 19:2.472296 20:-0.136633 21:4.35725 22:2.478328 23:-0.021016 24:4.35 25:2.399818 26:0.06958 27:4.1975 28:2.738416 29:0.050593 30:4.243667 31:2.659906 32:-0.027949 33:4.176 34:2.665938 35:-0.130335 36:4.177166 37:2.683707 38:-0.15987 39:4.382667 40:2.663437 41:-0.204516 42:4.131 43:2.685969 44:-0.229531 45:4.312 46:2.669585 47:-0.310015 48:4.315 49:2.664036 50:-0.368203 51:4.245 
0.21112880983407209 1:-3.364493 2:0.674588 3:4.622 4:-3.559143 5:0.713259 6:4.856 7:-3.371845 8:0.766611 9:4.7552 10:-3.215094 11:0.816386 12:4.798 13:-3.446503 14:0.895436 15:5.3208 16:-3.349617 17:0.923035 18:4.786 19:-3.284383 20:0.983722 21:4.7865 22:-3.205206 23:1.034595 24:5.480833 25:-3.314764 26:1.066875 27:5.329 28:-2.938654 29:1.071044 30:5.382 31:-3.048211 32:1.034678 33:5.1368 34:-3.127388 35:0.979484 36:4.899 37:-3.062154 38:0.921881 39:5.1105 40:-2.965268 41:0.895855 42:5.506 43:-3.196677 44:0.817917 45:4.807 46:-3.039926 47:0.770958 48:5.23225 49:-3.169842 50:0.711553 51:4.78375 
1 1:1.470603 2:0.008439 3:11.203 4:1.469815 5:0.050122 6:11.197 7:1.484264 8:0.098785 9:11.200999 10:1.432369 11:0.16526 12:11.231 13:1.317717 14:0.294611 15:10.987 16:1.434748 17:0.370463 18:11.115 19:1.262803 20:0.403241 21:10.882999 22:1.273937 23:0.433475 24:10.879 25:1.487924 26:0.469409 27:11.255 28:1.695032 29:0.490839 30:11.266 31:1.909019 32:0.434372 33:10.901501 34:1.920153 35:0.393984 36:10.907 37:1.748207 38:0.370206 39:11.1075 40:1.865239 41:0.313802 42:10.943 43:1.750587 44:0.133698 45:11.214 46:1.698692 47:0.070065 48:11.055 49:1.781873 50:0.069688 51:10.995501 
0.11408766983263456 1:2.138824 2:-0.530175 3:7.285 4:2.065107 5:-0.507456 6:7.251 7:2.010038 8:-0.494906 9:7.3655 10:2.05994 11:-0.460751 12:7.3675 13:2.062222 14:-0.410468 15:7.32675 16:2.003853 17:-0.367777 18:7.1595 19:2.06051 20:-0.349961 21:7.345 22:1.99233 23:-0.330588 24:7.2205 25:2.113926 26:-0.310751 27:7.388 28:2.441828 29:-0.298325 30:7.421 31:2.469988 32:-0.330565 33:7.22 34:2.401808 35:-0.34977 36:7.341 37:2.374325 38:-0.359277 39:7.257 40:2.315957 41:-0.4023 42:7.181 43:2.240319 44:-0.45828 45:7.328 46:2.267611 47:-0.493243 48:7.2405 49:2.212542 50:-0.511165 51:7.304 
0.46285593421702365 1:-3.482481 2:0.055723 3:6.796 4:-3.98902 5:0.091622 6:6.647 7:-3.679554 8:0.105042 9:6.714 10:-3.439497 11:0.117743 12:6.7255 13:-3.965015 14:0.164865 15:6.607 16:-3.434806 17:0.251604 18:6.624 19:-3.820884 20:0.350831 21:6.635 22:-3.630918 23:0.381589 24:6.742 25:-3.435423 26:0.405885 27:6.728667 28:-3.254495 29:0.405242 30:6.718 31:-3.303484 32:0.376707 33:6.767 34:-2.754686 35:0.350936 36:6.637 37:-3.140764 38:0.253414 39:6.671667 40:-2.610555 41:0.176118 42:6.568 43:-3.136073 44:0.117402 45:6.706 46:-3.37613 47:0.104865 48:6.702333 49:-3.685596 50:0.092724 51:6.727 
0.43563102146260929 1:-3.406084 2:0.16578 3:6.52225 4:-3.474346 5:0.250183 6:6.429 7:-3.497919 8:0.269871 9:6.773 10:-3.512983 11:0.313919 12:6.638 13:-3.543096 14:0.473926 15:6.38 16:-3.525696 17:0.642962 18:6.348667 19:-3.551172 20:0.738715 21:7.0355 22:-3.554394 23:0.843538 24:6.824 25:-3.463786 26:0.878475 27:6.609 28:-3.406102 29:0.879147 30:6.708 31:-3.315494 32:0.833358 33:6.951 34:-3.318716 35:0.732419 36:7.059 37:-3.344193 38:0.655537 39:6.356 40:-3.326792 41:0.514735 42:7.2 43:-3.299185 44:0.300747 45:7.211 46:-3.314248 47:0.26919 48:7.087 49:-3.337821 50:0.251936 51:6.856667 
1 1:-3.634651 2:0.023439 3:6.6115 4:-3.661542 5:0.054743 6:6.6765 7:-3.679549 8:0.135896 9:6.594 10:-3.651213 11:0.257613 12:6.62 13:-3.73454 14:0.324942 15:6.695333 16:-3.712934 17:0.368995 18:6.414 19:-3.688112 20:0.402451 21:6.472 22:-3.750733 23:0.529634 24:6.555 25:-3.764272 26:0.591768 27:6.706 28:-3.448359 29:0.604161 30:6.705 31:-3.461898 32:0.525229 33:6.57625 34:-3.524519 35:0.400025 36:6.433 37:-3.499697 38:0.369998 39:6.4315 40:-3.478091 41:0.316378 42:6.69 43:-3.561418 44:0.264796 45:6.349 46:-3.589754 47:0.115493 48:6.597 49:-3.60776 50:0.054928 51:6.699 
0.040075638688602727 1:-3.502787 2:0.169643 3:6.7985 4:-3.551763 5:0.211152 6:6.9145 7:-3.630414 8:0.287997 9:6.472 10:-3.583479 11:0.372038 12:6.415 13:-3.62161 14:0.455551 15:7.113 16:-3.591549 17:0.52902 18:6.259 19:-3.572893 20:0.642323 21:6.845667 22:-3.596127 23:0.773633 24:6.306 25:-3.553524 26:0.825742 27:6.3455 28:-3.401098 29:0.828401 30:6.735334 31:-3.358496 32:0.786778 33:6.8275 34:-3.402012 35:0.623686 36:6.851 37:-3.383356 38:0.527325 39:7.011 40:-3.353295 41:0.457408 42:7.142 43:-3.391426 44:0.379605 45:7.055 46:-3.37516 47:0.287942 48:6.47075 49:-3.453811 50:0.215229 51:7.048 
1 1:2.675152 2:-0.109279 3:6.118 4:2.410261 5:-0.017603 6:5.9285 7:2.669893 8:0.085626 9:6.212 10:2.737508 11:0.190636 12:5.884 13:2.792163 14:0.43252 15:6.05 16:2.77001 17:0.55199 18:6.002 19:2.796964 20:0.779839 21:6.036 22:2.818087 23:0.921766 24:6.009 25:2.872237 26:1.090193 27:5.992001 28:2.894525 29:1.080498 30:5.781 31:2.948675 32:0.914571 33:5.743142 34:2.969798 35:0.795768 36:6.047286 37:2.996752 38:0.551313 39:5.818 40:2.974599 41:0.426251 42:5.811 43:3.003559 44:0.186036 45:5.742 46:2.98472 47:0.089914 48:5.747 49:2.940043 50:-0.017569 51:5.916 
0.21897849916799908 1:-3.999192 2:0.226973 3:9.096 4:-4.179307 5:0.255045 6:9.1925 7:-4.171933 8:0.29953 9:9.245 10:-4.157506 11:0.380532 12:9.124 13:-4.268127 14:0.408903 15:9.189 16:-4.292492 17:0.478208 18:9.044 19:-4.260406 20:0.556527 21:9.132 22:-4.097163 23:0.599946 24:9.103 25:-4.225623 26:0.635368 27:9.125 28:-3.77276 29:0.635229 30:9.123 31:-3.90122 32:0.600078 33:9.105 34:-3.737977 35:0.551462 36:9.142 37:-3.705891 38:0.482544 39:9.126 40:-3.730256 41:0.434417 42:9.186 43:-3.840877 44:0.368408 45:9.246 46:-3.82645 47:0.316294 48:9.232 49:-3.819076 50:0.299206 51:9.235 
1 1:2.751796 2:-0.180174 3:5.205 4:2.717002 5:0.188551 6:4.964 7:2.670593 8:0.336926 9:5.041 10:2.631589 11:0.50194 12:5.049 13:2.645128 14:0.621264 15:5.064 16:2.640191 17:0.764642 18:5.077125 19:2.648034 20:0.890795 21:5.063 22:2.628249 23:1.022854 24:5.164 25:2.5879 26:1.180254 27:5.0965 28:2.915692 29:1.182268 30:5.146572 31:2.875343 32:1.019685 33:5.148 34:2.855558 35:0.888081 36:5.0535 37:2.863401 38:0.768175 39:5.078143 40:2.858464 41:0.626349 42:5.067 43:2.872003 44:0.477684 45:5.091 46:2.832999 47:0.340547 48:5.0252 49:2.78659 50:0.188969 51:4.975 
0.82063271912062574 1:1.403335 2:0.103492 3:11.335 4:1.186014 5:0.135683 6:11.3805 7:1.154215 8:0.220433 9:11.381 10:1.186891 11:0.28152 12:11.282 13:1.149854 14:0.346235 15:11.338 16:1.000241 17:0.40706 18:11.269 19:1.215671 20:0.452641 21:11.36 22:1.183769 23:0.494891 24:11.359 25:1.168421 26:0.55953 27:11.3835 28:1.336106 29:0.534533 30:11.303 31:1.320758 32:0.496982 33:11.407 34:1.288856 35:0.432482 36:11.386 37:1.504286 38:0.387111 39:11.299 40:1.354674 41:0.344525 42:11.282 43:1.522533 44:0.28142 45:11.278 46:1.555209 47:0.220084 48:11.363 49:1.620656 50:0.156696 51:11.368 
1 1:2.530766 2:-0.130668 3:4.501 4:2.192449 5:-0.074073 6:4.147 7:2.17928 8:-0.019383 9:4.012 10:2.326712 11:0.061752 12:4.48 13:2.166222 14:0.10161 15:4.480889 16:2.200002 17:0.187561 18:4.073 19:1.93978 20:0.248622 21:4.186167 22:2.003036 23:0.31206 24:4.0005 25:2.04072 26:0.331614 27:4.201 28:2.136803 29:0.334028 30:4.41375 31:2.174487 32:0.313638 33:4.275833 34:2.237742 35:0.251656 36:4.047 37:2.54651 38:0.193043 39:4.082 40:2.58029 41:0.102896 42:4.456 43:2.4198 44:0.053651 45:4.5 46:2.567231 47:-0.010512 48:4.310429 49:2.554062 50:-0.071921 51:4.3685 
1 1:2.575189 2:-0.145907 3:9.119 4:2.214383 5:-0.110091 6:8.967 7:2.223026 8:-0.060248 9:9.002 10:2.201838 11:-0.043737 12:9.053 13:2.213079 14:0.024164 15:9.241 16:2.23165 17:0.09412 18:9.355 19:2.353881 20:0.15625 21:8.925 22:2.235873 23:0.352108 24:9.27 25:2.374875 26:0.477944 27:9.039 28:2.401361 29:0.474719 30:8.978 31:2.540363 32:0.353362 33:9.303 34:2.422355 35:0.155864 36:8.903 37:2.544586 38:0.091806 39:9.125 40:2.563157 41:0.024059 42:9.201 43:2.574398 44:-0.043607 45:9.026 46:2.55321 47:-0.061734 48:9.224 49:2.577531 50:-0.112804 51:9.188 
1 1:1.47139 2:0.091907 3:11.209 4:1.300765 5:0.164517 6:11.1805 7:1.224455 8:0.196883 9:11.246 10:1.220535 11:0.404929 12:11.21 13:1.256623 14:0.527723 15:11.159 16:1.221188 17:0.613933 18:11.216 19:1.225217 20:0.699749 21:11.253 22:1.103084 23:0.860162 24:11.16 25:1.272551 26:0.916954 27:11.176999 28:1.524688 29:0.920833 30:11.14 31:1.694155 32:0.881016 33:11.161 34:1.572022 35:0.695272 36:11.181 37:1.628318 38:0.614864 39:11.233 40:1.592884 41:0.528763 42:11.181 43:1.734588 44:0.374436 45:11.2345 46:1.730668 47:0.21623 48:11.164 49:1.654358 50:0.16441 51:11.1735 
0.44674309704771148 1:-2.466242 2:-0.771968 3:11.332 4:-2.550604 5:-0.551239 6:11.347751 7:-2.537363 8:-0.341283 9:11.3905 10:-2.53894 11:-0.108063 12:11.393 13:-2.541987 14:0.167414 15:11.377501 16:-2.578697 17:0.462543 18:11.3435 19:-2.579269 20:0.676939 21:11.398 22:-2.574338 23:0.961264 24:11.373 25:-2.544299 26:1.171942 27:11.363 28:-2.388184 29:1.171942 30:11.363 31:-2.358145 32:0.939968 33:11.3715 34:-2.353214 35:0.666389 36:11.399 37:-2.353786 38:0.494521 39:11.3505 40:-2.390496 41:0.156778 42:11.374 43:-2.393543 44:-0.108023 45:11.3885 46:-2.39512 47:-0.330837 48:11.396 49:-2.381879 50:-0.56107 51:11.333 
0.019581929389535645 1:2.851647 2:0.576136 3:5.21 4:2.703626 5:0.607316 6:4.27 7:2.439113 8:0.661229 9:4.018 10:2.207788 11:0.719902 12:4.0965 13:1.97933 14:0.80374 15:5.882 16:1.826144 17:1.057013 18:4.69 19:1.830424 20:1.272845 21:4.008667 22:2.018515 23:1.391665 24:4.422875 25:1.989356 26:1.402105 27:5.052666 28:2.284787 29:1.401942 30:5.215333 31:2.255627 32:1.390939 33:4.052 34:2.092588 35:1.27482 36:4.7755 37:2.096868 38:1.051474 39:4.023 40:3.723965 41:0.801282 42:5.945 43:3.495507 44:0.722023 45:4.023333 46:3.264181 47:0.660992 48:5.69 49:2.999668 50:0.606843 51:4.697 
1 1:2.438641 2:-0.644583 3:4.8705 4:2.423817 5:-0.47573 6:4.859 7:2.701203 8:-0.31473 9:4.684 10:2.422488 11:-0.193503 12:4.87 13:2.474319 14:-0.00524 15:4.728 16:2.538301 17:0.265646 18:4.6935 19:2.569819 20:0.455487 21:4.76 22:2.530485 23:0.751301 24:4.671 25:2.596497 26:0.880999 27:4.809429 28:2.897556 29:0.871093 30:4.854 31:2.963568 32:0.744355 33:4.682 34:2.924234 35:0.471372 36:4.832 37:2.893753 38:0.239078 39:4.6865 40:2.957735 41:-0.01412 42:4.750667 43:3.009566 44:-0.199627 45:4.8535 46:2.73085 47:-0.299845 48:4.656 49:2.453465 50:-0.466877 51:4.861 
0.30096762558862677 1:-3.915544 2:0.147102 3:10.672 4:-4.158293 5:0.32437 6:10.622 7:-3.975753 8:0.347545 9:10.727 10:-4.002821 11:0.429217 12:10.606999 13:-4.054921 14:0.573332 15:10.843 16:-4.019902 17:0.632891 18:10.826 19:-4.006774 20:0.694118 21:10.837999 22:-3.910737 23:0.796241 24:10.855 25:-3.885815 26:0.900416 27:10.893 28:-3.762743 29:0.913255 30:10.805 31:-3.73782 32:0.831015 33:10.869334 34:-3.641783 35:0.692005 36:10.805 37:-3.586275 38:0.612399 39:10.82 40:-3.551256 41:0.509563 42:10.775 43:-3.603356 44:0.438364 45:10.7505 46:-3.630424 47:0.367 48:10.712 49:-3.672796 50:0.317353 51:10.719 
1 1:-3.130082 2:-0.342675 3:7.4845 4:-3.354198 5:-0.216426 6:7.455 7:-3.439446 8:-0.099686 9:7.374334 10:-3.494745 11:0.088566 12:7.4285 13:-3.467606 14:0.28912 15:7.42975 16:-3.398091 17:0.466839 18:7.4628 19:-3.31148 20:0.61995 21:7.5 22:-3.245163 23:0.728619 24:7.541 25:-3.285549 26:0.94134 27:7.447 28:-3.04376 29:0.943692 30:7.484 31:-3.084146 32:0.761914 33:7.593 34:-3.017829 35:0.627266 36:7.5885 37:-2.862072 38:0.485435 39:7.729333 40:-2.792557 41:0.287124 42:7.749 43:-2.765418 44:0.088369 45:7.412 46:-2.820717 47:-0.123363 48:7.71 49:-2.905965 50:-0.221837 51:7.481333 
0.0027172768028483579 1:2.393779 2:-1.999854 3:4.56 4:2.343531 5:-1.370775 6:4.549875 7:2.285433 8:-0.667336 9:4.62 10:2.2363 11:0.05174 12:4.61 13:2.209357 14:0.792222 15:4.656 16:3.171784 17:1.098958 18:8.506001 19:2.410655 20:1.173426 21:8.828 22:2.254345 23:1.238559 24:7.442 25:2.332102 26:1.288751 27:5.999 28:2.62725 29:1.289425 30:5.7055 31:2.705008 32:1.237262 33:5.1165 34:5.488923 35:1.173557 36:8.473 37:4.727793 38:1.100316 39:7.003 40:2.578202 41:0.768234 42:4.616 43:2.551258 44:0.046421 45:4.614 46:2.502126 47:-0.671779 48:4.581833 49:2.444028 50:-1.370205 51:4.527 
0.27474515838371083 1:2.680049 2:-0.249173 3:8.583 4:2.123364 5:-0.10971 6:8.936 7:2.550905 8:-0.040684 9:8.421 10:2.14724 11:0.04077 12:9.108 13:2.567199 14:0.416163 15:8.8 16:2.428676 17:0.607673 18:8.5 19:2.37109 20:0.861548 21:8.507 22:2.419608 23:1.12237 24:8.5035 25:2.490183 26:1.214063 27:8.536 28:2.80293 29:1.213958 30:8.591499 31:2.924897 32:1.125414 33:8.5265 34:2.973415 35:0.861447 36:8.506 37:2.915829 38:0.606029 39:8.477 40:2.777306 41:0.432839 42:8.806 43:3.197265 44:0.040605 45:9.071 46:2.7936 47:-0.02565 48:8.637 49:3.236735 50:-0.120618 51:8.531 
1 1:3.361313 2:-0.402802 3:6.079 4:3.238684 5:-0.312992 6:6.093 7:3.235117 8:-0.251846 9:6.123 10:3.313882 11:-0.075002 12:6.109 13:3.277051 14:0.04378 15:6.0225 16:3.313643 17:0.143102 18:5.957 19:3.324899 20:0.207414 21:6.054 22:3.32664 23:0.226231 24:5.956 25:3.302445 26:0.289855 27:6.081399 28:3.420181 29:0.301994 30:6.144 31:3.395987 32:0.221103 33:6.121 34:3.397728 35:0.20409 36:5.957 37:3.408984 38:0.143738 39:5.9835 40:3.445575 41:0.027431 42:6.128 43:3.408745 44:-0.126048 45:6.103 46:3.48751 47:-0.253125 48:6.108 49:3.483942 50:-0.355009 51:6.036 
1 1:1.991028 2:0.005419 3:7.193 4:1.954291 5:0.018842 6:7.206 7:1.89629 8:0.045607 9:7.196 10:1.916672 11:0.096749 12:7.019 13:1.917219 14:0.109847 15:7.021 16:1.785832 17:0.137981 18:7.124 19:1.787443 20:0.15861 21:7.157 22:1.840341 23:0.229321 24:7.078 25:1.855118 26:0.242702 27:7.084 28:1.992987 29:0.242942 30:7.091 31:2.007764 32:0.220775 33:7.085667 34:2.060662 35:0.1724 36:6.909 37:2.238814 38:0.137516 39:7.1 40:2.107428 41:0.121796 42:6.957 43:2.065383 44:0.100502 45:6.977 46:2.085766 47:0.039025 48:7.219 49:2.027764 50:0.01881 51:7.1935 
0.37950721832857792 1:1.935464 2:-0.118271 3:11.355 4:1.802494 5:-0.095543 6:11.169 7:1.768232 8:-0.033077 9:11.138 10:1.891591 11:0.008547 12:11.346 13:1.733879 14:0.050511 15:11.284 16:1.805909 17:0.135772 18:11.388 19:1.823177 20:0.177873 21:11.369 22:1.826472 23:0.219561 24:11.336 25:1.765756 26:0.259064 27:11.219 28:2.152082 29:0.25523 30:11.053 31:2.087843 32:0.223011 33:10.98625 34:2.27346 35:0.189863 36:10.845 37:2.290728 38:0.109452 39:10.879 40:2.362758 41:0.050395 42:11.258 43:2.205046 44:0.018451 45:10.9575 46:2.102696 47:-0.03302 48:11.119 49:2.068434 50:-0.074678 51:11.158 
0.26919604595762775 1:5.481635 2:0.063258 3:9.981 4:5.40583 5:0.075117 6:10.334499 7:5.393584 8:0.084847 9:10.348 10:5.354887 11:0.104865 12:10.423 13:5.321094 14:0.134096 15:10.433001 16:5.326992 17:0.192223 18:10.4255 19:5.351738 20:0.220749 21:10.398001 22:5.436064 23:0.251689 24:10.0865 25:5.342982 26:0.290833 27:10.142 28:5.620287 29:0.272114 30:10.148 31:5.527205 32:0.251277 33:10.07 34:5.611531 35:0.220495 36:10.386 37:5.636277 38:0.191954 39:10.410999 40:5.642176 41:0.137839 42:10 43:5.608382 44:0.104704 45:10.407 46:5.569685 47:0.084462 48:10.301 49:5.557439 50:0.074647 51:10.26975 
0.99500324379652128 1:-3.647431 2:0.434848 3:6.941 4:-3.860963 5:0.474524 6:6.815 7:-3.974109 8:0.496565 9:6.827333 10:-4.067383 11:0.545049 12:6.694334 13:-3.941443 14:0.638853 15:6.764 16:-4.078614 17:0.719357 18:7.236 19:-3.773983 20:0.786801 21:6.773 22:-3.738343 23:0.914567 24:6.79725 25:-3.695838 26:1.026665 27:6.831 28:-3.496233 29:1.029412 30:6.877666 31:-3.453728 32:0.885776 33:6.7972 34:-3.418088 35:0.791491 36:7.28 37:-3.448094 38:0.705205 39:7.229 40:-3.585265 41:0.642264 42:6.7646 43:-3.459325 44:0.549394 45:7.128 46:-3.552599 47:0.505763 48:7.0745 49:-3.613297 50:0.474398 51:7.000333 
1 1:2.789714 2:-0.122872 3:6.879 4:2.647213 5:-0.060881 6:7.117 7:2.657672 8:0.012005 9:7.12725 10:2.742752 11:0.157872 12:7.12375 13:2.757403 14:0.341611 15:6.95 16:2.732839 17:0.510753 18:6.963 19:2.830315 20:0.655768 21:6.853 22:2.768231 23:0.872552 24:6.954 25:2.807979 26:0.980603 27:6.94 28:2.898614 29:0.982108 30:6.729 31:2.938362 32:0.873556 33:6.962 34:2.876278 35:0.652635 36:6.733 37:2.973754 38:0.509349 39:6.772 40:2.970241 41:0.351356 42:6.764 43:2.984892 44:0.160894 45:6.69775 46:2.978004 47:0.009249 48:6.734 49:2.932215 50:-0.071963 51:6.909 
0.024105338768294793 1:-3.284215 2:0.588735 3:5.65725 4:-3.330675 5:0.670683 6:5.6825 7:-3.389564 8:0.721857 9:5.753 10:-3.409725 11:0.801221 12:5.4205 13:-3.482687 14:0.856009 15:5.416 16:-3.392712 17:0.872836 18:5.905 19:-3.43019 20:0.9384 21:5.397 22:-3.42397 23:0.975333 24:6.436333 25:-3.421693 26:1.004929 27:6.079 28:-3.234681 29:1.003721 30:5.6815 31:-3.236958 32:0.984429 33:5.723 34:-3.243178 35:0.942952 36:5.7625 37:-3.220623 38:0.866806 39:5.939 40:-3.130648 41:0.854989 42:6.13175 43:-3.158704 44:0.799185 45:5.475667 46:-3.178865 47:0.726418 48:6.2035 49:-3.237755 50:0.655315 51:5.733 
0.63983798003281933 1:-4.030526 2:-0.045249 3:9.366 4:-4.141168 5:0.015823 6:9.394 7:-4.098682 8:0.051053 9:9.4425 10:-4.100312 11:0.077287 12:9.426001 13:-4.123225 14:0.127694 15:9.264 16:-4.154938 17:0.197184 18:9.288 19:-4.168843 20:0.37829 21:9.494 22:-4.123631 23:0.45967 24:9.235333 25:-4.122074 26:0.487462 27:9.219 28:-3.903119 29:0.483666 30:9.481 31:-3.937421 32:0.454663 33:9.25 34:-3.892209 35:0.403117 36:9.4545 37:-3.906114 38:0.181308 39:9.361 40:-3.937827 41:0.112512 42:9.437 43:-3.96074 44:0.092701 45:9.214 46:-3.96237 47:0.042342 48:9.459 49:-3.919884 50:0.015822 51:9.394 
0.086215943529239558 1:-4.588093 2:0.12602 3:10.57 4:-4.4491 5:0.186248 6:10.6385 7:-4.710494 8:0.243269 9:10.535 10:-4.517236 11:0.320553 12:10.497 13:-4.507239 14:0.374063 15:10.6295 16:-5.023905 17:0.472453 18:10.844 19:-4.093161 20:0.542894 21:10.642 22:-4.003722 23:0.690724 24:10.785 25:-3.943654 26:0.744408 27:10.691 28:-3.821765 29:0.739754 30:10.916 31:-3.761697 32:0.67898 33:10.919 34:-3.672258 35:0.527812 36:10.875333 37:-3.663691 38:0.473586 39:10.87 40:-4.180357 41:0.374313 42:10.636499 43:-4.170361 44:0.320507 45:10.495501 46:-3.977102 47:0.25332 48:10.545 49:-4.238497 50:0.187027 51:10.683 
1 1:-3.186442 2:-0.198601 3:6.841 4:-3.21596 5:-0.16664 6:6.836 7:-3.434119 8:-0.148785 9:6.893 10:-3.200651 11:-0.123729 12:6.927 13:-3.216253 14:-0.084775 15:6.905 16:-3.157381 17:0.030775 18:6.875 19:-3.209399 20:0.11994 21:6.851 22:-3.201922 23:0.150308 24:7.08 25:-3.21838 26:0.248592 27:6.882 28:-2.989539 29:0.249857 30:6.917 31:-2.933207 32:0.149905 33:7.061 34:-2.92573 35:0.136412 36:7.043 37:-2.977748 38:0.043332 39:6.837 40:-2.918876 41:-0.085309 42:6.9485 43:-2.926441 44:-0.124435 45:6.9665 46:-2.938766 47:-0.149346 48:6.919 49:-3.156924 50:-0.173967 51:6.874 
1 1:3.695391 2:-0.187075 3:6.444 4:3.689771 5:-0.136222 6:6.311 7:3.56673 8:-0.049176 9:6.4505 10:3.519702 11:0.016701 12:6.387 13:3.496235 14:0.052644 15:6.4205 16:3.550442 17:0.135391 18:6.378 19:3.563508 20:0.208099 21:6.423 22:3.536317 23:0.246248 24:6.483 25:3.511741 26:0.315364 27:6.416 28:3.879041 29:0.305596 30:6.462 31:3.854465 32:0.246362 33:6.486 34:3.827274 35:0.20784 36:6.415 37:3.84034 38:0.137133 39:6.458834 40:3.894547 41:0.076321 42:6.401667 43:3.87108 44:0.019713 45:6.39775 46:3.824052 47:-0.048392 48:6.3485 49:3.701011 50:-0.135942 51:6.298 
0.44042489973559718 1:1.772499 2:0.028115 3:10.752 4:1.408649 5:0.02931 6:11.209 7:1.392564 8:0.05035 9:11.248 10:1.305244 11:0.071104 12:11.219 13:1.411728 14:0.102565 15:11.2335 16:1.426783 17:0.153084 18:11.106 19:1.30604 20:0.27638 21:11.076 22:1.267088 23:0.358269 24:11.058 25:1.353523 26:0.457272 27:10.964 28:1.634614 29:0.457564 30:10.971001 31:1.721048 32:0.37243 33:10.870501 34:1.682096 35:0.334295 36:10.947 37:1.561354 38:0.151458 39:10.988 40:1.576408 41:0.090136 42:10.993 43:1.682892 44:0.071168 45:11.229 46:1.595573 47:0.069171 48:10.914 49:1.77794 50:0.048277 51:10.785 
0.29364458046645708 1:2.901062 2:-0.198347 3:5.73 4:2.056206 5:-0.073486 6:5.76675 7:1.992901 8:0.071201 9:5.972 10:1.958529 11:0.173408 12:5.6785 13:2.121303 14:0.320972 15:5.671 16:2.347225 17:0.625232 18:5.99 19:2.248749 20:0.879958 21:6.107 22:2.26695 23:1.153367 24:6.11 25:1.874424 26:1.292421 27:5.407 28:2.9202 29:1.292899 30:5.409 31:2.527674 32:1.164372 33:5.3505 34:2.545875 35:0.880691 36:5.444 37:2.447398 38:0.624759 39:5.407 40:2.472975 41:0.321206 42:5.5654 43:2.310201 44:0.173368 45:5.351 46:2.275829 47:0.072584 48:6.088 49:3.745919 50:-0.070664 51:5.755667 
0.24216595127149193 1:2.38118 2:-0.351224 3:4.536 4:2.34863 5:-0.333637 6:4.415 7:2.341727 8:-0.319824 9:4.51 10:2.323551 11:-0.303927 12:4.544333 13:2.326477 14:-0.289875 15:4.142 16:2.319345 17:-0.281416 18:4.099143 19:2.294036 20:-0.268225 21:4.165 22:2.200078 23:-0.252131 24:4.5005 25:2.187619 26:-0.239698 27:4.503 28:2.574741 29:-0.240698 30:4.369 31:2.562283 32:-0.258408 33:4.132 34:2.468324 35:-0.269951 36:4.449 37:2.443016 38:-0.280274 39:4.4818 40:2.435884 41:-0.29019 42:4.1465 43:2.438809 44:-0.308801 45:4.533 46:2.420634 47:-0.318383 48:4.4316 49:2.413731 50:-0.33183 51:4.502 
0.54072897501565698 1:-5.197374 2:-0.210496 3:9.752 4:-5.222789 5:-0.019965 6:9.7955 7:-5.231647 8:0.225858 9:9.781 10:-5.264089 11:0.433195 12:9.735001 13:-5.307582 14:0.656942 15:9.694 16:-5.329717 17:0.873308 18:9.692 19:-5.241703 20:1.045195 21:9.781 22:-5.304766 23:1.330298 24:9.7355 25:-5.368319 26:1.424925 27:9.763 28:-5.026429 29:1.425197 30:9.703 31:-5.089982 32:1.312512 33:9.738001 34:-5.153045 35:1.040493 36:9.737 37:-5.065031 38:0.880599 39:9.673 40:-5.087165 41:0.648189 42:9.698 43:-5.130659 44:0.460096 45:9.729 46:-5.1631 47:0.225281 48:9.756 49:-5.171959 50:-0.019956 51:9.789999 
1 1:3.826884 2:-0.099114 3:6.577 4:3.737923 5:-0.040192 6:6.618667 7:3.651606 8:-0.019612 9:6.604 10:3.654501 11:0.041469 12:6.543 13:3.652778 14:0.104321 15:6.668 16:3.52991 17:0.190122 18:6.63 19:3.556 20:0.25149 21:6.621 22:3.550101 23:0.294132 24:6.61 25:3.532572 26:0.375533 27:6.635 28:4.121195 29:0.378589 30:6.689 31:4.103667 32:0.300427 33:6.613 34:4.097767 35:0.265927 36:6.674 37:4.123857 38:0.17884 39:6.6695 40:4.00099 41:0.092159 42:6.686 43:3.999267 44:0.025238 45:6.545333 46:4.002162 47:-0.019778 48:6.66 49:3.915845 50:-0.056013 51:6.548 
0.88188546874812512 1:0.287383 2:-0.102493 3:11.981501 4:0.19813 5:-0.046723 6:11.9785 7:0.142331 8:0.009031 9:11.988 10:0.231233 11:0.075851 12:11.968 13:0.231287 14:0.164945 15:11.966499 16:0.320927 17:0.198619 18:11.982 19:0.230655 20:0.287641 21:11.974 22:0.230402 23:0.377084 24:11.983 25:0.25291 26:0.432526 27:11.974 28:0.410488 29:0.43296 30:11.986 31:0.432996 32:0.343826 33:11.99 34:0.432743 35:0.287859 36:11.983 37:0.342471 38:0.232112 39:11.984 40:0.432111 41:0.131521 42:11.9655 43:0.432165 44:0.075845 45:11.967 46:0.432436 47:0.042454 48:11.974501 49:0.376636 50:-0.046715 51:11.97625 
1 1:2.637019 2:-0.16111 3:7.464 4:2.588627 5:-0.082912 6:7.3075 7:2.636083 8:-0.008357 9:7.541 10:2.749501 11:0.08813 12:7.392 13:2.753186 14:0.256702 15:7.1065 16:2.737126 17:0.428046 18:7.322 19:2.741238 20:0.565194 21:7.333 22:2.757499 23:0.767653 24:7.3765 25:2.795289 26:0.911298 27:7.335333 28:2.861768 29:0.910571 30:7.257 31:2.899558 32:0.757867 33:7.2825 34:2.915819 35:0.573508 36:7.098 37:2.919932 38:0.434037 39:7.086 40:2.985045 41:0.257587 42:7.131 43:2.98873 44:0.07986 45:7.066334 46:2.976673 47:0.005357 48:7.111 49:2.685411 50:-0.076348 51:7.33 
1 1:2.379756 2:-0.277852 3:8.483 4:2.167219 5:-0.127285 6:8.624 7:2.047807 8:-0.017335 9:8.5045 10:2.207701 11:0.199649 12:8.646 13:2.55757 14:0.556448 15:8.443 16:2.519383 17:0.636698 18:8.906 19:2.5035 20:0.880515 21:8.386 22:2.192407 23:1.144708 24:8.493 25:2.317427 26:1.198844 27:8.429 28:2.695509 29:1.199129 30:8.431 31:3.270329 32:1.143764 33:8.486 34:2.959236 35:0.91986 36:8.533751 37:2.943352 38:0.633302 39:8.42 40:2.905166 41:0.556645 42:8.446 43:2.55181 44:0.203044 45:8.793 46:2.711705 47:0.02264 48:8.6585 49:2.592293 50:-0.128541 51:8.5305 
0.20940985085122027 1:-3.516566 2:0.083958 3:7.042 4:-3.589611 5:0.171577 6:6.876 7:-3.577296 8:0.24079 9:6.666 10:-3.67826 11:0.301576 12:6.377 13:-3.58186 14:0.3835 15:6.56 16:-3.554481 17:0.487357 18:6.4005 19:-3.560297 20:0.589627 21:6.347 22:-3.58301 23:0.764967 24:6.283 25:-3.500281 26:0.823734 27:6.614 28:-3.404257 29:0.824081 30:6.6466 31:-3.321528 32:0.759111 33:6.751 34:-3.344242 35:0.600197 36:6.661 37:-3.350058 38:0.483367 39:6.942 40:-3.48886 41:0.372392 42:6.37 43:-3.392461 44:0.309269 45:7.0985 46:-3.455836 47:0.233824 48:7.217 49:-3.443521 50:0.175345 51:7.027 
0.42522178361166496 1:2.574525 2:-0.170996 3:4.57125 4:2.357992 5:-0.070302 6:4.570333 7:2.406483 8:0.06685 9:5.2015 10:1.963303 11:0.227474 12:5.111666 13:2.538876 14:0.621746 15:5.2265 16:2.301513 17:0.728146 18:4.5694 19:2.3754 20:0.939204 21:4.54925 22:2.308005 23:1.153625 24:5.37 25:2.308766 26:1.281472 27:4.577 28:3.073391 29:1.282382 30:4.55 31:3.074152 32:1.15777 33:5.343 34:3.006757 35:0.930873 36:5.297 37:3.080644 38:0.73245 39:5.324 40:2.843281 41:0.625525 42:4.641 43:2.16765 44:0.225666 45:4.7255 46:2.742567 47:0.068368 48:4.96 49:2.791057 50:-0.069094 51:4.585 
1 1:-3.248383 2:0.077598 3:5.2735 4:-3.299772 5:0.130062 6:5.261625 7:-3.353166 8:0.164806 9:5.237375 10:-3.332187 11:0.239687 12:5.276 13:-3.341008 14:0.305514 15:5.226 16:-3.350799 17:0.382934 18:5.2875 19:-3.339761 20:0.433676 21:5.2702 22:-3.326306 23:0.533163 24:5.2645 25:-3.340926 26:0.549508 27:5.2335 28:-3.15584 29:0.550866 30:5.322 31:-3.170459 32:0.526697 33:5.283857 34:-3.157005 35:0.441485 36:5.2815 37:-3.145967 38:0.367295 39:5.275 40:-3.155758 41:0.30604 42:5.235 43:-3.164578 44:0.259192 45:5.273222 46:-3.1436 47:0.170018 48:5.247667 49:-3.196993 50:0.112572 51:5.3025 
0.71171107382106757 1:2.633174 2:-0.58704 3:4.285 4:2.431547 5:-0.524684 6:4.3975 7:2.420863 8:-0.401489 9:4.393 10:2.437657 11:-0.260873 12:4.417875 13:2.478719 14:-0.191143 15:4.271445 16:2.44387 17:-0.132108 18:4.424778 19:2.447844 20:0.019941 21:4.452 22:2.502033 23:0.117206 24:4.371 25:2.607119 26:0.155614 27:4.308 28:2.65923 29:0.235808 30:4.308 31:2.764315 32:0.115034 33:4.29 34:2.818505 35:0.028248 36:4.457 37:2.822479 38:-0.105527 39:4.4304 40:2.78763 41:-0.193364 42:4.223333 43:2.828692 44:-0.283285 45:4.427222 46:2.845486 47:-0.387444 48:4.283 49:2.834802 50:-0.488607 51:4.4795 
0.12341336905179016 1:-4.003828 2:0.023228 3:6.5495 4:-4.035671 5:0.083082 6:6.4635 7:-3.686756 8:0.103604 9:6.622 10:-3.835802 11:0.128161 12:6.617 13:-3.941019 14:0.186576 15:6.506334 16:-3.841739 17:0.224201 18:6.544 19:-3.732734 20:0.322785 21:6.445 22:-3.559008 23:0.347024 24:6.563 25:-3.792007 26:0.40139 27:6.553 28:-3.033636 29:0.401393 30:6.586333 31:-3.266636 32:0.342053 33:6.469 34:-3.387158 35:0.32372 36:6.586 37:-3.496163 38:0.225406 39:6.579166 40:-3.368807 41:0.188 42:6.556 43:-3.474024 44:0.128045 45:6.611 46:-3.62307 47:0.102415 48:6.546 49:-3.971985 50:0.08338 51:6.487 
1 1:3.709102 2:-0.184548 3:11.534 4:3.525711 5:-0.098652 6:11.5325 7:3.49769 8:0.008592 9:11.406 10:3.48941 11:0.135665 12:11.379 13:3.441885 14:0.2014 15:11.504 16:3.401549 17:0.285612 18:11.446 19:3.651263 20:0.322118 21:11.233 22:3.53616 23:0.362578 24:11.191 25:3.478787 26:0.464654 27:11.141 28:3.872236 29:0.464904 30:11.147 31:3.814863 32:0.342326 33:11.21 34:3.69976 35:0.322434 36:11.244 37:3.949473 38:0.285737 39:11.451 40:3.909137 41:0.223241 42:11.526 43:3.861613 44:0.135486 45:11.364 46:3.853333 47:0.008626 48:11.451 49:3.904399 50:-0.108838 51:11.4755 
0.099088277703464497 1:-3.658519 2:0.468479 3:6.913 4:-3.860377 5:0.50221 6:6.905 7:-3.848756 8:0.532746 9:6.749 10:-3.513826 11:0.593003 12:7.174 13:-3.665848 14:0.653515 15:7.3285 16:-3.728657 17:0.774092 18:7.244 19:-3.683393 20:0.943516 21:6.6775 22:-3.75499 23:1.119642 24:7.126 25:-3.281927 26:1.159411 27:6.814 28:-3.01759 29:1.157988 30:6.997 31:-2.804591 32:1.107929 33:7.136 34:-2.876187 35:0.940385 36:7.3315 37:-2.830923 38:0.783119 39:7.203 40:-2.893733 41:0.653685 42:7.305 43:-3.045754 44:0.599511 45:7.093 46:-3.380685 47:0.531377 48:6.9785 49:-3.456662 50:0.503182 51:6.948 
0.24017658935730204 1:4.095279 2:-0.551496 3:10.3605 4:3.97605 5:-0.49085 6:10.302 7:3.850295 8:-0.397858 9:10.377501 10:3.968095 11:-0.261937 12:10.35 13:4.049204 14:-0.186049 15:10.416 16:3.254208 17:-0.047878 18:9.91 19:3.288679 20:-0.010967 21:9.896 22:4.519713 23:0.08333 24:10.163 25:4.558983 26:0.177976 27:10.166 28:4.68051 29:0.178816 30:10.214 31:4.71978 32:0.082354 33:10.044 34:4.901879 35:-0.010993 36:9.9195 37:4.93635 38:-0.047989 39:9.933 40:4.141353 41:-0.185996 42:10.413 43:4.222462 44:-0.261102 45:10.317 46:4.340262 47:-0.400513 48:9.963 49:4.214507 50:-0.49085 51:10.302 
1 1:2.289198 2:-0.125704 3:4.33 4:2.096633 5:-0.064593 6:4.037 7:2.088953 8:-0.038086 9:4.015 10:2.267467 11:0.052524 12:4.4055 13:2.34082 14:0.080051 15:4.45375 16:2.17362 17:0.156896 18:4.3435 19:2.231116 20:0.229951 21:4.201 22:2.089735 23:0.264713 24:4.0165 25:2.092876 26:0.331694 27:4.41 28:2.632226 29:0.330866 30:4.399 31:2.635367 32:0.262087 33:4.005 34:2.493986 35:0.217058 36:4.034 37:2.551482 38:0.172123 39:4.127 40:2.384282 41:0.075182 42:4.009834 43:2.310929 44:0.05253 45:4.406 46:2.489443 47:-0.026851 48:4.012 49:2.481763 50:-0.064445 51:4.02775 
0.10792259022599976 1:1.960678 2:0.289436 3:10.794 4:1.521858 5:0.34425 6:11.273 7:1.886001 8:0.354608 9:10.945 10:1.420148 11:0.376641 12:11.3005 13:1.422317 14:0.430567 15:10.806 16:1.346272 17:0.496198 18:11.389 19:1.524288 20:0.59702 21:11.291 22:1.347254 23:0.718116 24:10.896 25:1.441873 26:0.847436 27:11.267 28:1.923021 29:0.848564 30:11.282 31:2.017641 32:0.717325 33:10.884 34:1.840607 35:0.556974 36:10.918 37:1.925609 38:0.498857 39:10.7605 40:1.849565 41:0.430009 42:10.792 43:1.851733 44:0.376318 45:10.984 46:2.035355 47:0.35328 48:10.904 49:2.399498 50:0.341196 51:11.173 
1 1:2.178614 2:-0.361187 3:4.450666 4:2.153252 5:-0.339429 6:4.437 7:2.085528 8:-0.311675 9:4.338167 10:2.083787 11:-0.289402 12:4.063334 13:2.007835 14:-0.269101 15:4.435 16:1.899607 17:-0.246772 18:4.067 19:1.948262 20:-0.229587 21:4.208 22:1.920067 23:-0.195635 24:4.106 25:2.01825 26:-0.161805 27:4.025 28:2.338978 29:-0.161082 30:4.007 31:2.437161 32:-0.20058 33:4.129 34:2.408967 35:-0.227385 36:4.208571 37:2.457622 38:-0.24714 39:4.0115 40:2.349393 41:-0.265885 42:4.382 43:2.273441 44:-0.285816 45:4.084 46:2.2717 47:-0.314092 48:4.448667 49:2.203976 50:-0.339806 51:4.46 
0.37436067473480444 1:4.424093 2:-0.692917 3:9.6445 4:4.19111 5:-0.524356 6:9.737 7:4.124502 8:-0.410773 9:9.766 10:3.273373 11:-0.256751 12:9.45 13:4.123874 14:-0.137755 15:9.743 16:4.02911 17:0.061338 18:9.678 19:4.307169 20:0.365573 21:9.6245 22:4.602412 23:0.697655 24:9.511 25:4.611446 26:0.857473 27:9.717 28:5.026331 29:0.856878 30:9.608999 31:4.764446 32:0.698895 33:9.776 34:4.73562 35:0.363313 36:9.565 37:4.492224 38:0.061319 39:9.675 40:4.39746 41:-0.135266 42:9.567 43:5.574812 44:-0.2558 45:9.415 46:4.723683 47:-0.423638 48:9.645 49:4.657076 50:-0.528169 51:9.587 
0.26510830959298032 1:-5.077137 2:0.246336 3:9.872 4:-5.186038 5:0.322177 6:9.944 7:-5.160967 8:0.406515 9:9.747 10:-5.158466 11:0.553284 12:9.938999 13:-5.225368 14:0.650226 15:9.7285 16:-5.247588 17:0.71614 18:9.763 19:-5.263388 20:0.787301 21:9.744 22:-5.246056 23:0.956304 24:9.803 25:-5.270587 26:1.12536 27:9.926001 28:-4.878685 29:1.158642 30:9.910399 31:-4.903216 32:0.974304 33:9.8005 34:-4.885884 35:0.836341 36:9.895 37:-4.901684 38:0.70969 39:9.927 40:-4.923904 41:0.638655 42:9.972 43:-4.990806 44:0.526434 45:9.727666 46:-4.993307 47:0.477224 48:9.709 49:-4.968236 50:0.322338 51:9.949 
1 1:2.781086 2:-0.135678 3:6.026 4:2.692783 5:0.090736 6:5.7995 7:2.739875 8:0.250081 9:5.74 10:2.706332 11:0.413451 12:5.8595 13:2.695159 14:0.617221 15:5.913334 16:2.703076 17:0.752176 18:5.907 19:2.708833 20:0.888964 21:5.9765 22:2.677919 23:1.016424 24:5.909 25:2.686585 26:1.113061 27:5.8965 28:2.875587 29:1.102178 30:5.897 31:2.884254 32:1.007703 33:5.922333 34:2.85334 35:0.877074 36:5.8965 37:2.859097 38:0.73864 39:5.916 40:2.867014 41:0.586746 42:5.902 43:2.855841 44:0.431239 45:5.879 46:2.822298 47:0.2591 48:5.947 49:2.86939 50:0.076631 51:5.9625 
0.055154237324716915 1:2.366093 2:0.269642 3:10.806 4:2.333565 5:0.290777 6:10.844 7:1.884006 8:0.313532 9:11.3005 10:1.840383 11:0.408505 12:11.309 13:1.236976 14:0.504124 15:10.66 16:1.091797 17:0.678043 18:10.587 19:1.777286 20:0.765438 21:11.295 22:2.323143 23:0.936668 24:11.082 25:2.630187 26:0.975308 27:10.824 28:2.829316 29:0.972833 30:10.578 31:3.136361 32:0.94251 33:10.46 34:2.055781 35:0.769593 36:11.202499 37:2.741271 38:0.675225 39:10.543 40:2.596092 41:0.524656 42:10.674 43:1.992685 44:0.408866 45:11.319 46:1.949062 47:0.314979 48:11.3525 49:2.398622 50:0.291259 51:10.862 
0.021407745518148929 1:2.055203 2:0.667446 3:6.246 4:2.012539 5:0.686485 6:7.174 7:1.902029 8:0.702583 9:4.876 10:2.072324 11:0.72122 12:4.104 13:1.929234 14:0.886102 15:4.007909 16:2.009362 17:1.148453 18:7.673 19:2.040631 20:1.294379 21:6.995 22:2.056267 23:1.39616 24:6.110666 25:2.043285 26:1.416705 27:5.307 28:2.382901 29:1.417112 30:5.333333 31:2.369919 32:1.396357 33:5.918667 34:2.385555 35:1.297414 36:6.806 37:2.416824 38:1.149181 39:7.314 40:2.496952 41:0.875375 42:4.0225 43:2.353861 44:0.722742 45:4.1836 46:2.524157 47:0.702397 48:5.004 49:2.413647 50:0.686734 51:5.5555 
0.19843581415707054 1:-3.243115 2:0.146551 3:8.371 4:-3.320451 5:0.193253 6:8.369 7:-3.323806 8:0.28868 9:8.426 10:-3.327458 11:0.371459 12:8.3475 13:-3.395 14:0.412834 15:8.399 16:-3.392979 17:0.428214 18:8.394 19:-3.368209 20:0.488261 21:8.351999 22:-3.390958 23:0.521656 24:8.389 25:-3.413107 26:0.538297 27:8.405 28:-3.099621 29:0.558926 30:8.3625 31:-3.12177 32:0.521034 33:8.379 34:-3.144518 35:0.502963 36:8.338 37:-3.119749 38:0.415832 39:8.46 40:-3.13646 41:0.408077 42:8.4625 43:-3.158771 44:0.347834 45:8.34 46:-3.162423 47:0.281552 48:8.4475 49:-3.165778 50:0.193345 51:8.373 
0.021742394687599111 1:1.713825 2:0.134186 3:9.735 4:1.499831 5:0.224357 6:9.716 7:1.580136 8:0.285112 9:9.731999 10:1.566166 11:0.465066 12:9.644 13:1.5632 14:0.612322 15:9.702 16:1.575978 17:0.785766 18:9.725 19:1.815312 20:0.936846 21:9.727333 22:1.874701 23:0.966699 24:9.724 25:1.583584 26:1.002076 27:9.716 28:2.229993 29:1.000839 30:9.704 31:1.938875 32:0.966798 33:9.725 34:1.998264 35:0.946744 36:9.705 37:1.851672 38:0.762858 39:9.740666 40:1.86445 41:0.586087 42:9.716 43:1.861484 44:0.474471 45:9.653 46:1.847514 47:0.277928 48:9.692 49:1.927819 50:0.224334 51:9.715 
0.39372995401332866 1:-3.529499 2:0.011348 3:6.7405 4:-3.554254 5:0.218455 6:6.55425 7:-3.732226 8:0.3114 9:6.998 10:-3.723666 11:0.334411 12:6.8035 13:-3.638033 14:0.37284 15:6.310667 16:-3.51219 17:0.465466 18:6.345666 19:-3.499511 20:0.694375 21:6.498 22:-3.509252 23:0.818495 24:6.588334 25:-3.496669 26:0.910369 27:6.708 28:-3.305477 29:0.908242 30:6.93 31:-3.292893 32:0.825614 33:7.032 34:-3.302634 35:0.695924 36:6.5125 37:-3.289956 38:0.465414 39:7.267 40:-3.420965 41:0.373056 42:6.7015 43:-3.335332 44:0.331955 45:7.307 46:-3.326772 47:0.312427 48:7.171 49:-3.504744 50:0.223551 51:6.525 
0.040086054969949235 1:-3.412563 2:0.943251 3:8.252 4:-3.58117 5:0.969162 6:8.168333 7:-3.647171 8:1.001005 9:8.049399 10:-3.581381 11:1.037007 12:8.026501 13:-3.605543 14:1.088449 15:8.305 16:-4.239254 17:1.223699 18:7.608 19:-3.53295 20:1.330863 21:7.737 22:-3.624379 23:1.475622 24:8.0555 25:-3.441772 26:1.553625 27:8.396 28:-3.401871 29:1.557326 30:8.416 31:-3.219265 32:1.508686 33:8.236 34:-3.310694 35:1.334394 36:8.3445 37:-2.60439 38:1.222975 39:7.6035 40:-3.238101 41:1.074668 42:8.318 43:-3.262262 44:1.033784 45:8.3005 46:-3.250668 47:0.991613 48:8.271 49:-3.243955 50:0.969758 51:8.152 
1 1:2.648917 2:0.005285 3:7.016 4:2.466655 5:0.176093 6:7.057 7:2.4474 8:0.2893 9:7.095 10:2.427359 11:0.430698 12:7.14 13:2.417666 14:0.565347 15:7.162 16:2.43384 17:0.709416 18:7.136 19:2.451421 20:0.84827 21:7.13075 22:2.456357 23:0.976822 24:7.10025 25:2.403673 26:1.099554 27:7.168 28:2.894161 29:1.097243 30:7.153 31:2.841477 32:0.962077 33:7.138 34:2.846413 35:0.838064 36:7.1005 37:2.863994 38:0.705237 39:7.161 40:2.880167 41:0.552477 42:7.168 43:2.870475 44:0.405278 45:7.1605 46:2.850434 47:0.282661 48:7.094 49:2.831179 50:0.176231 51:7.0625 
0.79807715791570399 1:2.727043 2:-0.10546 3:10.125 4:2.659506 5:-0.07692 6:10.0895 7:2.59007 8:-0.020545 9:10.074 10:2.66742 11:0.007651 12:10.157 13:2.58416 14:0.099895 15:9.929 16:2.69558 17:0.195195 18:10.078 19:2.627223 20:0.317392 21:10.086 22:2.675908 23:0.366495 24:10.146 25:2.65906 26:0.438514 27:10.065 28:2.795025 29:0.45566 30:10.03 31:2.778178 32:0.373622 33:10.0835 34:2.826863 35:0.312934 36:9.9445 37:2.758505 38:0.223757 39:10.097 40:2.869926 41:0.10918 42:9.933 43:2.786665 44:0.007533 45:10 46:2.864016 47:-0.020413 48:10.009501 49:2.79458 50:-0.048776 51:10.096 
1 1:2.76931 2:-0.220255 3:5.745 4:2.719181 5:0.035207 6:5.555 7:2.72671 8:0.201893 9:5.4214 10:2.675005 11:0.345822 12:5.561333 13:2.663992 14:0.518793 15:5.55675 16:2.688811 17:0.664312 18:5.541 19:2.691403 20:0.835035 21:5.579 22:2.67083 23:1.003122 24:5.58975 25:2.686049 26:1.173226 27:5.607 28:2.852571 29:1.159885 30:5.593 31:2.86779 32:0.980957 33:5.582 34:2.847217 35:0.849057 36:5.603 37:2.849809 38:0.654706 39:5.547 40:2.874628 41:0.496262 42:5.565 43:2.863615 44:0.351394 45:5.540333 46:2.81191 47:0.202862 48:5.616 49:2.819439 50:0.045343 51:5.53 
1 1:0.139355 2:-0.721014 3:4.183 4:0.095276 5:-0.700841 6:4.133 7:-0.017821 8:-0.679434 9:4.0738 10:-0.09562 11:-0.675972 12:4.053 13:-0.134312 14:-0.665349 15:4.004222 16:0.112844 17:-0.636313 18:4.16375 19:0.098021 20:-0.593822 21:4.1866 22:0.098391 23:-0.573632 24:4.131 25:0.109664 26:-0.557107 27:4.117364 28:0.169046 29:-0.560205 30:4.1455 31:0.180319 32:-0.574604 33:4.138 34:0.180689 35:-0.587364 36:4.1465 37:0.165866 38:-0.615478 39:4.162667 40:0.413022 41:-0.669467 42:4.059333 43:0.37433 44:-0.675597 45:4.123583 46:0.296531 47:-0.687396 48:4.076 49:0.183434 50:-0.700987 51:4.203 
0.040824925846407206 1:3.643566 2:0.180549 3:10.313 4:3.382255 5:0.204899 6:10.579 7:3.434212 8:0.243073 9:10.526501 10:2.813879 11:0.280098 12:11.225 13:2.780948 14:0.431 15:11.347 16:3.163631 17:0.539943 18:10.985 19:3.239945 20:0.616757 21:10.897 22:3.014274 23:0.807134 24:10.472 25:3.182379 26:1.116145 27:10.822 28:3.637669 29:1.098761 30:10.7505 31:3.805774 32:0.828444 33:10.495 34:3.580103 35:0.632482 36:10.819 37:3.459556 38:0.548811 39:10.758 40:3.158612 41:0.439204 42:10.301001 43:3.125681 44:0.292922 45:10.924 46:3.852921 47:0.23924 48:10.3605 49:3.904877 50:0.204841 51:10.576 
0.15604142170843627 1:3.26133 2:-0.527907 3:5.835833 4:3.192861 5:-0.224117 6:5.1458 7:2.916371 8:-0.06347 9:5.169667 10:2.867224 11:0.104228 12:5.65275 13:2.936324 14:0.234517 15:4.959 16:2.923607 17:0.332271 18:6.284 19:3.025713 20:0.485813 21:6.623 22:2.936087 23:0.623843 24:5.738 25:3.033941 26:0.711889 27:5.759 28:3.09467 29:0.701718 30:5.853 31:3.192524 32:0.623543 33:4.945 34:3.102898 35:0.485813 36:6.623 37:3.205004 38:0.323169 39:5.904 40:3.192287 41:0.236022 42:6.534 43:3.261387 44:0.105534 45:4.971 46:3.21224 47:-0.074049 48:4.914 49:3.329799 50:-0.22603 51:5.054286 
0.48584820175924137 1:-3.586481 2:0.288749 3:6.923334 4:-3.974327 5:0.323756 6:6.846 7:-3.855655 8:0.350034 9:6.8615 10:-4.087548 11:0.398214 12:7.275 13:-4.080839 14:0.536772 15:6.8 16:-3.605689 17:0.667647 18:6.844 19:-3.459329 20:0.785967 21:6.876 22:-3.429319 23:0.883117 24:6.901667 25:-3.368365 26:0.973085 27:6.88675 28:-2.988417 29:0.974189 30:7.15375 31:-3.235035 32:0.892026 33:7.271 34:-3.205025 35:0.78045 36:7.3035 37:-3.567272 38:0.654237 39:6.837 40:-3.092123 41:0.555408 42:6.77 43:-3.085413 44:0.394163 45:7.201 46:-3.317307 47:0.351199 48:7.056 49:-3.198635 50:0.325269 51:6.878 
0.00019248196170963252 1:2.592789 2:-1.996588 3:7.005833 4:2.483144 5:-1.149583 6:7.023333 7:2.443856 8:-0.255778 9:7.012 10:2.411803 11:0.555566 12:7.038166 13:3.238304 14:1.095187 15:7.0965 16:3.16104 17:1.139721 18:8.456 19:2.648993 20:1.185951 21:8.799 22:3.173808 23:1.229657 24:8.319 25:2.576657 26:1.288071 27:6.383 28:3.862138 29:1.288141 30:6.325 31:3.264987 32:1.229711 33:5.675 34:3.972161 35:1.186075 36:9.3145 37:3.460113 38:1.139378 39:6.9235 40:3.600275 41:1.095003 42:7.801 43:2.773775 44:0.553271 45:7.009 46:2.741722 47:-0.282164 48:7.019 49:2.702434 50:-1.144519 51:7.019 
0.4020557133910353 1:3.05747 2:-0.673064 3:5.349 4:2.726613 5:-0.635857 6:5.288 7:2.400286 8:-0.491829 9:5.222 10:2.645022 11:-0.316067 12:5.4082 13:2.464505 14:-0.036281 15:5.421 16:2.726321 17:0.151524 18:5.284 19:2.527856 20:0.468212 21:5.351 22:2.509493 23:0.750611 24:5.2775 25:2.541817 26:0.914647 27:5.356 28:2.850702 29:0.915074 30:5.378 31:2.883026 32:0.750007 33:5.415 34:3.304451 35:0.46739 36:5.353 37:3.105987 38:0.13906 39:5.3725 40:3.367802 41:-0.036348 42:5.431 43:3.187285 44:-0.316572 45:5.469 46:3.432022 47:-0.490981 48:5.213 49:3.105695 50:-0.635828 51:5.329 
0.81109822169083312 1:1.575859 2:0.100987 3:11.061501 4:1.369943 5:0.160405 6:10.901 7:1.371011 8:0.221457 9:10.9095 10:1.370948 11:0.343294 12:10.909 13:1.478009 14:0.435288 15:10.9245 16:1.370068 17:0.556157 18:10.902 19:1.376547 20:0.74504 21:10.994 22:1.277088 23:0.887168 24:10.98 25:1.684325 26:0.916286 27:10.9615 28:1.944239 29:0.923651 30:10.928 31:1.809756 32:0.887006 33:10.978 34:1.710298 35:0.745244 36:10.997 37:1.716776 38:0.536453 39:10.914 40:1.608836 41:0.415351 42:10.934999 43:1.715896 44:0.347185 45:11.033 46:1.729634 47:0.221764 48:10.92475 49:1.781776 50:0.160908 51:10.934999 
1 1:-1.428461 2:-0.390765 3:7.607 4:-1.666338 5:-0.368015 6:7.4335 7:-1.567568 8:-0.326568 9:7.435 10:-1.733858 11:-0.261555 12:7.556 13:-1.697563 14:-0.242985 15:7.4185 16:-1.739483 17:-0.120131 18:7.508 19:-1.706089 20:-0.050309 21:7.517 22:-1.850372 23:0.005569 24:7.393 25:-1.82047 26:0.069922 27:7.406666 28:-1.646526 29:0.060987 30:7.438 31:-1.616624 32:0.005548 33:7.365 34:-1.415012 35:-0.036771 36:7.611 37:-1.352677 38:-0.135393 39:7.58 40:-1.394597 41:-0.242543 42:7.405 43:-1.358302 44:-0.255072 45:7.572 46:-1.524592 47:-0.320394 48:7.4525 49:-1.425822 50:-0.368584 51:7.445 
1 1:2.671632 2:-0.085192 3:6.939 4:2.393543 5:-0.013844 6:6.793 7:2.653787 8:0.044335 9:6.994334 10:2.681065 11:0.169743 12:7.06625 13:2.626766 14:0.311193 15:6.85 16:2.749486 17:0.491919 18:6.821667 19:2.772877 20:0.674932 21:6.85325 22:2.810068 23:0.899254 24:6.581 25:2.816428 26:0.979851 27:6.829667 28:2.891005 29:1.011042 30:6.84 31:2.897365 32:0.891463 33:6.834333 34:2.934555 35:0.673238 36:6.70925 37:2.957947 38:0.490636 39:6.632666 40:2.984579 41:0.31763 42:6.58675 43:2.93028 44:0.168483 45:6.752 46:2.957558 47:0.024796 48:6.6448 49:2.949722 50:-0.013877 51:6.804 
0.43051053361205138 1:2.520492 2:-0.200389 3:5.789 4:2.137082 5:-0.064713 6:6.213 7:2.489754 8:0.099685 9:5.694 10:2.508376 11:0.249949 12:6.273 13:2.408735 14:0.606872 15:6.221 16:2.388712 17:0.729009 18:5.81 19:2.313974 20:0.97534 21:6.436333 22:1.939612 23:1.228943 24:5.926 25:2.445806 26:1.298125 27:5.901999 28:2.719231 29:1.298191 30:5.94 31:3.073067 32:1.224909 33:5.854 34:2.698705 35:0.966 36:6.454 37:2.623966 38:0.721779 39:5.839 40:2.712708 41:0.605 42:5.866 43:2.613066 44:0.245377 45:5.755 46:2.841067 47:0.09478 48:6.058 49:2.903903 50:-0.064578 51:6.2 
0.0069514584699124516 1:-2.974991 2:0.620557 3:11.337 4:-3.460269 5:0.699874 6:11.255 7:-3.586146 8:0.712932 9:11.465 10:-3.17011 11:0.748301 12:11.354 13:-3.140694 14:0.960386 15:11.6185 16:-3.329481 17:1.09189 18:11.637 19:-4.033668 20:1.231007 21:11.132 22:-3.85826 23:1.294346 24:11.511 25:-4.402545 26:1.330303 27:11.271 28:-1.937578 29:1.330185 30:11.27 31:-2.481863 32:1.293559 33:11.504 34:-2.306455 35:1.24589 36:11.172501 37:-3.010642 38:1.082453 39:11.312 40:-2.561751 41:0.946219 42:11.195 43:-2.532335 44:0.747939 45:11.348499 46:-3.391848 47:0.712559 48:11.459 49:-2.489712 50:0.699376 51:11.247 
1 1:-2.981537 2:0.330518 3:6.989 4:-3.143855 5:0.35068 6:7.002 7:-3.249167 8:0.384913 9:7.032 10:-3.229194 11:0.434242 12:6.914333 13:-3.150198 14:0.46609 15:7.072 16:-3.219047 17:0.506939 18:6.911 19:-3.204608 20:0.517472 21:6.88 22:-3.181505 23:0.563166 24:6.97 25:-3.139625 26:0.620315 27:7.0295 28:-2.94108 29:0.600794 30:6.955 31:-2.899199 32:0.571759 33:6.917 34:-2.920744 35:0.522295 36:7.031 37:-2.950137 38:0.49228 39:7.07 40:-2.956429 41:0.472044 42:7.095666 43:-2.877433 44:0.436092 45:7.013 46:-2.85746 47:0.40296 48:7.0045 49:-2.81922 50:0.352436 51:6.993666 
0.50315863978517694 1:1.778884 2:0.008616 3:11.438 4:1.589878 5:0.134819 6:11.308 7:1.55165 8:0.156268 9:11.337 10:1.516934 11:0.199474 12:11.394 13:1.64645 14:0.223841 15:11.557 16:1.605544 17:0.310325 18:11.573 19:1.317821 20:0.374598 21:11.562 22:1.310962 23:0.418439 24:11.584 25:1.496725 26:0.517989 27:11.402 28:1.967202 29:0.517944 30:11.401 31:2.152966 32:0.419522 33:11.614 34:2.146106 35:0.375084 36:11.577 37:1.858384 38:0.328111 39:11.442 40:1.89929 41:0.225701 42:11.653 43:1.706401 44:0.180314 45:11.525 46:1.973882 47:0.157895 48:11.455 49:1.967889 50:0.11404 51:11.335 
0.0078299615196083232 1:3.888581 2:-0.57143 3:11.124 4:3.421026 5:-0.469239 6:11.156 7:4.638038 8:-0.267302 9:10.562 10:4.673168 11:-0.110845 12:10.642 13:4.76155 14:0.050945 15:11.381 16:4.361939 17:0.20364 18:10.514 19:3.790699 20:0.406127 21:10.961 22:3.378876 23:0.586181 24:11.086 25:3.829087 26:0.729715 27:11.072 28:4.327798 29:0.72654 30:10.721 31:3.729687 32:0.60003 33:10.962 34:4.289809 35:0.401791 36:10.578 37:4.849294 38:0.204337 39:10.55 40:4.776214 41:0.06559 42:10.349 43:4.893924 44:-0.109564 45:10.519 46:4.892501 47:-0.269378 48:10.644 49:4.356135 50:-0.469757 51:10.695 
0.1758384104492216 1:2.836687 2:-0.222367 3:5.5315 4:2.326555 5:-0.115816 6:5.872 7:1.997252 8:0.054914 9:5.817 10:2.161126 11:0.202415 12:5.329 13:1.679446 14:0.599077 15:5.241 16:2.907206 17:0.689272 18:5.413 19:3.011491 20:0.881728 21:5.2105 22:2.963865 23:1.161879 24:6.007 25:2.338246 26:1.297606 27:5.5365 28:3.686233 29:1.29706 30:5.469 31:3.060614 32:1.155279 33:5.3545 34:3.012987 35:0.879426 36:5.3198 37:3.120265 38:0.691726 39:5.354 40:3.04464 41:0.593361 42:5.191 43:2.56296 44:0.203418 45:5.269333 46:2.237597 47:0.059923 48:5.956 49:3.346819 50:-0.116664 51:5.915 
1 1:2.389866 2:-0.759583 3:5.1265 4:2.70409 5:-0.643148 6:5.188 7:2.590354 8:-0.50712 9:5.28 10:2.388121 11:-0.282376 12:5.328 13:2.391068 14:-0.103001 15:5.3485 16:1.953011 17:0.156889 18:5.355333 19:2.565829 20:0.433673 21:5.2942 22:2.570378 23:0.766411 24:5.185 25:2.827155 26:0.921528 27:5.3285 28:2.885417 29:0.920153 30:5.236 31:2.628639 32:0.764014 33:5.2015 34:2.633188 35:0.447795 36:5.298 37:3.111288 38:0.164078 39:5.373 40:2.673231 41:-0.104139 42:5.28 43:3.209413 44:-0.260035 45:5.1555 46:3.00718 47:-0.519794 48:5.21 49:2.893444 50:-0.643019 51:5.2065 
1 1:1.963539 2:-0.171795 3:4.481 4:1.959347 5:-0.135643 6:4.481 7:1.984961 8:-0.109439 9:4.547166 10:1.954927 11:-0.067521 12:4.575 13:2.108789 14:-0.040378 15:4.722 16:2.123989 17:-0.005138 18:4.636 19:2.145916 20:0.012126 21:4.635 22:2.240307 23:0.030276 24:4.777 25:2.181436 26:0.0424 27:4.644 28:2.350739 29:0.043025 30:4.7125 31:2.291868 32:0.021571 33:4.819 34:2.386258 35:0.01218 36:4.656 37:2.408185 38:0.003512 39:4.662 40:2.423385 41:-0.040639 42:4.7515 43:2.376982 44:-0.058722 45:4.783 46:2.139581 47:-0.09575 48:4.636 49:2.165195 50:-0.131835 51:4.6915 
0.090233294170490572 1:2.493798 2:-1.126687 3:11.293 4:1.981209 5:-1.028288 6:11.138 7:1.636215 8:-0.970771 9:11.192 10:1.744964 11:-0.747626 12:11.283 13:1.798283 14:-0.464963 15:11.304501 16:1.389964 17:-0.200535 18:11.227 19:1.930899 20:0.133543 21:11.201 22:1.926287 23:0.472912 24:11.339 25:1.788889 26:0.57641 27:11.299 28:2.515255 29:0.576461 30:11.3 31:2.377857 32:0.451964 33:11.343 34:2.373245 35:0.103356 36:11.321 37:2.91418 38:-0.179652 39:11.228 40:2.505862 41:-0.471585 42:11.379666 43:2.55918 44:-0.765754 45:11.3965 46:2.66793 47:-0.969904 48:11.182 49:2.322935 50:-1.029898 51:11.385 
0.087819730052523803 1:3.693067 2:-1.149651 3:6.817 4:3.561731 5:-0.633148 6:6.858 7:3.478232 8:-0.00767 9:6.921 10:3.456565 11:0.58211 12:6.938 13:3.220885 14:1.007351 15:7.273 16:2.357264 17:1.098941 18:7.164 19:3.142445 20:1.124793 21:6.469 22:2.218789 23:1.171829 24:7.733 25:2.322277 26:1.191008 27:6.535 28:3.125061 29:1.191438 30:5.4055 31:3.228549 32:1.17234 33:5.8095 34:4.324411 35:1.124959 36:6.7975 37:2.745661 38:1.099248 39:7.166 40:3.998251 41:0.997911 42:7.303 43:3.762572 44:0.600967 45:6.957 46:3.740904 47:0.005301 48:7.037 49:3.824404 50:-0.63998 51:6.932 
0.25427182840982632 1:2.774489 2:-0.217093 3:6.628 4:2.239537 5:-0.123676 6:6.924 7:2.150582 8:0.01845 9:7.056 10:2.106191 11:0.16924 12:6.3115 13:2.095978 14:0.475844 15:6.656 16:1.702801 17:0.638832 18:6.426 19:1.701222 20:0.923371 21:6.2865 22:2.264601 23:1.153231 24:6.393 25:2.271716 26:1.258994 27:6.297 28:2.61514 29:1.254205 30:6.332 31:2.657327 32:1.160274 33:6.334 34:3.044554 35:0.92183 36:6.316 37:3.042976 38:0.637441 39:6.412 40:2.649798 41:0.46025 42:6.61 43:2.639586 44:0.164715 45:6.601 46:2.595194 47:0.020449 48:6.318667 49:2.506239 50:-0.125648 51:6.3705 
1 1:1.729591 2:0.182548 3:9.425 4:1.612018 5:0.233435 6:9.355 7:1.608227 8:0.337128 9:9.333 10:1.540221 11:0.52235 12:9.229 13:1.585189 14:0.595617 15:9.3 16:1.683669 17:0.817939 18:9.269 19:1.522355 20:0.948949 21:9.37 22:1.787947 23:0.969568 24:9.31675 25:1.742854 26:1.003318 27:9.308001 28:1.861455 29:1.005252 30:9.326 31:1.816362 32:0.969389 33:9.315001 34:2.081954 35:0.946822 36:9.349 37:1.92064 38:0.805781 39:9.328 40:1.883806 41:0.614841 42:9.329 43:1.928773 44:0.521465 45:9.3675 46:1.860767 47:0.342374 48:9.318334 49:1.856976 50:0.23351 51:9.358 
0.22582381227868514 1:-3.668279 2:0.591879 3:5.444 4:-3.673098 5:0.595956 6:5.4815 7:-3.685989 8:0.599359 9:5.42 10:-3.675581 11:0.607179 12:5.269 13:-3.695981 14:0.615818 15:5.143818 16:-3.701305 17:0.644257 18:5.134556 19:-3.712309 20:0.671632 21:5.124667 22:-3.72193 23:0.701581 24:5.509667 25:-3.71089 26:0.708318 27:5.1278 28:-3.625669 29:0.709956 30:5.3262 31:-3.614629 32:0.70353 33:5.525 34:-3.624249 35:0.671638 36:5.5334 37:-3.635253 38:0.642746 39:5.532875 40:-3.640578 41:0.617567 42:5.522666 43:-3.660977 44:0.605063 45:5.381 46:-3.650569 47:0.599815 48:5.517 49:-3.66346 50:0.59528 51:5.294 
1 1:2.765944 2:-0.618667 3:4.642 4:2.677417 5:-0.495239 6:4.659625 7:2.425431 8:-0.376383 9:4.746833 10:2.422107 11:-0.257149 12:4.7317 13:2.421009 14:-0.035204 15:4.733 16:2.698884 17:0.241008 18:4.558 19:2.569854 20:0.425994 21:4.632 22:2.506524 23:0.649314 24:4.688 25:2.618081 26:0.860682 27:4.7225 28:2.813612 29:0.873775 30:4.722 31:2.925169 32:0.647513 33:4.675 34:2.86184 35:0.442952 36:4.629 37:3.02076 38:0.191553 39:4.733667 40:2.776024 41:-0.081682 42:4.573 43:3.109782 44:-0.226054 45:4.7445 46:3.106458 47:-0.377303 48:4.545 49:2.854472 50:-0.50107 51:4.6735 
0.069728516382330213 1:-3.548205 2:-1.064531 3:6.681 4:-3.57719 5:-0.976294 6:6.63075 7:-3.615863 8:-0.905547 9:6.351 10:-3.728436 11:-0.87008 12:6.351 13:-3.595257 14:-0.768977 15:6.346 16:-3.529765 17:-0.618851 18:7.059 19:-3.792032 20:-0.578732 21:6.532 22:-3.884402 23:-0.515609 24:6.659 25:-3.78487 26:-0.479284 27:6.671 28:-3.671376 29:-0.472184 30:6.747 31:-3.571845 32:-0.510055 33:6.92 34:-3.487134 35:-0.564241 36:7.116 37:-3.497971 38:-0.618721 39:7.0575 40:-3.432479 41:-0.769848 42:6.5545 43:-3.2993 44:-0.871125 45:7.027 46:-3.287022 47:-0.908703 48:6.882333 49:-3.28841 50:-0.964508 51:6.854 
0.92199192135711872 1:2.791627 2:-0.165564 3:5.703 4:2.700668 5:0.104861 6:5.414 7:2.766277 8:0.246865 9:5.434 10:2.746469 11:0.399551 12:5.447 13:2.730903 14:0.616869 15:5.486 16:2.777092 17:0.777279 18:5.465 19:2.738163 20:0.940187 21:5.556 22:2.721014 23:1.051504 24:5.516 25:2.673804 26:1.182309 27:5.5275 28:2.90945 29:1.188777 30:5.582 31:2.86224 32:1.062597 33:5.513626 34:2.84509 35:0.925008 36:5.558 37:2.806162 38:0.785513 39:5.487 40:2.852351 41:0.609278 42:5.479 43:2.836785 44:0.377479 45:5.4504 46:2.816977 47:0.236314 48:5.424 49:2.882586 50:0.114621 51:5.399 
0.47554880400761995 1:4.004719 2:-0.899039 3:8.104 4:3.915846 5:-0.427707 6:8.177999 7:3.919971 8:-0.142279 9:7.9655 10:3.980937 11:0.292626 12:7.704 13:3.886379 14:0.494048 15:8.451 16:3.914824 17:0.556823 18:8.331 19:3.837471 20:0.637836 21:8.695499 22:3.821114 23:0.752116 24:8.347 25:3.888096 26:0.947654 27:8.029 28:4.243272 29:0.942349 30:8.112 31:4.310254 32:0.754909 33:8.378 34:4.293898 35:0.653056 36:7.7265 37:4.216545 38:0.555884 39:8.316999 40:4.244989 41:0.496326 42:7.6385 43:4.150432 44:0.297213 45:8.228 46:4.089467 47:-0.141921 48:7.9455 49:4.093593 50:-0.425686 51:7.997 
1 1:-4.580746 2:0.31047 3:8.595 4:-4.793684 5:0.406657 6:8.599 7:-4.782885 8:0.49178 9:8.594666 10:-4.661884 11:0.557622 12:8.582001 13:-4.6313 14:0.654456 15:8.56 16:-4.611673 17:0.735243 18:8.572999 19:-4.637468 20:0.852282 21:8.627 22:-4.671909 23:0.96837 24:8.612 25:-4.636061 26:1.094711 27:8.597 28:-4.414732 29:1.082974 30:8.631001 31:-4.378884 32:0.96792 33:8.608 34:-4.413325 35:0.82715 36:8.644 37:-4.43912 38:0.757403 39:8.583 40:-4.419493 41:0.642252 42:8.539 43:-4.388909 44:0.56551 45:8.5805 46:-4.378607 47:0.485391 48:8.576 49:-4.367807 50:0.406799 51:8.602 
0.12502259642488123 1:-0.973113 2:-0.947538 3:11.95 4:-1.158666 5:-0.940005 6:11.855 7:-0.749209 8:-0.879697 9:11.935 10:-1.093126 11:-0.82322 12:11.921501 13:-1.103 14:-0.722539 15:11.908 16:-1.102723 17:-0.61155 18:11.905 19:-1.036782 20:-0.523256 21:11.913 22:-1.061498 23:-0.391115 24:11.941 25:-0.903267 26:-0.31253 27:11.910999 28:-0.716681 29:-0.30124 30:11.903 31:-0.55845 32:-0.369412 33:11.958 34:-0.583166 35:-0.5251 36:11.955 37:-0.606699 38:-0.613553 39:11.944 40:-0.606421 41:-0.732657 42:11.8925 43:-0.616296 44:-0.825091 45:11.9485 46:-0.504173 47:-0.87955 48:11.933 49:-0.78756 50:-0.938975 51:11.842 
0.0019182381798607845 1:3.739575 2:0.437283 3:8.27 4:3.643949 5:0.490163 6:8.210334 7:3.470808 8:0.539828 9:7.551 10:3.192668 11:0.615363 12:7.4445 13:2.909999 14:0.678858 15:8.6 16:3.67278 17:0.818328 18:8.898 19:2.903957 20:0.97434 21:7.434334 22:2.862589 23:1.099654 24:8.3905 25:3.193027 26:1.235584 27:7.594 28:3.433925 29:1.234937 30:7.179333 31:3.207268 32:1.110642 33:8.128 34:3.1659 35:0.97374 36:7.030333 37:3.80637 38:0.816763 39:6.232 40:4.56915 41:0.679677 42:8.412 43:4.286482 44:0.614761 45:7.788 46:4.008342 47:0.539614 48:7.548 49:3.835201 50:0.490212 51:7.438 
1 1:1.935356 2:-0.153533 3:4.004667 4:1.859351 5:-0.125423 6:4.06 7:1.850705 8:-0.105181 9:4.0085 10:1.754145 11:-0.075538 12:4.229 13:1.762462 14:-0.044475 15:4.27 16:1.947819 17:-0.016524 18:4.237 19:1.973293 20:-0.004699 21:4.24 22:1.96384 23:0.003293 24:4.372 25:2.003193 26:0.035446 27:4.323 28:2.304361 29:0.038705 30:4.239 31:2.328534 32:0.008367 33:4.192334 34:2.319082 35:-0.004632 36:4.18 37:2.293608 38:-0.015971 39:4.24 40:2.108251 41:-0.043561 42:4.1826 43:2.116568 44:-0.076217 45:4.267 46:2.020008 47:-0.109558 48:4.126667 49:2.011362 50:-0.119288 51:4.109 
0.08468157876744048 1:-2.475312 2:-0.946655 3:11.277 4:-2.48058 5:-0.664671 6:11.301 7:-2.528167 8:-0.371037 9:11.328 10:-2.565355 11:-0.012522 12:11.2995 13:-2.509841 14:0.197741 15:11.295 16:-2.568745 17:0.40939 18:11.3335 19:-2.589265 20:0.704973 21:11.337 22:-2.590515 23:0.872263 24:11.316999 25:-2.595492 26:1.156206 27:11.347 28:-2.355133 29:1.129041 30:11.357 31:-2.360109 32:0.873265 33:11.33 34:-2.361359 35:0.683808 36:11.336 37:-2.381879 38:0.409372 39:11.333 40:-2.440783 41:0.198039 42:11.312 43:-2.385269 44:-0.033555 45:11.299 46:-2.422458 47:-0.392021 48:11.325 49:-2.470044 50:-0.68407 51:11.274 
1 1:2.730104 2:0.043571 3:5.314 4:2.710622 5:0.1615 6:5.288667 7:2.625309 8:0.278602 9:5.269 10:2.569356 11:0.480761 12:5.3355 13:2.577807 14:0.653616 15:5.32775 16:2.5955 17:0.831081 18:5.374334 19:2.577538 20:0.949613 21:5.347 22:2.599059 23:1.068919 24:5.297 25:2.511126 26:1.249032 27:5.408 28:2.949082 29:1.24623 30:5.425 31:2.861149 32:1.073157 33:5.318 34:2.882669 35:0.961541 36:5.358 37:2.864708 38:0.828735 39:5.3506 40:2.8824 41:0.637324 42:5.3575 43:2.890852 44:0.491323 45:5.342333 46:2.834898 47:0.288751 48:5.385 49:2.749586 50:0.169405 51:5.2285 
0.016258988040525401 1:2.420457 2:0.61869 3:6.109 4:2.151648 5:0.657292 6:7.147 7:2.115122 8:0.67111 9:6.8145 10:1.815064 11:0.708059 12:7.699 13:1.859429 14:0.998673 15:8.079 16:1.971761 17:1.322823 18:7.2955 19:1.956164 20:1.367417 21:6.2835 22:1.884243 23:1.39043 24:6.5005 25:1.914685 26:1.404911 27:4.335667 28:2.92623 29:1.404348 30:4.561 31:2.956671 32:1.391754 33:5.8 34:2.884751 35:1.366625 36:6.5605 37:2.869154 38:1.327687 39:7.175 40:2.981485 41:1.002156 42:4.0355 43:3.025851 44:0.709013 45:4.00275 46:2.725793 47:0.67134 48:5.514 49:2.689267 50:0.656862 51:5.94 
0.0043908850238558112 1:2.627276 2:-1.996444 3:6.678167 4:2.539392 5:-1.246989 6:6.726 7:2.487372 8:-0.482517 9:6.716 10:2.456622 11:0.304334 12:6.699 13:1.429579 14:1.081966 15:8.0275 16:3.13263 17:1.145077 18:8.38 19:3.043261 20:1.187623 21:6.758 22:2.952115 23:1.235584 24:7.594 25:2.577253 26:1.288344 27:6.326 28:3.585657 29:1.287504 30:5.697 31:3.210795 32:1.235852 33:5.273 34:3.637008 35:1.187453 36:7.056 37:3.54764 38:1.145909 39:7.656 40:3.824974 41:1.08427 42:7.935 43:2.797931 44:0.284989 45:6.684 46:2.767181 47:-0.497836 48:6.67 49:2.715161 50:-1.241788 51:6.6645 
0.065899225589380869 1:-3.97074 2:-0.037596 3:6.52525 4:-4.046956 5:0.053304 6:6.501 7:-4.056588 8:0.089554 9:6.497 10:-3.874812 11:0.11446 12:6.538 13:-3.924464 14:0.209914 15:6.479 16:-3.741982 17:0.24602 18:6.477 19:-3.732714 20:0.283293 21:6.5584 22:-3.789666 23:0.319837 24:6.507 25:-3.767288 26:0.373162 27:6.5932 28:-3.373536 29:0.373552 30:6.6 31:-3.351157 32:0.320279 33:6.516 34:-3.303757 35:0.281407 36:6.459 37:-3.330927 38:0.247805 39:6.524 40:-3.895896 41:0.198647 42:6.505 43:-3.846244 44:0.114425 45:6.536 46:-3.664468 47:0.090802 48:6.5875 49:-3.894524 50:0.053116 51:6.478 
0.15704993134846762 1:4.634271 2:-0.707702 3:8.525 4:4.447593 5:-0.589739 6:8.657 7:4.295081 8:-0.406959 9:8.7115 10:4.433732 11:-0.314748 12:8.484334 13:4.143515 14:-0.188458 15:8.731 16:4.147181 17:-0.074315 18:8.6875 19:4.521597 20:0.164555 21:8.496 22:4.535714 23:0.418683 24:8.518 25:4.423497 26:0.772779 27:8.6478 28:4.686933 29:0.784852 30:8.534 31:5.010129 32:0.418536 33:8.515 34:5.024246 35:0.149019 36:8.512 37:5.398663 38:-0.073986 39:8.649 40:5.402328 41:-0.172225 42:8.732 43:5.112112 44:-0.314432 45:8.62 46:4.973461 47:-0.414569 48:8.701 49:4.82095 50:-0.587051 51:8.5015 
0.19813029153744505 1:4.553475 2:0.021679 3:8.291 4:4.583346 5:0.052008 6:8.206 7:4.650369 8:0.153921 9:8.792 10:4.42185 11:0.197477 12:8.115666 13:4.231101 14:0.303069 15:8.846 16:4.231579 17:0.336041 18:8.847 19:4.162458 20:0.387788 21:8.536 22:4.18311 23:0.464227 24:8.481 25:4.243988 26:0.646432 27:8.387 28:4.351669 29:0.645815 30:8.379 31:4.412547 32:0.493347 33:8.439 34:4.433198 35:0.366709 36:8.072 37:4.671803 38:0.335405 39:8.042 40:4.529627 41:0.305996 42:8.056 43:4.662055 44:0.221245 45:7.974 46:4.776339 47:0.141666 48:8.092 49:4.843362 50:0.051679 51:8.154 
1 1:1.72466 2:-0.388524 3:11.224 4:1.707606 5:-0.221454 6:11.228 7:1.695058 8:0.008464 9:11.236 10:1.700113 11:0.224802 12:11.246333 13:1.696337 14:0.385243 15:11.244499 16:1.689859 17:0.594377 18:11.241 19:1.667394 20:0.738217 21:11.201 22:1.638637 23:0.867639 24:11.257 25:1.640732 26:1.050886 27:11.2 28:1.808588 29:1.053232 30:11.225 31:1.810682 32:0.887094 33:11.238 34:1.781926 35:0.720825 36:11.255 37:1.759461 38:0.591098 39:11.179 40:1.752982 41:0.405868 42:11.236 43:1.749207 44:0.228026 45:11.233 46:1.754262 47:0.008468 48:11.241 49:1.741714 50:-0.220882 51:11.199 
1 1:2.316864 2:-0.12373 3:4.262 4:2.107976 5:-0.089318 6:4.138 7:2.189261 8:-0.012005 9:4.0425 10:2.217634 11:0.067818 12:4.334667 13:2.052459 14:0.08768 15:4.130001 16:2.032721 17:0.111898 18:4.03325 19:2.188334 20:0.170338 21:4.275 22:1.94396 23:0.235303 24:4.025 25:2.065101 26:0.324484 27:4.176333 28:2.568627 29:0.325441 30:4.179143 31:2.689768 32:0.224162 33:4.004333 34:2.445394 35:0.170165 36:4.270667 37:2.601007 38:0.109526 39:4.38925 40:2.581269 41:0.088168 42:4.153 43:2.416094 44:0.067792 45:4.333 46:2.444467 47:0.006831 48:4.058 49:2.525752 50:-0.094375 51:4.25 
1 1:2.349903 2:-0.168308 3:9.761666 4:2.298484 5:-0.101231 6:9.719 7:2.150417 8:-0.074872 9:9.821 10:2.1933 11:-0.029249 12:9.849 13:2.20154 14:-0.010956 15:9.886 16:2.223391 17:0.043152 18:9.64 19:2.29136 20:0.114968 21:9.643 22:2.280541 23:0.153779 24:9.829 25:2.319159 26:0.299818 27:9.818 28:2.389115 29:0.299971 30:9.823 31:2.427733 32:0.153466 33:9.809 34:2.416913 35:0.114789 36:9.628 37:2.484883 38:0.043089 39:9.626 40:2.506734 41:-0.010646 42:9.606501 43:2.390018 44:-0.028616 45:9.636 46:2.432901 47:-0.065442 48:9.778 49:2.401322 50:-0.101283 51:9.724 
0.75471995235806766 1:-3.313322 2:0.23967 3:6.635 4:-3.337538 5:0.312816 6:6.529 7:-3.342673 8:0.366506 9:6.4755 10:-3.414604 11:0.413448 12:6.55075 13:-3.525278 14:0.463 15:6.6495 16:-3.479279 17:0.473341 18:6.621 19:-3.388706 20:0.583561 21:6.613 22:-3.374694 23:0.635504 24:6.5145 25:-3.474097 26:0.649171 27:6.53 28:-3.272069 29:0.661124 30:6.528 31:-3.309505 32:0.636625 33:6.526 34:-3.295493 35:0.608918 36:6.621 37:-3.20492 38:0.490948 39:6.693 40:-3.197494 41:0.461401 42:6.671 43:-3.21204 44:0.438673 45:6.656 46:-3.283972 47:0.347473 48:6.495333 49:-3.289107 50:0.291068 51:6.541 
1 1:2.263418 2:-0.107027 3:4.229 4:1.95852 5:-0.044867 6:4.307667 7:2.145374 8:0.052482 9:4.402 10:2.114263 11:0.082819 12:4.218143 13:2.008081 14:0.104354 15:4.182 16:2.032246 17:0.139413 18:4.303 19:2.004319 20:0.170681 21:4.218 22:2.001714 23:0.225188 24:4.185 25:1.9103 26:0.245711 27:4.073333 28:2.336859 29:0.245811 30:4.075 31:2.592346 32:0.227301 33:4.016 34:2.58974 35:0.168517 36:4.13275 37:2.561814 38:0.135765 39:4.3402 40:2.585978 41:0.105651 42:4.234 43:2.479797 44:0.081696 45:4.357334 46:2.381461 47:0.0525 48:4.4035 49:2.568316 50:-0.040633 51:4.2835 
0.64772412215968322 1:4.51076 2:0.019951 3:7.63 4:4.347085 5:0.063816 6:7.783 7:4.222525 8:0.164341 9:7.741 10:4.218701 11:0.192001 12:7.6945 13:4.10169 14:0.243706 15:7.522 16:4.156682 17:0.322226 18:7.726 19:4.163909 20:0.357804 21:7.876 22:4.234819 23:0.415018 24:7.582 25:4.254209 26:0.548427 27:7.7725 28:4.389025 29:0.5231 30:7.719 31:4.408414 32:0.402332 33:7.609 34:4.479325 35:0.357895 36:7.878 37:4.486552 38:0.322518 39:7.733 40:4.541543 41:0.244645 42:7.551 43:4.424533 44:0.191589 45:7.678 46:4.457479 47:0.16526 48:7.4575 49:4.674436 50:0.06475 51:7.897 
0.0090045059951622628 1:3.984458 2:-0.876947 3:9.311 4:3.266425 5:-0.710371 6:9.761 7:4.55868 8:-0.575413 9:8.684 10:2.096214 11:-0.296718 12:9.059 13:2.767637 14:-0.046428 15:9.61 16:4.006932 17:0.144686 18:8.2645 19:4.043127 20:0.399753 21:8.453 22:3.434982 23:0.557688 24:8.836 25:3.373065 26:0.788377 27:8.934 28:3.88864 29:0.788806 30:8.577 31:3.826724 32:0.553412 33:8.641 34:6.083612 35:0.394929 36:8.351 37:6.119807 38:0.143531 39:8.1985 40:3.133351 41:-0.040578 42:8.399 43:3.804774 44:-0.29553 45:8.5375 46:4.759428 47:-0.57422 48:8.666 49:4.702491 50:-0.710663 51:9.765 
0.24740694087960674 1:-3.633187 2:0.220026 3:10.8395 4:-3.885046 5:0.285387 6:10.643 7:-3.90941 8:0.32211 9:10.548 10:-4.144364 11:0.364738 12:10.646 13:-3.871367 14:0.517271 15:10.938 16:-3.768849 17:0.586072 18:10.707 19:-4.065262 20:0.748655 21:10.752 22:-3.851533 23:0.91566 24:10.7155 25:-3.85819 26:0.99426 27:10.5965 28:-3.540067 29:0.985863 30:10.507 31:-3.546724 32:0.917458 33:10.7365 34:-3.332994 35:0.747472 36:10.735 37:-3.629407 38:0.586182 39:10.709 40:-3.526889 41:0.517792 42:10.949 43:-3.253892 44:0.36395 45:10.623 46:-3.488847 47:0.312397 48:10.894 49:-3.381327 50:0.285628 51:10.652 
1 1:1.914836 2:-0.164137 3:4.083 4:1.813471 5:-0.148753 6:4.078 7:1.694311 8:-0.125211 9:4.313 10:2.004739 11:-0.09492 12:4.216 13:1.936941 14:-0.072074 15:4.18 16:1.928123 17:-0.058832 18:4.161 19:1.813003 20:-0.012869 21:4.3335 22:1.825043 23:0.01161 24:4.44 25:2.001766 26:0.040333 27:4.41775 28:2.198025 29:0.040388 30:4.423334 31:2.374748 32:0.011194 33:4.280334 34:2.386788 35:-0.012884 36:4.3385 37:2.271668 38:-0.053511 39:4.3585 40:2.26285 41:-0.069409 42:4.338 43:2.195052 44:-0.094628 45:4.384 46:2.135361 47:-0.125211 48:4.313 49:2.016201 50:-0.154371 51:4.12675 
1 1:2.686919 2:-0.122282 3:6.846 4:2.483189 5:-0.076905 6:6.6686 7:2.360533 8:0.004896 9:6.499 10:2.680873 11:0.108939 12:6.963 13:2.709107 14:0.294907 15:6.4915 16:2.783051 17:0.47348 18:6.8 19:2.759559 20:0.667265 21:6.712 22:2.807008 23:0.830072 24:6.766 25:2.819652 26:0.966268 27:6.706 28:2.945398 29:0.975707 30:6.7065 31:2.958042 32:0.823899 33:6.494 34:3.005491 35:0.671852 36:6.5735 37:2.981998 38:0.50207 39:6.514 40:2.982913 41:0.313576 42:6.50275 43:3.011148 44:0.103959 45:6.45275 46:3.013304 47:-0.013316 48:6.529167 49:2.890648 50:-0.075651 51:6.66775 
0.14578124867836761 1:-3.767143 2:0.274736 3:7.233 4:-4.067178 5:0.3221 6:7.2385 7:-3.853724 8:0.359159 9:7.307 10:-3.867356 11:0.475121 12:7.011 13:-3.639797 14:0.587134 15:7.103 16:-3.486644 17:0.641105 18:7.115 19:-3.440037 20:0.758811 21:7.101 22:-3.378999 23:0.842726 24:7.14 25:-3.376281 26:0.915383 27:7.1625 28:-3.03542 29:0.915433 30:7.242 31:-2.934339 32:0.851653 33:7.574 34:-3.399162 35:0.744177 36:7.6285 37:-3.352554 38:0.641479 39:7.548 40:-3.467582 41:0.585791 42:7.421 43:-3.240023 44:0.493988 45:7.001 46:-3.253655 47:0.358422 48:7.292 49:-3.467109 50:0.321098 51:7.2462 
0.99380396872497656 1:4.509112 2:-0.411204 3:7.066 4:4.43695 5:-0.321912 6:7.031 7:4.368161 8:-0.285201 9:6.882 10:4.459841 11:-0.190811 12:7.023 13:4.388555 14:-0.13831 15:7.0125 16:4.360795 17:-0.059837 18:6.995 19:4.377816 20:-0.007791 21:7.03 22:4.392303 23:0.030905 24:6.904 25:4.497614 26:0.076309 27:6.943 28:4.520609 29:0.057441 30:7.0055 31:4.625921 32:0.018066 33:6.909 34:4.640408 35:-0.007702 36:6.95 37:4.657429 38:-0.059174 39:6.9175 40:4.629669 41:-0.128042 42:6.882 43:4.558383 44:-0.229933 45:7.02 46:4.650063 47:-0.302938 48:6.897 49:4.581274 50:-0.31124 51:6.939 
0.2695282905874245 1:4.798479 2:-0.451586 3:7.929 4:4.425084 5:-0.370204 6:8.2535 7:4.584689 8:-0.341961 9:8.13 10:4.460575 11:-0.31068 12:8.30525 13:4.462346 14:-0.241625 15:8.323 16:4.454302 17:-0.14357 18:8.327332 19:4.414093 20:-0.02445 21:8.233 22:4.45568 23:0.005968 24:7.922 25:4.582704 26:0.072448 27:8.214 28:4.70774 29:0.072398 30:8.208334 31:4.834764 32:0.005981 33:7.94 34:4.876351 35:-0.024598 36:8.283 37:4.836142 38:-0.14143 39:7.918 40:4.816558 41:-0.243989 42:7.898 43:4.837364 44:-0.303641 45:7.92 46:4.680026 47:-0.343264 48:8.161 49:4.839631 50:-0.366139 51:7.997 
0.73779454320609994 1:2.965374 2:-0.381141 3:5.171 4:2.793199 5:-0.283674 6:4.748 7:2.904876 8:-0.127809 9:4.871 10:2.887857 11:0.011822 12:4.521 13:2.919729 14:0.175219 15:4.3975 16:2.843173 17:0.263467 18:4.655 19:2.916116 20:0.305221 21:5.221 22:2.908604 23:0.347107 24:5.122 25:2.934179 26:0.513354 27:4.804 28:2.996568 29:0.521065 30:4.752 31:3.022143 32:0.345676 33:4.877666 34:3.014631 35:0.308181 36:4.956 37:3.087574 38:0.254996 39:5.50025 40:3.011018 41:0.17377 42:5.072 43:3.04289 44:0.031822 45:5.021 46:3.025872 47:-0.149771 48:5.159 49:3.137548 50:-0.291465 51:5.2905 
0.28776362920935356 1:0.186529 2:-0.754179 3:4.472 4:-0.011125 5:-0.733136 6:4.388714 7:-0.037671 8:-0.725006 9:4.347 10:-0.139101 11:-0.702148 12:4.2655 13:-0.163214 14:-0.673501 15:4.217 16:-0.160295 17:-0.608615 18:4.4125 19:-0.160585 20:-0.578909 21:4.169 22:-0.105692 23:-0.561081 24:4.3 25:-0.076235 26:-0.551454 27:4.236333 28:0.098134 29:-0.550182 30:4.2165 31:0.127591 32:-0.558761 33:4.313 34:0.182483 35:-0.583082 36:4.375 37:0.184193 38:-0.613208 39:4.416 40:0.187113 41:-0.689734 42:4.486 43:0.30461 44:-0.701674 45:4.2836 46:0.20318 47:-0.724855 48:4.362333 49:0.176633 50:-0.737107 51:4.503334 
0.035838568814221879 1:-3.937207 2:0.185976 3:10.623 4:-4.052442 5:0.284173 6:10.242001 7:-4.807168 8:0.368373 9:10.198 10:-3.976694 11:0.598984 12:10.246 13:-2.867259 14:0.762442 15:10.95 16:-3.818795 17:0.798656 18:10.362 19:-3.9425 20:0.835469 21:10.584 22:-4.010947 23:0.888956 24:10.403 25:-3.79253 26:0.929039 27:10.3105 28:-3.737014 29:0.929354 30:10.314 31:-3.518596 32:0.884545 33:10.701 34:-3.587044 35:0.835469 36:10.584 37:-3.158113 38:0.797708 39:10.875 40:-2.788285 41:0.752156 42:11.099 43:-3.89772 44:0.605649 45:10.36 46:-3.067246 47:0.36812 48:10.191 49:-3.821972 50:0.282196 51:10.524 
0.12526641195503008 1:3.270165 2:-0.556504 3:5.684 4:2.982225 5:-0.410137 6:6.104 7:3.016308 8:-0.247713 9:6.162 10:2.904398 11:-0.050298 12:4.829 13:2.840116 14:0.154764 15:5.068 16:2.881649 17:0.259449 18:5.955 19:3.014426 20:0.37141 21:6.2535 22:2.939071 23:0.527826 24:5.027 25:3.024694 26:0.636427 27:4.998 28:3.515636 29:0.635536 30:4.991 31:3.601259 32:0.52781 33:5.26 34:3.525903 35:0.369476 36:5.037 37:3.658681 38:0.260176 39:5.727 40:3.700214 41:0.133239 42:6.276 43:3.635931 44:-0.061798 45:5.0335 46:3.524022 47:-0.257946 48:5.058 49:3.558105 50:-0.408192 51:5.992 
0.047190739394580447 1:3.707087 2:-0.73105 3:9.794499 4:3.164561 5:-0.47577 6:9.9855 7:3.064335 8:-0.329309 9:10.054 10:3.091851 11:-0.102523 12:9.843 13:2.85443 14:0.063226 15:9.976 16:2.408711 17:0.212396 18:9.198 19:3.822294 20:0.402309 21:9.234 22:3.768166 23:0.61807 24:9.378 25:4.227168 26:0.780472 27:9.234 28:4.480885 29:0.776668 30:9.189 31:4.091444 32:0.615197 33:9.078 34:4.037315 35:0.400566 36:9.194 37:3.615268 38:0.212199 39:9.1895 40:3.169549 41:0.069035 42:9.498 43:3.596252 44:-0.092888 45:8.918 46:3.623767 47:-0.317978 48:9.186 49:3.523542 50:-0.468986 51:9.473 
1 1:2.704281 2:-0.182341 3:5.567 4:2.662669 5:-0.079012 6:5.588666 7:2.728143 8:0.035508 9:5.6025 10:2.69527 11:0.131152 12:5.679333 13:2.65131 14:0.277386 15:5.246 16:2.759725 17:0.49297 18:5.471 19:2.719732 20:0.735958 21:5.460333 22:2.694236 23:0.923995 24:5.450333 25:2.718135 26:1.066314 27:5.4345 28:2.904104 29:1.068343 30:5.1865 31:2.928003 32:0.924042 33:5.1225 34:2.902507 35:0.765572 36:5.179333 37:2.862514 38:0.492964 39:5.470875 40:2.970929 41:0.287316 42:5.249 43:2.926969 44:0.132386 45:5.61975 46:2.894096 47:0.035254 48:5.5625 49:2.95957 50:-0.065383 51:5.3255 
0.12345211285529469 1:-2.471467 2:0.822352 3:9.7295 4:-2.484465 5:0.855664 6:9.696501 7:-2.716316 8:0.883703 9:9.235 10:-2.607788 11:0.92236 12:9.278 13:-2.685746 14:1.017059 15:9.045 16:-2.778871 17:1.168724 18:9.046 19:-2.803754 20:1.272641 21:9.127 22:-2.824801 23:1.351012 24:9.14 25:-2.717865 26:1.383383 27:9.359 28:-2.582594 29:1.386191 30:9.378 31:-2.475658 32:1.353672 33:9.158 34:-2.496706 35:1.2451 36:9.112 37:-2.521588 38:1.160299 39:9.678 40:-2.257189 41:1.009611 42:9.448 43:-2.335147 44:0.919304 45:9.5145 46:-2.226619 47:0.886287 48:9.262 49:-2.45847 50:0.857208 51:9.714 
1 1:1.940839 2:-0.186649 3:4.753 4:1.896767 5:-0.163776 6:4.7828 7:1.889619 8:-0.139138 9:4.793 10:1.972892 11:-0.113281 12:4.8315 13:2.133256 14:-0.069666 15:5.0945 16:2.254298 17:-0.033926 18:5.069 19:2.228329 20:-0.012006 21:5.110667 22:2.187147 23:0.0038 24:5.045 25:2.034369 26:0.032466 27:5.1225 28:2.272283 29:0.03218 30:5.0775 31:2.375959 32:0.003818 33:5.068 34:2.417142 35:-0.010416 36:5.111 37:2.44311 38:-0.033855 39:5.0585 40:2.327188 41:-0.061908 42:5.0425 43:2.166824 44:-0.104352 45:5.0525 46:1.992059 47:-0.140026 48:4.823334 49:1.984911 50:-0.164874 51:4.763 
0.30320395207901163 1:-4.968409 2:0.195999 3:10.1195 4:-4.986374 5:0.316586 6:10.0605 7:-5.063118 8:0.470169 9:9.942 10:-5.046616 11:0.605088 12:10.031 13:-5.111002 14:0.732498 15:9.986 16:-5.160761 17:0.887397 18:10.127334 19:-5.129946 20:1.088408 21:10.011 22:-5.100795 23:1.189073 24:9.918 25:-5.079167 26:1.391092 27:9.9765 28:-4.830605 29:1.397244 30:10.088 31:-4.808977 32:1.207254 33:10.175 34:-4.806872 35:1.088517 36:10.012 37:-4.776057 38:0.912955 39:10.132 40:-4.825816 41:0.739246 42:10.078 43:-4.890203 44:0.604847 45:10.027 46:-4.873701 47:0.48133 48:10.178 49:-4.950444 50:0.288424 51:10.058 
0.21704797138898921 1:-4.063162 2:0.114612 3:6.546667 4:-4.149737 5:0.310136 6:6.558 7:-4.143446 8:0.327161 9:6.656 10:-4.152092 11:0.406697 12:6.673555 13:-4.270536 14:0.465334 15:6.509 16:-4.265036 17:0.5097 18:6.613 19:-4.122508 20:0.586153 21:6.642285 22:-4.120894 23:0.681689 24:6.66975 25:-4.097295 26:0.70702 27:6.655 28:-3.885645 29:0.706179 30:6.725667 31:-3.851323 32:0.672644 33:6.58125 34:-3.841818 35:0.591546 36:6.565 37:-3.868361 38:0.554332 39:6.6315 40:-3.86286 41:0.457118 42:6.654 43:-3.879839 44:0.391333 45:6.694 46:-3.888485 47:0.346265 48:6.666 49:-3.976588 50:0.291658 51:6.55425 
0.02363911000168812 1:3.427741 2:0.19521 3:7.28 4:3.165696 5:0.257948 6:7.529 7:2.874038 8:0.289266 9:8.008 10:2.735357 11:0.334419 12:9.258 13:2.88693 14:0.359921 15:9.033 16:2.756741 17:0.438848 18:9.1005 19:2.705033 20:0.556486 21:8.689 22:2.72379 23:0.706088 24:9.161 25:3.251898 26:0.849055 27:7.678 28:3.445244 29:0.849214 30:7.947 31:3.973352 32:0.70881 33:8.118 34:3.99211 35:0.550951 36:6.378 37:3.940402 38:0.433424 39:6.309 40:3.810213 41:0.360171 42:6.58 43:3.961785 44:0.331751 45:8.326 46:3.823105 47:0.288977 48:8 49:3.531446 50:0.257777 51:7.0636 
0.095082640950474265 1:3.397462 2:-0.601228 3:5.512 4:3.284567 5:-0.48352 6:6.56 7:3.069234 8:-0.308222 9:6.732 10:3.132101 11:-0.055777 12:5.355 13:2.841516 14:0.130892 15:6.758 16:2.898942 17:0.272404 18:5.542 19:2.900843 20:0.374811 21:6.311 22:2.864032 23:0.55153 24:5.997 25:3.033912 26:0.664552 27:5.543 28:3.337365 29:0.676388 30:4.95 31:3.128297 32:0.552193 33:5.5545 34:3.091486 35:0.377885 36:5.654 37:3.093387 38:0.272084 39:5.3335 40:3.551852 41:0.130989 42:6.763 43:3.261267 44:-0.047314 45:4.989 46:3.324134 47:-0.306074 48:5.204 49:3.510357 50:-0.481976 51:5.328 
1 1:2.13708 2:-0.133108 3:4.1825 4:2.019228 5:-0.106411 6:4.0555 7:2.05686 8:-0.096318 9:4.108 10:1.957075 11:-0.064961 12:4.06 13:1.92319 14:-0.057184 15:4.0445 16:2.107627 17:-0.036279 18:4.241 19:2.066451 20:-0.010104 21:4.298 22:2.034367 23:0.006964 24:4.1335 25:2.091911 26:0.04014 27:4.3955 28:2.327612 29:0.04286 30:4.132833 31:2.385156 32:0.011055 33:4.228 34:2.353071 35:-0.008129 36:4.265857 37:2.162562 38:-0.040473 39:4.131333 40:2.346999 41:-0.052645 42:4.288 43:2.200808 44:-0.084337 45:4.276 46:2.2173 47:-0.099624 48:4.249 49:2.254932 50:-0.104775 51:4.14 
0.044024111114469057 1:-3.466465 2:-0.999898 3:6.4255 4:-3.641465 5:-0.967833 6:6.532 7:-3.503518 8:-0.92612 9:6.33 10:-3.573198 11:-0.908257 12:6.37 13:-3.509584 14:-0.892427 15:6.384 16:-3.477431 17:-0.884602 18:6.457 19:-3.506575 20:-0.837775 21:6.658 22:-3.431508 23:-0.798151 24:6.7955 25:-3.467776 26:-0.7676 27:6.484 28:-3.211198 29:-0.769613 30:6.501 31:-3.247466 32:-0.800328 33:6.814 34:-3.172399 35:-0.836894 36:6.651 37:-3.201544 38:-0.880345 39:6.699 40:-3.242462 41:-0.897583 42:6.642 43:-3.236604 44:-0.908303 45:6.63 46:-3.429411 47:-0.925681 48:6.327 49:-3.291465 50:-0.971167 51:6.5545 
0.58725831066667267 1:2.41709 2:-0.195517 3:9.466001 4:2.146484 5:-0.076031 6:9.973 7:2.164348 8:0.063733 9:10.056 10:2.304905 11:0.404555 12:9.7 13:2.130541 14:0.551924 15:9.441 16:2.106247 17:0.664125 18:9.538 19:2.132464 20:0.813556 21:9.418 22:1.889655 23:1.111241 24:9.415 25:2.196085 26:1.21406 27:9.465 28:2.525468 29:1.211103 30:9.441999 31:2.944526 32:1.095458 33:9.43 34:2.701717 35:0.82408 36:9.404666 37:2.727934 38:0.658834 39:9.462 40:2.70364 41:0.552392 42:9.449 43:2.529276 44:0.405305 45:9.718 46:2.669833 47:0.063645 48:10.042 49:2.687697 50:-0.075874 51:9.953 
0.024061827694114406 1:4.327473 2:-0.55922 3:9.982 4:4.080273 5:-0.51513 6:10.028 7:4.111275 8:-0.455007 9:9.938 10:4.052398 11:-0.344528 12:9.953 13:3.89215 14:-0.309295 15:10.012 16:4.3191 17:-0.236645 18:10.093 19:4.430924 20:-0.103559 21:9.9425 22:4.377329 23:0.007226 24:9.592 25:4.588163 26:0.106777 27:9.714 28:4.631674 29:0.099165 30:9.856501 31:4.842507 32:0.007232 33:9.6 34:4.788912 35:-0.106663 36:9.5574 37:4.809262 38:-0.223128 39:9.5165 40:4.08863 41:-0.308616 42:9.99 43:4.602548 44:-0.339717 45:9.814 46:4.54367 47:-0.456289 48:9.966 49:4.574673 50:-0.515438 51:10.034 
0.77071965166923861 1:-3.460958 2:-0.397238 3:6.754 4:-3.494038 5:-0.280969 6:6.831 7:-3.473736 8:-0.104886 9:6.820333 10:-3.513199 11:-0.007626 12:6.881 13:-3.478542 14:0.169631 15:6.798 16:-3.469216 17:0.279623 18:6.8575 19:-3.488181 20:0.361247 21:6.832 22:-3.526906 23:0.610697 24:6.9205 25:-3.490196 26:0.754562 27:6.8235 28:-3.431721 29:0.744469 30:6.8475 31:-3.395011 32:0.608976 33:6.901 34:-3.433736 35:0.361353 36:6.834 37:-3.452701 38:0.272342 39:6.835 40:-3.443375 41:0.170155 42:6.819 43:-3.408718 44:0.043123 45:6.804 46:-3.448181 47:-0.131607 48:6.800799 49:-3.427879 50:-0.297842 51:6.781 
0.063735788729192222 1:4.026961 2:-0.406151 3:9.055 4:3.912715 5:-0.136841 6:8.897667 7:3.71169 8:0.158771 9:9.069 10:3.554173 11:0.243317 12:9.751 13:3.535841 14:0.374215 15:9.852 16:3.252956 17:0.453007 18:8.88 19:3.10848 20:0.530012 21:8.924 22:3.499363 23:0.61247 24:9.471334 25:2.667315 26:0.671661 27:8.93 28:4.538372 29:0.671736 30:8.931 31:3.706324 32:0.614662 33:8.907 34:4.326979 35:0.533151 36:8.930333 37:4.182503 38:0.45316 39:8.883 40:3.899618 41:0.375527 42:9.004 43:3.881286 44:0.23751 45:8.8575 46:4.342232 47:0.158438 48:9.05 49:4.141208 50:-0.125496 51:8.876 
0.021372772056570958 1:-5.34149 2:0.283434 3:9.884 4:-5.92301 5:0.328818 6:10.149 7:-5.894064 8:0.379153 9:9.982 10:-5.8867 11:0.474766 12:9.659 13:-5.658739 14:0.524131 15:9.9125 16:-5.657658 17:0.605044 18:9.73 19:-5.474133 20:0.674199 21:9.769668 22:-6.405283 23:0.767494 24:10.332 25:-4.832055 26:0.948833 27:10.013 28:-4.607243 29:0.95062 30:10.032 31:-4.277696 32:0.768385 33:10.344 34:-5.208847 35:0.673748 36:9.942 37:-5.025322 38:0.615856 39:10.2095 40:-5.024241 41:0.524157 42:9.913 43:-4.796279 44:0.443132 45:10.171 46:-4.788916 47:0.379134 48:9.9815 49:-4.759969 50:0.328462 51:10.138 
0.028899962116686904 1:-3.408623 2:0.054941 3:6.700666 4:-3.854026 5:0.101458 6:6.58325 7:-3.726034 8:0.115712 9:6.6095 10:-3.71635 11:0.163699 12:6.56025 13:-3.915557 14:0.193471 15:6.53475 16:-3.908482 17:0.215502 18:6.526333 19:-3.797008 20:0.29577 21:6.600667 22:-3.459119 23:0.359022 24:6.559 25:-3.630265 26:0.397943 27:6.597 28:-3.17174 29:0.398003 30:6.598 31:-3.342886 32:0.350038 33:6.62 34:-3.680776 35:0.294839 36:6.49 37:-3.569302 38:0.223962 39:6.537 40:-3.443124 41:0.188373 42:6.569 43:-3.642332 44:0.161964 45:6.61425 46:-3.632648 47:0.115651 48:6.606 49:-3.504656 50:0.103244 51:6.599 
0.052431563400389881 1:-3.070723 2:0.005284 3:7.014 4:-3.495892 5:0.082539 6:6.923 7:-3.366429 8:0.122601 9:7.003 10:-3.130293 11:0.171951 12:6.891 13:-3.585781 14:0.25094 15:6.947 16:-3.55516 17:0.289882 18:6.9505 19:-3.169126 20:0.313374 21:6.898 22:-3.294027 23:0.369496 24:6.988 25:-3.362605 26:0.381409 27:6.968 28:-3.09612 29:0.38546 30:7.042 31:-2.847418 32:0.37013 33:7 34:-2.97232 35:0.330944 36:6.998 37:-2.586286 38:0.292447 39:7.012 40:-2.555665 41:0.261458 42:6.96875 43:-3.011152 44:0.170508 45:7.007333 46:-2.775017 47:0.121638 48:6.948 49:-2.645554 50:0.082396 51:6.911 
0.25026130623027443 1:7.76901 2:-0.321985 3:11.851 4:7.630291 5:-0.27845 6:11.876 7:7.672669 8:-0.234176 9:11.873 10:7.699811 11:-0.146284 12:11.915 13:7.671781 14:-0.079684 15:11.906 16:7.689471 17:-0.013187 18:11.899 19:7.721275 20:0.038468 21:11.891 22:7.709825 23:0.119342 24:11.862 25:7.722838 26:0.163546 27:11.865 28:7.815181 29:0.19667 30:11.8645 31:7.828194 32:0.140965 33:11.8235 34:7.816744 35:0.05287 36:11.811 37:7.848548 38:-0.013113 39:11.833 40:7.866239 41:-0.079048 42:11.811 43:7.838209 44:-0.134252 45:11.832 46:7.86535 47:-0.222556 48:11.842501 49:7.907728 50:-0.27845 51:11.876 
0.050880374515749019 1:4.562121 2:-0.144774 3:11.792 4:4.490673 5:-0.10041 6:11.738 7:4.44494 8:-0.056878 9:11.773 10:4.445318 11:0.096539 12:11.774 13:4.333485 14:0.206556 15:11.7985 16:4.294866 17:0.274904 18:11.905 19:4.244283 20:0.375199 21:11.923 22:4.368549 23:0.470332 24:11.804 25:4.309225 26:0.585606 27:11.914 28:4.680539 29:0.587424 30:11.951 31:4.621215 32:0.494266 33:11.851 34:4.745481 35:0.375138 36:11.921 37:4.694898 38:0.252552 39:11.896 40:4.65628 41:0.205742 42:11.752 43:4.753211 44:-0.012929 45:11.667 46:4.751254 47:-0.056864 48:11.77 49:4.633569 50:-0.101231 51:11.834 
0.073115116619461018 1:3.417004 2:-0.618673 3:5.978 4:3.111327 5:-0.411748 6:6.214 7:2.897203 8:-0.168761 9:6.073 10:3.198478 11:0.04323 12:6.819666 13:2.957857 14:0.245924 15:5.5265 16:3.005647 17:0.353682 18:6.933 19:3.07743 20:0.463851 21:7.038 22:2.907788 23:0.609701 24:6.25 25:3.113785 26:0.684971 27:6.41 28:3.329576 29:0.68456 30:5.079 31:3.267042 32:0.613751 33:5.041 34:3.46521 35:0.464118 36:7.042 37:3.536993 38:0.356746 39:5.737 40:3.584783 41:0.247215 42:5.517 43:3.344162 44:0.060733 45:5.094 46:3.936804 47:-0.167068 48:6.011667 49:3.722681 50:-0.41106 51:6.292 
0.0026769592366737184 1:2.366338 2:-1.99756 3:5.458333 4:2.292213 5:-1.305105 6:5.47325 7:2.238214 8:-0.582931 9:5.533166 10:2.17528 11:0.169751 12:5.559 13:2.114576 14:0.921174 15:5.5976 16:0.907056 17:1.174748 18:6.3485 19:1.771864 20:1.217322 21:6.927 22:2.09865 23:1.24966 24:6.892 25:2.174182 26:1.301614 27:5.8315 28:2.558495 29:1.30213 30:4.298334 31:2.634027 32:1.249341 33:6.586 34:2.960812 35:1.217385 36:6.714 37:3.825621 38:1.17336 39:6.341 40:2.618101 41:0.916611 42:5.5385 43:2.557396 44:0.158263 45:5.519 46:2.494463 47:-0.586414 48:5.501333 49:2.440464 50:-1.275204 51:5.476125 
0.032736324040091629 1:1.926323 2:-0.054008 3:11.179 4:1.792044 5:0.008283 6:10.995 7:1.358756 8:0.071719 9:11.316 10:1.465944 11:0.151775 12:11.011 13:1.374554 14:0.282743 15:11.331 16:1.377614 17:0.313445 18:11.2975 19:1.60548 20:0.35153 21:10.85 22:1.582987 23:0.415427 24:10.937 25:1.58156 26:0.436623 27:10.958 28:1.696951 29:0.435946 30:10.941 31:1.695523 32:0.414098 33:10.902 34:1.673031 35:0.373029 36:10.888 37:1.900897 38:0.322089 39:11.232 40:1.903957 41:0.289999 42:10.815 43:1.812567 44:0.159968 45:10.872 46:2.493889 47:0.071599 48:11.297 49:2.060601 50:-0.012234 51:11.039 
1 1:4.550633 2:-0.457908 3:8.04 4:4.429874 5:-0.388268 6:8.149 7:4.438456 8:-0.368703 9:8.053 10:4.513196 11:-0.328676 12:8.176001 13:4.451446 14:-0.227038 15:8.169999 16:4.470545 17:-0.11509 18:8.14 19:4.458988 20:-0.047092 21:8.1745 22:4.491159 23:0.011186 24:8.140667 25:4.5018 26:0.126102 27:8.06 28:4.775135 29:0.126134 30:8.062 31:4.785775 32:0.020593 33:7.8755 34:4.817946 35:-0.044836 36:7.78125 37:4.786157 38:-0.124243 39:7.765 40:4.810528 41:-0.211405 42:7.781 43:4.787299 44:-0.318007 45:7.73175 46:4.66281 47:-0.366974 48:7.908 49:4.671391 50:-0.396012 51:7.999 
0.030663418731009261 1:-4.201602 2:0.260348 3:6.534 4:-4.457478 5:0.318804 6:6.61125 7:-4.882934 8:0.356039 9:6.7335 10:-4.314108 11:0.463833 12:6.488 13:-4.038863 14:0.63896 15:6.488 16:-3.615999 17:0.697941 18:6.58875 19:-3.878036 20:0.798558 21:7.345 22:-3.826665 23:0.911163 24:7.002 25:-3.691335 26:1.016091 27:6.788667 28:-3.064383 29:1.021529 30:6.825 31:-2.929053 32:0.910975 33:7.051 34:-2.877682 35:0.801448 36:7.5 37:-3.139719 38:0.686998 39:7.47 40:-3.669414 41:0.64241 42:6.585333 43:-4.089095 44:0.464727 45:6.5005 46:-3.520269 47:0.357387 48:6.759 49:-3.945725 50:0.319036 51:6.616001 
0.55023791573392233 1:-3.595012 2:-0.020173 3:6.793 4:-3.62464 5:0.229014 6:6.34 7:-3.754257 8:0.282902 9:6.938 10:-3.756978 11:0.379028 12:6.9245 13:-3.691436 14:0.473791 15:6.351667 16:-3.768728 17:0.51404 18:6.362 19:-3.755785 20:0.530553 21:6.347 22:-3.723891 23:0.614091 24:6.295 25:-3.715875 26:0.678598 27:6.826 28:-3.47415 29:0.688322 30:6.2245 31:-3.466134 32:0.615465 33:6.369833 34:-3.43424 35:0.53073 36:6.325667 37:-3.421297 38:0.504009 39:6.701 40:-3.498589 41:0.466815 42:6.364 43:-3.433047 44:0.397727 45:6.9135 46:-3.435768 47:0.282658 48:6.932 49:-3.565385 50:0.228834 51:6.335 
1 1:2.25747 2:-0.344699 3:4.2475 4:2.221806 5:-0.319337 6:4.3325 7:2.122289 8:-0.308592 9:4.32325 10:2.220645 11:-0.277336 12:4.1275 13:2.203578 14:-0.259626 15:4.21425 16:2.203126 17:-0.247679 18:4.0355 19:2.22457 20:-0.222628 21:4.00725 22:2.081846 23:-0.206453 24:4.019 25:2.090513 26:-0.176307 27:4.014 28:2.467313 29:-0.177976 30:4.052 31:2.475981 32:-0.213828 33:4.017 34:2.333257 35:-0.224886 36:4.082 37:2.311813 38:-0.247101 39:4.3672 40:2.311362 41:-0.258963 42:4.403 43:2.294295 44:-0.274058 45:4.023 46:2.392651 47:-0.315047 48:4.169 49:2.293134 50:-0.325777 51:4.311 
0.045583869588603172 1:2.930269 2:-1.996999 3:6.401 4:2.875751 5:-1.309594 6:6.39 7:2.855814 8:-0.679958 9:6.42575 10:2.795831 11:-0.069979 12:6.431499 13:2.769026 14:0.58673 15:6.445 16:2.331824 17:1.118599 18:7.036 19:2.479408 20:1.179101 21:8.629 22:3.03351 23:1.220199 24:7.766 25:2.91793 26:1.266417 27:6.5475 28:3.583647 29:1.266159 30:6.453 31:3.468066 32:1.221721 33:6.168 34:3.381129 35:1.179513 36:6.6415 37:3.528713 38:1.11836 39:7.0345 40:3.091511 41:0.616088 42:6.438334 43:3.064706 44:-0.072988 45:6.4325 46:3.004724 47:-0.703411 48:6.39425 49:2.984787 50:-1.302877 51:6.4155 
